{"version":"0.7.0","architecture":"SlimmableContainer","config":{"submodels":[{"max_value":0.5,"model":{"version":"0.7.0","metadata":{"date":{"year":2026,"month":5,"day":9,"hour":21,"minute":17,"second":20},"loudness":-15.911602973937988,"gain":0.8272907577380625},"architecture":"WaveNet","config":{"layers":[{"input_size":1,"condition_size":1,"head":{"out_channels":1,"kernel_size":16,"bias":true},"channels":3,"kernel_sizes":[6,6,6,6,6,6,6,6,6,6,6,6,6,6,15,15,6,6,6,6,6,6,6],"dilations":[1,3,7,17,41,101,239,1,3,7,17,41,101,239,1,13,1,3,7,17,41,101,239],"activation":[{"type":"LeakyReLU","negative_slope":0.01},{"type":"LeakyReLU","negative_slope":0.01},{"type":"LeakyReLU","negative_slope":0.01},{"type":"LeakyReLU","negative_slope":0.01},{"type":"LeakyReLU","negative_slope":0.01},{"type":"LeakyReLU","negative_slope":0.01},{"type":"LeakyReLU","negative_slope":0.01},{"type":"LeakyReLU","negative_slope":0.01},{"type":"LeakyReLU","negative_slope":0.01},{"type":"LeakyReLU","negative_slope":0.01},{"type":"LeakyReLU","negative_slope":0.01},{"type":"LeakyReLU","negative_slope":0.01},{"type":"LeakyReLU","negative_slope":0.01},{"type":"LeakyReLU","negative_slope":0.01},{"type":"LeakyReLU","negative_slope":0.01},{"type":"LeakyReLU","negative_slope":0.01},{"type":"LeakyReLU","negative_slope":0.01},{"type":"LeakyReLU","negative_slope":0.01},{"type":"LeakyReLU","negative_slope":0.01},{"type":"LeakyReLU","negative_slope":0.01},{"type":"LeakyReLU","negative_slope":0.01},{"type":"LeakyReLU","negative_slope":0.01},{"type":"LeakyReLU","negative_slope":0.01}],"bottleneck":3,"head1x1":{"active":false,"out_channels":1,"groups":1},"layer1x1":{"active":true,"groups":1},"groups_input":1,"groups_input_mixin":1,"conv_pre_film":{"active":false,"shift":true,"groups":1},"conv_post_film":{"active":false,"shift":true,"groups":1},"input_mixin_pre_film":{"active":false,"shift":true,"groups":1},"input_mixin_post_film":{"active":false,"shift":true,"groups":1},"activation_pre_film":{"active":false,"shift":true,"groups":1},"activation_post_film":{"active":false,"shift":true,"groups":1},"layer1x1_post_film":{"active":false,"shift":true,"groups":1},"head1x1_post_film":{"active":false,"shift":true,"groups":1},"gating_mode":["none","none","none","none","none","none","none","none","none","none","none","none","none","none","none","none","none","none","none","none","none","none","none"],"secondary_activation":[null,null,null,null,null,null,null,null,null,null,null,null,null,null,null,null,null,null,null,null,null,null,null],"slimmable":null}],"head":null,"head_scale":0.010586275912525981},"weights":[-18.06489372253418,-3.856966972351074,-5.030733108520508,-2.0212764739990234,-1.3937091827392578,-0.6543838977813721,1.5436623096466064,2.794179677963257,1.278226613998413,-1.1115766763687134,-0.6385025382041931,-0.014737353660166264,1.2115262746810913,2.0828237533569336,1.2035623788833618,-1.5020971298217773,-0.9598100781440735,-0.22439074516296387,1.2500474452972412,2.424978256225586,1.2797317504882812,-0.3817255198955536,-0.14900700747966766,-0.03987802192568779,-0.009536750614643097,0.007435846142470837,0.6205430030822754,-0.29614314436912537,-0.10691502690315247,-0.0603315606713295,-0.0660347267985344,0.024119993671774864,0.27531054615974426,-0.4156262278556824,-0.20207643508911133,0.04114995896816254,-0.08142002671957016,0.07060135900974274,0.48778292536735535,1.7714905738830566,1.0900031328201294,0.44789576530456543,-0.6864802837371826,-2.161025047302246,-1.2540442943572998,1.218896746635437,0.6079413294792175,0.07358799129724503,-0.957710325717926,-2.040473699569702,-1.4245527982711792,1.317284107208252,0.6059601306915283,0.10044822841882706,-0.9421261548995972,-2.0167386531829834,-1.25697660446167,7.711005687713623,-0.24858123064041138,6.152188777923584,-0.45352035760879517,-0.2599721848964691,0.8065606951713562,0.1148206889629364,-0.3950101435184479,-0.12199888378381729,0.8462347388267517,-0.0782143622636795,-0.21920841932296753,0.4459971487522125,0.5443739295005798,-1.001766562461853,0.5666128993034363,1.8172249794006348,-1.5154153108596802,-0.8273533582687378,-0.6903170347213745,-0.7442850470542908,-0.26969727873802185,0.9274547696113586,2.739072322845459,-0.07600600272417068,0.045475881546735764,-0.05549129471182823,0.09405982494354248,0.23920954763889313,0.052142590284347534,-0.12463082373142242,-0.15099577605724335,-0.031196309253573418,-0.05582558736205101,-0.0703970342874527,-0.44753679633140564,1.1689763069152832,1.0094579458236694,0.7262910008430481,0.50522780418396,0.03904322534799576,-0.6297969818115234,-0.03245113044977188,0.21692222356796265,0.2180677354335785,0.049446672201156616,0.15519490838050842,0.1556675136089325,-0.363485187292099,-0.14626838266849518,-0.16858002543449402,-0.11838291585445404,-0.032059866935014725,-0.5818655490875244,1.396841049194336,0.9531077742576599,1.011169672012329,0.658374011516571,-0.9556657075881958,-2.63293719291687,-0.0024327172432094812,0.0043517849408090115,-0.06672319769859314,0.06855947524309158,0.14169377088546753,0.14787006378173828,-0.14925168454647064,-0.0985715314745903,-0.05860963836312294,0.003595174290239811,-0.02024134248495102,-0.03574776649475098,0.35034382343292236,-0.04354742169380188,0.2813674211502075,-3.11527156829834,0.9164239764213562,3.413083791732788,0.40185827016830444,0.4890582263469696,-0.7227445840835571,1.1804531812667847,-0.8327253460884094,-2.864567756652832,0.32942506670951843,0.07739308476448059,-0.841037929058075,1.6226842403411865,0.22252391278743744,-0.842471182346344,0.12719593942165375,0.22330176830291748,0.06590965390205383,0.3066047430038452,0.2842351198196411,0.49623623490333557,0.10793553292751312,0.161002054810524,0.0410478338599205,0.04176948219537735,0.09416963160037994,-0.3571442663669586,-0.599530041217804,-0.6915605068206787,-0.5188663601875305,-0.24053312838077545,-0.4735064208507538,-0.3404124081134796,0.2386884093284607,0.24454422295093536,0.3717114329338074,0.47299766540527344,0.16076898574829102,0.5199705362319946,0.1252545565366745,0.1671268790960312,0.1785021871328354,0.2761707603931427,0.36627674102783203,0.39457201957702637,-0.45713314414024353,-0.4604390859603882,-0.4713194668292999,-0.03549009561538696,-0.09506192803382874,-0.3159615099430084,0.16393761336803436,0.14401449263095856,0.20244458317756653,0.147145614027977,0.22652047872543335,-0.5556079149246216,-0.08531596511602402,-0.10170640051364899,-0.1455172598361969,-0.26140251755714417,-0.18785159289836884,-0.3671805262565613,0.1888183355331421,0.17793072760105133,0.4591290354728699,0.23395001888275146,0.19662877917289734,-0.6467235684394836,0.8501161336898804,0.45590004324913025,-0.4813113510608673,-0.350326269865036,-0.9115782380104065,1.5872855186462402,0.40989232063293457,-0.19585993885993958,0.13159193098545074,0.39542219042778015,0.12198299169540405,-0.5365355014801025,-0.03928803279995918,0.41289591789245605,-0.6030485033988953,1.2533077001571655,0.4236128330230713,0.19051015377044678,0.2959486246109009,0.3277772068977356,0.11640173941850662,0.2467881590127945,0.39005565643310547,-0.41114386916160583,0.014578410424292088,0.08922417461872101,0.1672847867012024,0.28691840171813965,0.27638673782348633,0.21398884057998657,0.041483666747808456,-0.08026599884033203,-0.18904921412467957,-0.325084924697876,-0.39102745056152344,0.6256868839263916,-0.021535126492381096,-0.044632457196712494,-0.19831646978855133,-0.09540555626153946,0.06650231033563614,0.061723437160253525,-0.001496952143497765,0.018340179696679115,0.016955429688096046,0.0745757520198822,0.13845987617969513,-0.502448320388794,-0.0004906711983494461,-0.033902671188116074,-0.060241784900426865,-0.13043855130672455,-0.17090706527233124,0.3268241286277771,-0.15286651253700256,-0.18927332758903503,-0.11473343521356583,-0.010178517550230026,-0.08460009843111038,0.7174637913703918,0.036583948880434036,0.07245910167694092,0.1263265460729599,0.06750373542308807,0.1734304279088974,-0.12267246097326279,-0.059920232743024826,-0.1351361721754074,-0.20348507165908813,-0.11791872978210449,-0.3118862509727478,0.16745296120643616,0.6951223611831665,-0.7074559330940247,-0.20593588054180145,-0.45066723227500916,-0.005735452752560377,-0.7034969329833984,0.09417292475700378,-0.14824579656124115,-0.5952558517456055,0.050178367644548416,1.045282006263733,-0.03877856209874153,0.3070746660232544,0.8115569949150085,0.3405945897102356,0.8519898653030396,-0.3492478132247925,0.1195707619190216,-0.03635234385728836,0.07632427662611008,0.04872054606676102,0.23355598747730255,-0.04474985599517822,-0.07454538345336914,0.05378944054245949,-0.02821843884885311,-0.03743426501750946,-0.06083647534251213,-0.05355677008628845,-0.37159356474876404,-0.06020456925034523,0.037918683141469955,0.0664421021938324,0.12305056303739548,0.03474515303969383,0.3839854896068573,-0.20238381624221802,-0.1297852247953415,-0.19383592903614044,-0.1348530501127243,-0.1957598775625229,0.34580615162849426,0.0007505999528802931,-0.0034459636081010103,0.02564260922372341,-0.024508699774742126,-0.01147492416203022,-0.505172073841095,-0.0016409129602834582,0.0055060312151908875,-0.02680351212620735,0.032210323959589005,0.012755037285387516,-0.23450015485286713,0.1911013275384903,0.06259351223707199,0.12928804755210876,0.21246173977851868,0.0374787338078022,-0.18620982766151428,0.009367542341351509,-0.04341309517621994,-0.019295627251267433,-0.024386432021856308,0.056594062596559525,-0.17031729221343994,-0.008753383532166481,0.057580288499593735,0.023079991340637207,-0.0008296897285617888,-0.15068694949150085,0.43645450472831726,0.37135758996009827,-1.468316912651062,0.0033824231941252947,0.4732348918914795,-0.48106682300567627,-0.7188736200332642,0.16515900194644928,-0.1157727986574173,0.2814112603664398,0.48844480514526367,0.6086231470108032,0.4468621015548706,-0.47677338123321533,0.6352019906044006,-0.043335914611816406,1.3220573663711548,-0.5596548914909363,-0.2489822953939438,0.028495842590928078,0.09200293570756912,0.04556383937597275,0.046265024691820145,0.05390635505318642,-0.15005053579807281,0.009086424484848976,0.05004279315471649,0.05350922793149948,-0.11902519315481186,-0.07396125793457031,-0.15745778381824493,-0.012896710075438023,-0.05657949298620224,-0.07381127774715424,0.0598439984023571,0.0879255086183548,0.17666509747505188,0.11963018029928207,0.096674345433712,0.11348894983530045,0.05595981702208519,-0.10627404600381851,0.05345778167247772,0.0074700359255075455,-0.006043263245373964,-0.0050987559370696545,0.07123349606990814,0.13330984115600586,0.27131399512290955,-0.014068861491978168,0.01428418979048729,-0.008092579431831837,-0.1566721349954605,-0.20853324234485626,-0.43625906109809875,0.15114353597164154,0.08835777640342712,0.10067835450172424,0.12375230342149734,-0.015783129259943962,0.09112413972616196,0.01798952743411064,0.003333865199238062,0.013933922164142132,0.010627012699842453,-0.023448210209608078,0.13733728229999542,-0.030645135790109634,-0.005029500462114811,-0.0331643670797348,-0.04542841762304306,0.04125211387872696,0.05055616423487663,-0.16194942593574524,-0.13205155730247498,0.22245939075946808,-0.012060735374689102,0.11984465271234512,-0.08664259314537048,-0.07283499091863632,-0.10771787911653519,0.35227712988853455,0.2477368712425232,-0.24135896563529968,-0.19955074787139893,-0.30336228013038635,0.3274087607860565,0.001463299267925322,0.9198622107505798,-0.711867094039917,0.14065581560134888,-0.031107468530535698,-0.05479327216744423,-0.06658872961997986,-0.09731505811214447,-0.26234424114227295,0.23569510877132416,0.012457755394279957,0.013457066379487514,0.007157294079661369,0.0430011972784996,0.01818644069135189,-0.775538444519043,-0.012368237599730492,-0.008324895985424519,0.004224658478051424,-0.03355897217988968,0.03374083712697029,-0.1488340049982071,0.003923102747648954,0.015749698504805565,0.0031563560478389263,0.010890544392168522,0.01812700182199478,-0.6608777046203613,-0.008822064846754074,-0.007556833792477846,-0.01080000028014183,0.002166877966374159,-0.018991993740200996,0.5864482522010803,0.012466009706258774,0.006647464819252491,0.01317808497697115,-0.0036163218319416046,0.016864730045199394,0.2407516986131668,-0.5739169716835022,-0.42709189653396606,-0.26557761430740356,0.11553391069173813,0.31401920318603516,0.3343488276004791,0.03953363373875618,-0.021366044878959656,0.04837509244680405,-0.01801024191081524,-0.018473397940397263,0.2619788646697998,0.0697728842496872,0.11873392760753632,0.009490220807492733,-0.005060723517090082,-0.03580677509307861,-0.0792357474565506,-0.29781824350357056,-0.2226884812116623,-0.3587256968021393,-0.41895556449890137,1.309726357460022,-0.12883411347866058,0.09732848405838013,0.18274997174739838,0.04333702102303505,0.23506376147270203,-0.655019998550415,-0.06413150578737259,0.34514087438583374,-0.7958938479423523,-0.6221128702163696,1.0230023860931396,0.18848159909248352,-0.03126419335603714,-0.08613789081573486,-0.21187864243984222,0.14057131111621857,0.23921474814414978,0.24713236093521118,0.5600913166999817,0.19144926965236664,0.21395884454250336,0.053167298436164856,-0.07387006282806396,-0.18400397896766663,-0.31129011511802673,0.10148680955171585,0.08373188227415085,0.08423024415969849,0.1848185807466507,0.10485826432704926,0.2512052059173584,-0.010439688339829445,-0.12439090013504028,0.08277112245559692,-0.003618020098656416,0.2562480568885803,0.17313317954540253,0.25657278299331665,0.08911252021789551,-0.051849912852048874,-0.012888426892459393,0.04598543420433998,0.3439413011074066,-0.06243688613176346,0.14455975592136383,0.037370119243860245,-0.2674091160297394,-0.044773176312446594,-0.05530185624957085,-0.18139533698558807,-0.010025961324572563,0.04411958530545235,0.04636647179722786,0.2591993510723114,0.24332325160503387,0.31135597825050354,0.21679721772670746,0.03795994445681572,0.1554369330406189,-0.21678949892520905,-0.06909459084272385,0.1524309515953064,0.1389085352420807,-0.05751476809382439,0.013294579461216927,-0.020991260185837746,-0.28419485688209534,-0.1361321359872818,0.019603608176112175,-0.10412590950727463,-0.19472000002861023,1.662400245666504,-0.2804658114910126,-0.2996474802494049,-0.549293041229248,-0.4733422100543976,0.17801302671432495,-0.44047507643699646,0.008605826646089554,-0.012744756415486336,-0.23507113754749298,0.1926218569278717,1.0326924324035645,-0.3448954224586487,0.6612270474433899,0.18733826279640198,0.2591583728790283,0.14116159081459045,0.12131991982460022,-0.21632124483585358,-0.6892716288566589,-0.08724425733089447,0.09167685359716415,-0.10593689978122711,-0.02710893005132675,0.15768879652023315,-0.016154492273926735,0.09418506920337677,-0.0009352833731099963,-0.0455213226377964,0.08937213569879532,0.08744348585605621,-0.20297078788280487,0.18623024225234985,0.0713513121008873,0.19309043884277344,0.09764079749584198,0.18329794704914093,0.5450153350830078,-0.013997438363730907,0.17936740815639496,-0.03600812703371048,0.25018852949142456,0.1095745638012886,-0.17042985558509827,-0.18148446083068848,-0.27989378571510315,-0.06747585535049438,0.17612731456756592,0.24358442425727844,0.015805037692189217,0.07535550743341446,-0.10359331965446472,-0.05836230888962746,0.21181266009807587,-0.39746829867362976,0.25662490725517273,-0.07537911087274551,-0.013922872953116894,-0.04039205610752106,-0.3266931176185608,0.28770866990089417,0.0009836944518610835,-0.06603343784809113,0.11771632730960846,0.07325142621994019,0.10626322776079178,0.13524849712848663,-0.19417160749435425,0.4171466529369354,-0.03614574670791626,-1.3899000883102417,0.34177446365356445,-1.1590300798416138,-0.9354216456413269,0.19259054958820343,-0.793113112449646,0.1826617419719696,0.161189466714859,-0.10695988684892654,0.03841215372085571,0.09625794738531113,-0.2978702783584595,1.3710658550262451,0.7770248055458069,-0.28145214915275574,0.4339013695716858,0.03459102660417557,0.14279280602931976,0.24141806364059448,0.11833785474300385,0.003920195158571005,0.17292650043964386,-0.0653567761182785,-0.07645398378372192,-0.18148908019065857,-0.3500356376171112,0.48075857758522034,0.14578403532505035,0.1274845153093338,-0.1417478621006012,-0.12182062119245529,0.03971601650118828,0.2645396888256073,-0.05935026705265045,-0.020992552861571312,-0.10049048811197281,-0.23066312074661255,-0.135483980178833,0.060338087379932404,-0.068698450922966,0.1300521343946457,0.15077324211597443,0.1725398153066635,0.3813475966453552,-0.4709183871746063,-0.09482584148645401,-0.22390009462833405,0.04362264648079872,0.2037917524576187,0.05552312731742859,-0.388717919588089,0.029441554099321365,-0.0640810951590538,-0.08543679863214493,-0.14884109795093536,-0.09039048850536346,0.0653587281703949,0.16005200147628784,-0.002442417899146676,0.07135731726884842,0.06582196801900864,0.12424134463071823,-0.24261067807674408,-0.2402837574481964,0.030788131058216095,0.014911388047039509,0.08422844111919403,0.07201813161373138,-0.06226835027337074,0.08257415890693665,0.026412291452288628,0.5256891846656799,0.986663281917572,-0.7797556519508362,0.8495014309883118,0.021195752546191216,-0.4032706916332245,0.25507819652557373,0.4403788149356842,0.1723061054944992,-0.7763166427612305,1.3950235843658447,-0.014466493390500546,0.11449921131134033,-0.0028783711604774,0.8178930282592773,-0.4359583258628845,0.09263467788696289,-0.004281514324247837,0.02557753585278988,0.01921233721077442,-0.03774328902363777,-0.0995374247431755,0.4241839349269867,0.006073853000998497,0.017139988020062447,-0.00010526760888751596,-0.005356614012271166,0.015298198908567429,-0.6491628885269165,-0.05113796517252922,-0.06066107377409935,0.002052200259640813,0.10286712646484375,0.1134088858962059,-0.6816707253456116,0.034372273832559586,0.005877010989934206,0.062402717769145966,0.11843957751989365,0.11895333230495453,-0.2977405786514282,0.000444379256805405,0.08504145592451096,0.11908398568630219,0.15627111494541168,0.023556319996714592,0.2519228458404541,0.08063481748104095,-0.06493191421031952,-0.08110597729682922,-0.2291339635848999,-0.3755967319011688,0.0537998229265213,0.003662713337689638,-0.027899080887436867,-0.021826360374689102,0.03880688175559044,0.11305463314056396,-0.49128061532974243,-0.008569122292101383,-0.0127551956102252,0.0053635453805327415,-0.0021219877526164055,-0.01425018161535263,0.709051787853241,0.060279037803411484,0.06722360849380493,-0.002212005667388439,-0.1173509731888771,-0.11838655173778534,0.7951542735099792,-0.24244801700115204,-0.033275723457336426,0.27881988883018494,0.9866536259651184,1.121301293373108,-0.9233471751213074,-0.1566193699836731,-0.2758188247680664,0.08524303883314133,0.7636553645133972,-0.6608911752700806,-0.6730982661247253,0.8314447999000549,0.40777134895324707,-0.708895742893219,1.2359211444854736,-0.44963523745536804,-0.6845988035202026,-0.009585215710103512,-0.05593991279602051,-0.059294719249010086,-0.0698617696762085,-0.1520281285047531,0.31216487288475037,-0.020139425992965698,0.08240881562232971,0.059979889541864395,0.034609511494636536,0.12764891982078552,-0.5595704913139343,0.02918047085404396,0.015633899718523026,0.054738499224185944,0.15859359502792358,0.16413196921348572,-0.36478814482688904,-0.05919811129570007,-0.07170898467302322,-0.08117049932479858,-0.12637686729431152,-0.06416350603103638,-0.2282528132200241,0.04294927418231964,0.06590858101844788,0.07707560807466507,0.12704864144325256,0.06462091207504272,0.1469256728887558,0.07523532211780548,0.07284815609455109,0.08178156614303589,0.12999846041202545,0.1168551817536354,0.03205839544534683,-0.04344587400555611,-0.05659738928079605,-0.08138219267129898,-0.09627915918827057,-0.04479655250906944,-0.6378740668296814,0.04332374408841133,0.05953916907310486,0.08947083353996277,0.09976444393396378,0.07312703132629395,-0.1684093475341797,0.046530451625585556,0.054154615849256516,0.07436560839414597,0.09008650481700897,0.05983084440231323,-0.47667816281318665,-0.16847532987594604,-0.02216239646077156,-2.0256478786468506,0.6460592150688171,0.26508596539497375,0.44606053829193115,-0.2870558798313141,-0.4439341425895691,0.9460168480873108,0.4651361107826233,-0.028958342969417572,-0.09763786196708679,0.0676867887377739,-0.7250773310661316,1.0509209632873535,-0.39009174704551697,-0.26433780789375305,0.3885760009288788,0.023821856826543808,0.01379346288740635,0.028122032061219215,-0.010126055218279362,0.102240651845932,0.006458669900894165,-0.02459750883281231,-0.009135564789175987,-0.028245506808161736,-0.010827095247805119,-0.1210734099149704,0.6178712844848633,-0.0238807313144207,-0.027212344110012054,-0.018392598256468773,-0.08896102011203766,-0.12943515181541443,0.37087664008140564,0.06796710938215256,0.02545349672436714,0.024490663781762123,0.04927586019039154,-0.039640575647354126,-0.08103125542402267,-0.08027603477239609,-0.03612258657813072,-0.012507925741374493,-0.035709723830223083,0.0535721629858017,-0.8031753897666931,-0.014366096816956997,-0.006666118279099464,-0.011940357275307178,-0.0031435354612767696,0.020359892398118973,-0.8168044090270996,0.027066925540566444,0.11275231838226318,0.030157597735524178,0.03850889578461647,-0.06994850188493729,0.1329297423362732,0.2111123949289322,-0.05974295735359192,0.12940487265586853,0.266356885433197,0.12647812068462372,-0.1259693205356598,-0.7055535912513733,-0.3812882602214813,-0.3555411398410797,-0.9056832194328308,-0.08602362871170044,0.04104030504822731,0.09283635765314102,0.18950998783111572,0.185157909989357,0.5355393886566162,-1.010249376296997,-0.44744038581848145,0.4790066182613373,-0.31602877378463745,-0.2965628504753113,0.018441133201122284,0.7916687726974487,0.47842565178871155,0.05165960639715195,-0.35486528277397156,-0.12400814145803452,0.06138690188527107,-0.9712069034576416,-0.4728672206401825,0.0513448640704155,0.06833621859550476,0.09556495398283005,0.070290207862854,0.08434616774320602,0.260619580745697,-0.11411474645137787,-0.1525522768497467,-0.2122485339641571,-0.18639501929283142,-0.2935486137866974,-0.7918020486831665,-0.04680030792951584,-0.051691699773073196,-0.039101723581552505,0.032673053443431854,0.09116916358470917,-0.04216935485601425,-0.01087373960763216,-0.002641213359311223,0.004088317509740591,-0.0015102889155969024,-0.00796368345618248,0.3382008373737335,0.021452724933624268,0.010088931769132614,-0.00015093275578692555,0.01718609407544136,0.04393339529633522,0.2517002820968628,0.0007435139850713313,-0.0194478090852499,-0.027257980778813362,-0.028517240658402443,-0.05310996621847153,0.33500322699546814,0.03370409086346626,0.03693501278758049,0.03752052038908005,0.0295234564691782,0.05026160553097725,-0.19704124331474304,-0.067131906747818,-0.07247842103242874,-0.08921866118907928,-0.07391158491373062,-0.16264744102954865,-0.13857416808605194,-0.0016488735564053059,-0.005437431391328573,0.008308995515108109,0.02118854783475399,0.0384395532310009,0.5955939292907715,-0.4363846480846405,0.22185485064983368,0.45109277963638306,0.9787922501564026,1.0387691259384155,-0.1536695510149002,-0.2504563331604004,0.30616825819015503,0.37773746252059937,0.6415953040122986,0.04628869146108627,0.5975602269172668,-0.15147030353546143,0.03410957753658295,-0.5251164436340332,0.5592106580734253,0.07578743994235992,-0.19007350504398346,0.019854886457324028,0.0900694951415062,0.03566497564315796,0.024783316999673843,0.03165433183312416,0.041663188487291336,-0.009912166744470596,-0.007808811496943235,0.08577314764261246,-0.07007061690092087,-0.0007496817852370441,-0.04360860213637352,-0.13199757039546967,-0.21900629997253418,-0.22315926849842072,-0.1287161111831665,0.02426445111632347,-0.03149902820587158,-0.07522600144147873,0.07678826153278351,-0.11326047778129578,-0.08002108335494995,-0.17342433333396912,-0.059895146638154984,0.016400210559368134,0.04105725511908531,-0.14561951160430908,-0.19385112822055817,-0.22411367297172546,0.21118299663066864,-0.14469212293624878,-0.08353680372238159,-0.06432192772626877,-0.0852605551481247,-0.06496226042509079,-0.0958336591720581,-0.1912308782339096,-0.18109512329101562,-0.09649360179901123,-0.07196826487779617,-0.18989121913909912,-0.22000345587730408,-0.4721766710281372,-0.29484423995018005,-0.27110594511032104,-0.04901166260242462,-0.06963461637496948,-0.0921565517783165,0.11635100841522217,0.031569793820381165,-0.034974534064531326,-0.02419988624751568,-0.11896002292633057,0.07853647321462631,-0.004292528610676527,-0.1255999505519867,-0.06154366582632065,0.12908215820789337,0.060227978974580765,0.1721423715353012,-0.05968361347913742,0.1508999764919281,0.012717431411147118,0.05779806151986122,-0.17355026304721832,0.16636578738689423,0.018886787816882133,-0.1077149361371994,-0.0023451868910342455,0.06752996146678925,-0.07303362339735031,-0.07867532223463058,-0.05000728741288185,0.04364873096346855,0.07593119144439697,0.12011675536632538,0.16953888535499573,0.04352167621254921,-0.0211710873991251,-0.10673261433839798,0.13444598019123077,0.05285092070698738,0.00217079883441329,0.015143354423344135,-0.07578327506780624,-0.004300819244235754,-0.020066699013113976,0.09098520874977112,0.05513165518641472,-0.0008377216290682554,-0.023105835542082787,-0.010173316113650799,0.03889822959899902,-0.09970792382955551,-0.014119023457169533,0.03573773428797722,-0.06643373519182205,0.04108963534235954,0.01620362512767315,-0.034594353288412094,0.07896275073289871,0.11176618188619614,-0.15052229166030884,0.020412031561136246,0.08990810066461563,0.08938615769147873,0.02664949931204319,0.011073274537920952,-0.1726110577583313,-0.0027864552102983,0.08469589799642563,0.03823099285364151,0.045087557286024094,-0.038356997072696686,-0.15786601603031158,0.11852003633975983,0.0202880147844553,-0.26280781626701355,0.07199500501155853,0.1451278179883957,0.08709327131509781,0.038383230566978455,-0.024055058136582375,0.041966330260038376,0.04846331104636192,-0.08694268018007278,-0.03387955203652382,-0.012249513529241085,-0.08809931576251984,-0.023119071498513222,-0.012920673005282879,-0.05266428366303444,-0.24946555495262146,-0.033432379364967346,-0.1757178008556366,0.6267299652099609,0.6470731496810913,0.57632976770401,-0.4094431698322296,-0.37504518032073975,-1.712844967842102,-0.23116932809352875,-0.534188985824585,-0.726918637752533,-0.3481071889400482,-0.2665398120880127,-0.22083330154418945,0.014273799024522305,-0.07183211296796799,0.18169929087162018,0.03007902018725872,-0.3827400505542755,-0.6416546702384949,-0.019886521622538567,0.004621834959834814,-0.0051227048970758915,-0.0044001019559800625,0.03783781826496124,0.03002685308456421,0.029881944879889488,0.045141056180000305,0.0808689147233963,0.07530584931373596,0.04214231297373772,0.07919266819953918,0.05505535379052162,-0.004169912543147802,-0.27555185556411743,0.06864677369594574,0.035647399723529816,0.05841268226504326,0.059713348746299744,0.03193904086947441,0.05385860800743103,0.06362287700176239,0.06064045801758766,0.04830348119139671,0.08824214339256287,0.12363133579492569,0.08943536877632141,0.11713436990976334,0.11662208288908005,-0.513541579246521,0.03304615244269371,0.0021217442117631435,0.010146724060177803,0.015575279481709003,-0.037423938512802124,-0.038730230182409286,-0.04581761360168457,-0.0790504738688469,-0.10358180105686188,-0.10368715226650238,-0.08302067220211029,-0.15050311386585236,-0.1114492267370224,-0.15946371853351593,0.10917085409164429,0.005352502688765526,0.0065987627021968365,0.0059988973662257195,0.004514151718467474,0.006868366152048111,0.005459510255604982,0.006465272977948189,0.003864072961732745,0.010961374267935753,0.00481688417494297,0.007743133697658777,0.0023142597638070583,0.005415249150246382,-0.008116775192320347,-0.2433270812034607,-0.014375320635735989,-0.01047598011791706,-0.007405473385006189,-0.014090506359934807,-0.0111040398478508,-0.009146127849817276,-0.006056102458387613,-0.008048256859183311,-0.01276295818388462,-0.014588400721549988,-0.014505279250442982,-0.013054780662059784,-0.011712691746652126,-0.009531318210065365,0.6272408366203308,-0.0020304040517657995,-0.008572570979595184,-0.005042615812271833,-0.001309206010773778,-0.0087710190564394,-0.003008041298016906,-0.008071884512901306,-0.0015720134833827615,-0.011832592077553272,-0.0011478338856250048,-0.009630394168198109,-0.0006185481906868517,-0.013949832879006863,0.02851075865328312,0.45727938413619995,0.044299181550741196,0.04327099025249481,0.04989243671298027,0.060128215700387955,0.059991832822561264,0.040604766458272934,0.0478050671517849,0.024697549641132355,0.010954763740301132,-0.024332191795110703,-0.007181015331298113,-0.043583065271377563,-0.04518735781311989,-0.02186611108481884,0.8518118858337402,-0.15528172254562378,-0.15333682298660278,-0.16477064788341522,-0.19185638427734375,-0.20060862600803375,-0.19410954415798187,-0.20436546206474304,-0.20323219895362854,-0.19356994330883026,-0.16313640773296356,-0.1601811945438385,-0.16315686702728271,-0.12517976760864258,-0.13412712514400482,0.6136810779571533,-0.021625643596053123,-0.03404787927865982,-0.04785430431365967,-0.07172391563653946,-0.06965310871601105,-0.04578158259391785,-0.03734977915883064,0.011053464375436306,0.006598549894988537,0.06806077808141708,0.057652465999126434,0.08818511664867401,0.12081337720155716,0.22665677964687347,-0.030955832451581955,0.3082674443721771,2.749896764755249,-0.15256570279598236,-0.5605491995811462,-0.6202377080917358,-0.35811182856559753,-0.045872148126363754,0.4817075729370117,0.15757092833518982,0.5262574553489685,-1.0867481231689453,-0.597881555557251,-0.6795971989631653,-0.3009525239467621,0.8083754181861877,0.09675173461437225,-1.135960578918457,-0.4843648672103882,0.3362952768802643,0.00766797224059701,0.04132109135389328,-0.28943952918052673,-0.25154149532318115,-0.5444920063018799,0.29105210304260254,0.20199379324913025,-0.11673512309789658,-0.22830934822559357,-0.09013952314853668,-0.23336006700992584,-0.6644961833953857,-0.1498558670282364,-0.3850042521953583,-0.27498289942741394,-0.4759633243083954,-0.39011403918266296,-0.06401967257261276,-0.04270126670598984,-0.06252158433198929,-0.48363196849823,-0.01979954168200493,0.1382102519273758,0.13900406658649445,-0.1443643718957901,-0.015538927167654037,0.11156801879405975,-0.17068062722682953,-0.11462979018688202,-0.22676920890808105,0.04775213822722435,-0.14128521084785461,-0.30995357036590576,0.08355309069156647,-0.4956260621547699,-0.10761313140392303,-0.09447355568408966,0.054471176117658615,0.02382597327232361,0.00741057051345706,0.6314183473587036,0.14881695806980133,0.25516971945762634,0.052519042044878006,-0.22859135270118713,-0.3004592955112457,-0.25118377804756165,0.2810154855251312,0.1141824871301651,-0.03692209720611572,0.06189592182636261,-0.2198832780122757,0.14187215268611908,-0.07968492805957794,-0.5912670493125916,-0.640583872795105,0.19812719523906708,0.10170198976993561,-0.6194398999214172,-0.660243809223175,0.024112770333886147,-1.1570229530334473,0.5916387438774109,1.2458341121673584,0.06100365146994591,-0.6278718709945679,0.09904925525188446,-0.47987234592437744,1.1517863273620605,-0.5660257935523987,-1.9961198568344116,-0.08285573869943619,0.0867994949221611,0.5528426170349121,0.029947547242045403,0.061197467148303986,0.08108214288949966,-0.0509566068649292,0.03155745565891266,-0.24292488396167755,-0.46083715558052063,-0.49535101652145386,-0.028795761987566948,0.0660010576248169,0.06383106112480164,0.07349178940057755,-0.2871100604534149,-0.3970961570739746,0.038187384605407715,-0.01699552685022354,-0.09920330345630646,-0.30437326431274414,-0.3020826280117035,0.4900592863559723,0.40288910269737244,-0.002364127663895488,-0.11146010458469391,-0.1598374843597412,-0.09445740282535553,-0.021196452900767326,-1.5202133655548096,0.0485382080078125,-0.15608692169189453,0.1071276143193245,0.02007119730114937,-0.06310583651065826,-0.3412649631500244,0.04359518736600876,-0.2028154879808426,-0.2958526611328125,-0.09806548804044724,0.924341082572937,0.35612013936042786,-0.01680193468928337,-0.04834568500518799,-0.19475840032100677,-0.024108486250042915,0.15554320812225342,-0.9322528839111328,-0.09418788552284241,0.012696154415607452,0.18249806761741638,0.10527947545051575,0.25982746481895447,-0.9999567866325378,0.102537140250206,0.1715748906135559,0.383323609828949,0.5481970906257629,0.3876086473464966,-0.040308963507413864,0.407939612865448,0.8942862153053284,1.2537788152694702,0.5774461627006531,0.1989014893770218,0.08809372037649155,-0.27604982256889343,0.36142536997795105,0.8921577334403992,1.1447405815124512,-0.6748860478401184,-1.6350377798080444,0.018533557653427124,0.023600518703460693,0.004747957922518253,-0.04470723867416382,0.24464522302150726,-0.36313164234161377,0.008989694528281689,-0.01902054436504841,0.03893452510237694,-0.13616760075092316,-0.08285776525735855,0.3854670226573944,-0.03659762069582939,-0.03651871532201767,0.0043063778430223465,-0.06213069707155228,-0.43290936946868896,-0.22231505811214447,-0.027386795729398727,-0.03444391489028931,-0.0606013759970665,-0.0037618863862007856,-0.15195514261722565,0.0052318568341434,0.010981752537190914,0.010712573304772377,-0.018100149929523468,0.05398968979716301,0.023271756246685982,0.16977928578853607,0.04510416090488434,0.05167491361498833,0.03353837877511978,0.05174672231078148,0.17834681272506714,-0.17327165603637695,0.025550158694386482,0.015932081267237663,0.05681256577372551,0.1156630888581276,0.08766378462314606,0.5537198185920715,-0.016772016882896423,0.002319975756108761,0.03882056102156639,0.025314418599009514,0.0853530541062355,-1.6439399719238281,-0.007895370945334435,-0.01819940097630024,0.0030704308301210403,-0.1381632536649704,0.05967426672577858,-0.3626789152622223,1.4106826782226562,1.1733760833740234,-0.0509115494787693,0.08845113962888718,0.31693023443222046,-0.2289581447839737,-0.2587698996067047,0.8606706261634827,0.8362488746643066,-0.8313824534416199,-0.6385090351104736,0.6777018904685974,-0.4831311106681824,0.3069003224372864,-0.20950019359588623,1.823388695716858,-1.0187851190567017,-0.6952122449874878,-0.024864759296178818,-0.026386592537164688,-0.011948885396122932,-0.010350152850151062,-0.013257869519293308,0.045573215931653976,0.036976613104343414,0.03801679238677025,-0.004982734099030495,-0.013838859274983406,-0.03731215372681618,0.4834775924682617,0.024707743898034096,0.02736901491880417,0.015222958289086819,0.021823588758707047,0.0121835358440876,1.190429925918579,0.133419930934906,0.11402390152215958,0.07702676206827164,0.05058402195572853,0.10544830560684204,0.3251762390136719,-0.2986474931240082,-0.39182132482528687,-0.42939293384552,-0.49720311164855957,-0.6541181802749634,0.40524551272392273,-0.14201542735099792,-0.12536054849624634,-0.10319103300571442,-0.08558400720357895,-0.11220768094062805,-0.43639424443244934,-0.03573644906282425,-0.04455125704407692,-0.030822938308119774,-0.04108000546693802,-0.048694461584091187,-0.8855021595954895,0.052521321922540665,0.07218141853809357,0.07077163457870483,0.09871980547904968,0.16583630442619324,0.30150431394577026,0.034882329404354095,0.04116425663232803,0.02758180722594261,0.0354321114718914,0.056651439517736435,-0.4433255195617676,-1.010665774345398,0.893057644367218,-1.1213864088058472,1.1577973365783691,-0.6415108442306519,-0.8844837546348572,-1.2407646179199219,-0.08959680050611496,0.9156351089477539,0.0836699977517128,-1.2212557792663574,0.03721604123711586,-0.6900675296783447,0.12165255844593048,0.7189593315124512,0.559707760810852,-0.12083665281534195,-0.5755800604820251,0.03980523720383644,-0.027170883491635323,0.12964186072349548,0.16684956848621368,0.32950231432914734,-0.11545528471469879,-0.518364429473877,-0.2490222007036209,-0.06186509132385254,0.046484991908073425,0.5696642398834229,-0.48259204626083374,-0.04480636864900589,-0.1970471441745758,-0.11477705091238022,-0.2845708131790161,-0.5037263035774231,-0.343790739774704,0.015920894220471382,-0.014968265779316425,0.10767650604248047,0.13535363972187042,0.24363848567008972,1.559812068939209,-0.3640907406806946,-0.16114269196987152,0.011501721106469631,0.06852871179580688,0.36196571588516235,-0.25124937295913696,-0.028228094801306725,-0.12271739542484283,-0.11269055306911469,-0.19219321012496948,-0.3167591392993927,0.9308599829673767,0.21037206053733826,0.09440134465694427,-0.02228502556681633,-0.03041415847837925,-0.21973739564418793,0.4116343557834625,-0.04157927632331848,0.29415154457092285,-0.13847851753234863,-0.3332129418849945,-0.7686355710029602,-0.5151484608650208,-0.27266037464141846,-0.3094339370727539,0.03092692419886589,-0.08617449551820755,0.08868071436882019,0.05044016242027283,0.21531075239181519,0.3209850788116455,-0.00013947758998256177,0.6300918459892273,-0.1652074009180069,-0.7068924903869629,-0.06998953223228455,0.7770599126815796,0.11429306864738464,1.0013763904571533,-0.10973234474658966,-0.7685000896453857,-0.1955348700284958,0.33632692694664,-0.25374454259872437,-0.11131232231855392,-0.041143499314785004,-0.1944562792778015,0.025467541068792343,-0.08181387931108475,-0.11816161870956421,0.01500819344073534,0.22216416895389557,0.031206900253891945,-0.1978042721748352,-0.3618983328342438,-0.48971226811408997,-0.2747931480407715,0.0137472003698349,0.008860133588314056,-0.14747874438762665,-0.12674574553966522,-0.030993463471531868,-0.04131586477160454,-0.27956831455230713,-0.42574527859687805,0.12370295822620392,0.10296101868152618,0.05864221230149269,0.1258099377155304,0.23768816888332367,0.0433683767914772,0.02082589641213417,0.11546646058559418,-0.03006899729371071,-0.25610098242759705,-0.041278474032878876,0.26765307784080505,-0.15030719339847565,-0.12003503739833832,-0.07979408651590347,-0.2821738123893738,-0.3286468982696533,0.46840202808380127,0.048425160348415375,0.03519435226917267,0.15887847542762756,0.19478215277194977,0.03203454986214638,0.18692298233509064,-0.06775263696908951,-0.0636860579252243,0.061132896691560745,0.19671158492565155,-0.26474446058273315,-0.5544973611831665,-0.1329420953989029,-0.06375277042388916,-0.18427425622940063,-0.10081247240304947,-0.14311905205249786,-0.16926594078540802,0.0958995446562767,0.43060651421546936,-0.23562245070934296,0.04819878935813904,0.3454478681087494,-0.3335886597633362,0.9023719429969788,-0.4739634394645691,-0.1830526739358902,0.6682943105697632,-0.1429084986448288,-0.5694489479064941,0.15475471317768097,-0.34650886058807373,-0.24752989411354065,-0.06790020316839218,0.08575329184532166,-0.5084965229034424,0.05898556858301163,0.11538492143154144,0.0171798225492239,0.13361388444900513,-0.023181989789009094,-0.5192767381668091,-0.026682507246732712,-0.005535339005291462,-0.06450310349464417,0.06467053294181824,-0.16951493918895721,0.07103444635868073,-0.17792148888111115,-0.22855716943740845,-0.1494205743074417,-0.05080864205956459,-0.307629257440567,-0.6472929120063782,0.07311700284481049,0.12417945265769958,-0.0038340729661285877,0.22773748636245728,-0.16921155154705048,0.3542237877845764,-0.020088432356715202,0.0030903888400644064,-0.10841725766658783,0.19219234585762024,-0.384134978055954,0.3585512638092041,-0.1962680071592331,-0.2291366159915924,-0.20565956830978394,0.03484150767326355,-0.37006762623786926,0.274607390165329,0.058320581912994385,0.06930933147668839,0.11060093343257904,-0.11588414013385773,0.3039190471172333,0.458056777715683,-0.01854548044502735,-0.044018685817718506,0.08518068492412567,-0.2763213813304901,0.35031774640083313,-0.45961326360702515,-0.17732350528240204,-0.20145384967327118,-0.060370225459337234,-0.25092482566833496,-0.04632013291120529,0.23154428601264954,0.14356811344623566,0.21683765947818756,-0.0785437747836113,0.2185206264257431,0.1548011302947998,-0.35371696949005127,-1.7653614105502618e-38,-7.963241459828033e-39,1.2799179913450014e-40,1.801658403892589e-38,-2.9717588766659974e-39,1.998646496034436e-38,-9.426952356455413e-39,1.0385723568343382e-38,-1.0678166150057185e-38,-1.4366109053661096e-38,-6.074987575254949e-39,2.7566609636906023e-39,-0.0004830527468584478,-0.0022351897787302732,-0.0018877736292779446,0.006775685586035252,0.024944305419921875,0.04234744980931282,0.03833157569169998,0.0005025546415708959,-0.04841999337077141,-0.0656609982252121,-0.04332805052399635,-0.014097624458372593,-0.001765493187122047,-0.001146811875514686,-0.0012406283058226109,-0.0004416092415340245,-0.0035738602746278048,-0.008466670289635658,-0.01081923209130764,-0.013480252586305141,-0.022629834711551666,-0.0357339084148407,-0.03588169068098068,-0.009338133968412876,0.02871529385447502,0.0450265109539032,0.030421782284975052,0.007247645873576403,-0.006534753367304802,-0.011180243454873562,-0.009249844588339329,-0.0034976250026375055,0.0018346444703638554,0.005116268526762724,0.006653271149843931,0.004588503856211901,-0.0009754520724527538,-0.008296221494674683,-0.009974755346775055,0.0020241434685885906,0.021308736875653267,0.02982034720480442,0.022255105897784233,0.012440704740583897,0.009419186040759087,0.009268596768379211,0.006539150606840849,0.0021733902394771576,-0.44573137164115906,0.010586275719106197],"sample_rate":48000.0}},{"max_value":1.0,"model":{"version":"0.7.0","metadata":{"date":{"year":2026,"month":5,"day":9,"hour":16,"minute":16,"second":18},"loudness":-15.796403884887695,"gain":0.8247512931447519},"architecture":"WaveNet","config":{"layers":[{"input_size":1,"condition_size":1,"head":{"out_channels":1,"kernel_size":16,"bias":true},"channels":8,"kernel_sizes":[6,6,6,6,6,6,6,6,6,6,6,6,6,6,15,15,6,6,6,6,6,6,6],"dilations":[1,3,7,17,41,101,239,1,3,7,17,41,101,239,1,13,1,3,7,17,41,101,239],"activation":[{"type":"LeakyReLU","negative_slope":0.01},{"type":"LeakyReLU","negative_slope":0.01},{"type":"LeakyReLU","negative_slope":0.01},{"type":"LeakyReLU","negative_slope":0.01},{"type":"LeakyReLU","negative_slope":0.01},{"type":"LeakyReLU","negative_slope":0.01},{"type":"LeakyReLU","negative_slope":0.01},{"type":"LeakyReLU","negative_slope":0.01},{"type":"LeakyReLU","negative_slope":0.01},{"type":"LeakyReLU","negative_slope":0.01},{"type":"LeakyReLU","negative_slope":0.01},{"type":"LeakyReLU","negative_slope":0.01},{"type":"LeakyReLU","negative_slope":0.01},{"type":"LeakyReLU","negative_slope":0.01},{"type":"LeakyReLU","negative_slope":0.01},{"type":"LeakyReLU","negative_slope":0.01},{"type":"LeakyReLU","negative_slope":0.01},{"type":"LeakyReLU","negative_slope":0.01},{"type":"LeakyReLU","negative_slope":0.01},{"type":"LeakyReLU","negative_slope":0.01},{"type":"LeakyReLU","negative_slope":0.01},{"type":"LeakyReLU","negative_slope":0.01},{"type":"LeakyReLU","negative_slope":0.01}],"bottleneck":8,"head1x1":{"active":false,"out_channels":1,"groups":1},"layer1x1":{"active":true,"groups":1},"groups_input":1,"groups_input_mixin":1,"conv_pre_film":{"active":false,"shift":true,"groups":1},"conv_post_film":{"active":false,"shift":true,"groups":1},"input_mixin_pre_film":{"active":false,"shift":true,"groups":1},"input_mixin_post_film":{"active":false,"shift":true,"groups":1},"activation_pre_film":{"active":false,"shift":true,"groups":1},"activation_post_film":{"active":false,"shift":true,"groups":1},"layer1x1_post_film":{"active":false,"shift":true,"groups":1},"head1x1_post_film":{"active":false,"shift":true,"groups":1},"gating_mode":["none","none","none","none","none","none","none","none","none","none","none","none","none","none","none","none","none","none","none","none","none","none","none"],"secondary_activation":[null,null,null,null,null,null,null,null,null,null,null,null,null,null,null,null,null,null,null,null,null,null,null],"slimmable":null}],"head":null,"head_scale":0.010586275912525981},"weights":[-4.5875244140625,-4.336864948272705,4.386099338531494,4.161433219909668,4.495190143585205,3.8536529541015625,3.9906904697418213,-4.2097649574279785,-0.21621623635292053,-0.30011865496635437,-0.40186455845832825,-0.4937300682067871,-1.1217626333236694,-0.7192093729972839,-0.24047242105007172,-0.31617996096611023,-0.40493083000183105,-0.493729829788208,-1.1061934232711792,-0.677370011806488,0.18998999893665314,0.3219108581542969,0.40548819303512573,0.4918774366378784,1.1254241466522217,0.683661162853241,0.21329368650913239,0.32248958945274353,0.40242448449134827,0.46170949935913086,1.0632970333099365,0.6588416695594788,0.16817501187324524,0.29874175786972046,0.4053110182285309,0.474947065114975,1.0866141319274902,0.6925101280212402,0.22254785895347595,0.2815884053707123,0.3832399249076843,0.45867058634757996,0.9962838888168335,0.6320821642875671,0.19995009899139404,0.2916187345981598,0.40208110213279724,0.4847937226295471,1.0124802589416504,0.6319640874862671,-0.229424387216568,-0.2770371437072754,-0.36127614974975586,-0.48791617155075073,-1.0876822471618652,-0.6527356505393982,0.27422308921813965,0.35482057929039,0.5338596105575562,0.7602103352546692,1.5949463844299316,1.2315107583999634,0.28760796785354614,0.3650234043598175,0.6036202907562256,0.784918487071991,1.597331166267395,1.3196673393249512,-0.2715144753456116,-0.32639479637145996,-0.6405929923057556,-0.8248034119606018,-1.607527494430542,-1.3060075044631958,-0.28814011812210083,-0.3096046447753906,-0.6174973845481873,-0.7815411686897278,-1.4526870250701904,-1.2371647357940674,-0.23083795607089996,-0.29632726311683655,-0.6125410199165344,-0.7887579202651978,-1.5648051500320435,-1.2896045446395874,-0.3167906403541565,-0.34799259901046753,-0.5970830917358398,-0.7328549027442932,-1.4816077947616577,-1.2242319583892822,-0.30758559703826904,-0.31639882922172546,-0.5686647295951843,-0.7337388396263123,-1.4990772008895874,-1.2021946907043457,0.27341240644454956,0.2855164110660553,0.6113958358764648,0.7755951285362244,1.470883846282959,1.213027834892273,0.18206119537353516,-0.12064754962921143,-0.3293803334236145,-0.3387312591075897,-1.3978558778762817,-1.1227749586105347,0.07473164796829224,-0.09473798424005508,-0.32851362228393555,-0.29435381293296814,-1.3370734453201294,-1.1231704950332642,-0.15475979447364807,0.07424822449684143,0.32451924681663513,0.3306490480899811,1.4062960147857666,1.141331434249878,-0.049364347010850906,0.10637594014406204,0.2700275778770447,0.30717623233795166,1.330610752105713,1.0682387351989746,-0.08891908824443817,0.1440446674823761,0.30165374279022217,0.32274329662323,1.3271867036819458,1.1167558431625366,-0.10231579840183258,0.10436501353979111,0.32980039715766907,0.33736369013786316,1.2748732566833496,1.0211663246154785,-0.1382736712694168,0.1452498584985733,0.3561130464076996,0.31971362233161926,1.293400764465332,1.0251480340957642,0.12487586587667465,-0.08991071581840515,-0.287334680557251,-0.3384968936443329,-1.297266960144043,-1.0865635871887207,-0.1385117769241333,0.04905371367931366,0.23867745697498322,0.3990756869316101,1.0403296947479248,0.9306504130363464,-0.13799695670604706,0.11161476373672485,0.20494647324085236,0.46059876680374146,1.0564910173416138,0.9241066575050354,0.09557174891233444,-0.0555134043097496,-0.2086496204137802,-0.4198276400566101,-1.1177520751953125,-0.9487653970718384,0.13409358263015747,-0.11904186010360718,-0.25666889548301697,-0.44157302379608154,-1.0618784427642822,-0.9531373977661133,0.0637383759021759,-0.04831141605973244,-0.16924329102039337,-0.40553852915763855,-1.088173508644104,-0.9353195428848267,0.10758022964000702,-0.05399090796709061,-0.21044887602329254,-0.4559060335159302,-1.097900629043579,-0.8839766383171082,0.0982678085565567,-0.056301504373550415,-0.2448953092098236,-0.4371090829372406,-1.0467780828475952,-0.8788805603981018,-0.13973771035671234,0.12609447538852692,0.2386389970779419,0.44550636410713196,1.0402275323867798,0.8880904912948608,-0.07068578153848648,-0.17132343351840973,-0.36374935507774353,-0.42572447657585144,-1.0982199907302856,-0.8153618574142456,-0.08123746514320374,-0.18446499109268188,-0.3593173623085022,-0.42320218682289124,-1.0371932983398438,-0.8033515810966492,0.049491118639707565,0.19321776926517487,0.3551329970359802,0.43972721695899963,1.0737531185150146,0.8134906888008118,0.06479522585868835,0.21695414185523987,0.3565646708011627,0.4018743932247162,1.0205137729644775,0.7735638618469238,0.08244487643241882,0.21885229647159576,0.36402207612991333,0.41588109731674194,1.0176787376403809,0.7563745379447937,0.09415707737207413,0.20487044751644135,0.3260428309440613,0.44392478466033936,0.9779518842697144,0.7438669204711914,0.07722161710262299,0.16005639731884003,0.3457113206386566,0.4377998411655426,0.9813964366912842,0.783850908279419,-0.07438278943300247,-0.21521970629692078,-0.35633984208106995,-0.454524964094162,-1.0058691501617432,-0.7679882049560547,-0.34680888056755066,-0.17271262407302856,-0.04336642846465111,0.08846788853406906,0.30121976137161255,0.15175370872020721,-0.2608543038368225,-0.2270442247390747,-0.10671883076429367,0.11615538597106934,0.36215415596961975,0.203518345952034,0.32839322090148926,0.2587928771972656,0.12514561414718628,-0.10377997905015945,-0.3508232533931732,-0.19141320884227753,0.24118965864181519,0.2900295853614807,0.11680512130260468,-0.024700051173567772,-0.38762256503105164,-0.24068844318389893,0.2963494658470154,0.2406027466058731,0.05987727642059326,-0.034425247460603714,-0.41736793518066406,-0.12715604901313782,0.22045055031776428,0.22176818549633026,0.054979950189590454,-0.12287449836730957,-0.3029993772506714,-0.15951840579509735,0.22970762848854065,0.2587779462337494,0.04092438519001007,-0.07408315688371658,-0.35292014479637146,-0.21598698198795319,-0.2905952036380768,-0.20752283930778503,-0.05093841999769211,0.13265563547611237,0.4132221043109894,0.1807149052619934,-0.5464608669281006,-0.3255355954170227,-0.4388030767440796,-0.02529892511665821,1.189476728439331,0.09489772468805313,-0.6918274760246277,-0.37567707896232605,-0.3537892699241638,-0.08192913234233856,1.2748562097549438,0.16065135598182678,0.6004801392555237,0.30883848667144775,0.39427104592323303,0.02896065078675747,-1.2437142133712769,-0.14533491432666779,0.5246688723564148,0.24802857637405396,0.30380696058273315,0.010418139398097992,-1.2023721933364868,-0.13231715559959412,0.5001656413078308,0.3992498815059662,0.42195916175842285,0.08888854831457138,-1.1402946710586548,-0.08274678140878677,0.5515892505645752,0.22574713826179504,0.3191768527030945,-0.03866545110940933,-1.1552387475967407,-0.11839212477207184,0.46337831020355225,0.3425206243991852,0.3781614601612091,0.039451293647289276,-1.2158132791519165,-0.15284711122512817,-0.5704301595687866,-0.3235155940055847,-0.3084745705127716,-0.025828495621681213,1.226912260055542,0.16776388883590698,0.3249611556529999,0.2103959023952484,0.15972702205181122,0.09546302258968353,-0.7002554535865784,-0.3794688582420349,0.25421997904777527,0.17978103458881378,0.18625307083129883,0.05929696932435036,-0.7291215062141418,-0.3654022514820099,-0.3117283880710602,-0.18521960079669952,-0.16868233680725098,-0.09253611415624619,0.777906596660614,0.37918075919151306,-0.3129062056541443,-0.13521982729434967,-0.09634702652692795,-0.09129234403371811,0.7227302193641663,0.38545870780944824,-0.28109240531921387,-0.08991596102714539,-0.11164862662553787,-0.08640816062688828,0.6802637577056885,0.35652536153793335,-0.2113993763923645,-0.13325710594654083,-0.16272857785224915,-0.09239007532596588,0.678871214389801,0.3966156244277954,-0.28906530141830444,-0.07258417457342148,-0.11347117274999619,-0.029604647308588028,0.7354220747947693,0.32234638929367065,0.27785825729370117,0.14569437503814697,0.1898614764213562,0.08395503461360931,-0.7603914737701416,-0.34891030192375183,0.07547418028116226,-0.11655667424201965,0.3643939793109894,-0.3061527609825134,0.0702817365527153,1.7074536085128784,1.1191141605377197,0.9553208351135254,0.21179154515266418,-0.45368924736976624,0.42730605602264404,-0.48864176869392395,0.2714011073112488,-0.06789510697126389,-0.13426105678081512,0.2153775840997696,0.05333361402153969,0.5256606340408325,-0.3988450765609741,0.4527667462825775,-0.4303688406944275,0.32907339930534363,0.6516529321670532,0.2983616590499878,0.09518089145421982,-0.12566247582435608,-0.3430817425251007,0.12750263512134552,-0.06252437829971313,-0.6724607944488525,0.06920623779296875,-0.3654012382030487,-0.665809154510498,0.629162609577179,-0.4732881188392639,0.8741421103477478,-0.5959135890007019,-0.40429139137268066,0.24474172294139862,-0.4305534362792969,0.2657306492328644,-0.4170368015766144,0.5339066982269287,-0.7370362281799316,0.5136182904243469,-0.14790114760398865,-0.7388731241226196,0.5940266251564026,0.5033738017082214,-0.5974496006965637,0.9477789998054504,-1.0602773427963257,0.32718026638031006,-0.2041001170873642,-0.914823055267334,0.8092104196548462,0.3019310534000397,-0.30380839109420776,-0.11635284125804901,0.19683949649333954,0.08885306119918823,-0.11305449157953262,0.7491297125816345,-0.484944224357605,-0.17047475278377533,-0.3892865478992462,0.19761095941066742,-0.19800260663032532,0.18210871517658234,-0.6554299592971802,-0.372227281332016,0.32762667536735535,-0.5398586988449097,0.3140921890735626,-0.5993149280548096,0.46174871921539307,-0.6512537598609924,0.7693414092063904,0.45223966240882874,-0.3004501760005951,0.22781561315059662,-1.413617730140686,-0.4681403636932373,0.620783805847168,0.23002222180366516,-1.3923479318618774,-0.8176079392433167,1.0019923448562622,-0.054205212742090225,-0.014461103826761246,-0.1084560751914978,0.06455844640731812,-0.03683225065469742,0.13239167630672455,0.2809358239173889,0.25109708309173584,0.15566445887088776,0.21932241320610046,-0.02412717044353485,0.1262734830379486,-0.07662519067525864,0.0554639995098114,0.007178349886089563,0.12667378783226013,-0.018259413540363312,0.39498114585876465,-0.0712207779288292,-0.06341252475976944,0.06640077382326126,-0.04914218187332153,0.046996407210826874,-0.34829089045524597,-0.024662064388394356,0.039533499628305435,0.028846299275755882,-0.016249995678663254,0.11788712441921234,-0.26706376671791077,0.5416020154953003,0.11124857515096664,0.06501569598913193,0.11382253468036652,-0.0819130688905716,0.4118390679359436,0.01863240636885166,0.06364905834197998,0.1069822609424591,0.17734390497207642,0.26989978551864624,-0.05807829275727272,-0.14408482611179352,-0.1740606427192688,-0.20715506374835968,-0.06872580200433731,-0.34381362795829773,0.13795728981494904,0.1478431075811386,0.19355367124080658,0.021420622244477272,0.15938997268676758,0.24596813321113586,-0.10676595568656921,-0.4327852725982666,-0.1797519028186798,-0.33641356229782104,-0.41982293128967285,-0.1464836150407791,-0.2611752450466156,-0.010698359459638596,0.14600884914398193,0.053178820759058,0.06578992307186127,0.15974915027618408,-0.28540927171707153,-0.11590690165758133,-0.007560288533568382,-0.18921643495559692,0.10479401051998138,-0.1188696101307869,0.41417059302330017,0.015468950383365154,-0.24684491753578186,-0.05066622421145439,-0.1983909159898758,-0.11426691710948944,0.33904653787612915,-0.5651035904884338,-0.18205520510673523,-0.23973947763442993,-0.16892965137958527,-0.12428264319896698,-0.22525398433208466,-0.03561582416296005,-0.12220592051744461,-0.20961223542690277,-0.15344718098640442,-0.215239480137825,0.0489683635532856,-0.010092349722981453,-0.13947530090808868,-0.004473117180168629,-0.035943493247032166,0.0005948623293079436,-0.19203101098537445,0.03376507759094238,-0.06630614399909973,0.08008072525262833,0.09767482429742813,0.19476667046546936,-0.24741598963737488,-0.16517332196235657,-0.053279437124729156,-0.17018362879753113,-0.21414034068584442,-0.13713543117046356,-0.2645254135131836,0.18900637328624725,0.00884027685970068,-0.03736862540245056,0.10043630748987198,0.06964030861854553,-0.36321213841438293,-0.06008397415280342,-0.17983001470565796,0.04456436634063721,0.022267494350671768,-0.029563792049884796,0.47198906540870667,0.07240762561559677,-0.1081237941980362,0.005846139043569565,-0.06723321229219437,-0.09868378937244415,0.32671406865119934,-0.4379790723323822,0.03313509374856949,-0.1422233283519745,-0.2895905673503876,-0.018940497189760208,0.02378113940358162,0.1733541637659073,0.016542669385671616,-0.06154835596680641,-0.04973670467734337,-0.1324348896741867,0.3455832600593567,0.052168041467666626,0.03242230415344238,0.1187097430229187,0.1768978387117386,0.20896273851394653,-0.04692496731877327,0.016108401119709015,0.07525324076414108,0.14741727709770203,0.06533113121986389,0.18033887445926666,-0.13424015045166016,-0.11306735873222351,0.011127432808279991,-0.09242184460163116,-0.1369892805814743,-0.011006412096321583,-0.1850871592760086,0.1186118945479393,0.1277112513780594,-0.020351644605398178,0.15692368149757385,0.034820329397916794,-0.33312109112739563,0.006114648189395666,-0.02773461677134037,-0.06403700262308121,-0.02489444799721241,-0.12831787765026093,0.6532320976257324,0.032605722546577454,-0.13581483066082,-0.08558863401412964,-0.1215813085436821,0.02692866139113903,0.5793434977531433,-0.3744090497493744,-0.07012449204921722,-0.29967525601387024,-0.34001943469047546,-0.26033687591552734,-0.3290742039680481,-0.017558017745614052,-0.011365633457899094,-0.07846157997846603,-0.007248111069202423,-0.2918785512447357,0.15442460775375366,0.0908443033695221,-0.011781588196754456,-0.02696302719414234,0.10942346602678299,0.26263514161109924,-0.14143352210521698,-0.04832223430275917,0.03306378796696663,0.09999185800552368,0.0015951375244185328,-0.16366568207740784,-0.337033748626709,0.31518200039863586,0.3196461498737335,0.23027202486991882,0.20354099571704865,0.29762688279151917,0.415500670671463,0.18361052870750427,0.11875498294830322,0.172973170876503,0.07859062403440475,0.07372409850358963,-0.05633822828531265,-0.09562559425830841,-0.17019186913967133,-0.14145508408546448,-0.12587174773216248,0.03341689333319664,0.030728135257959366,-0.08240260183811188,-0.04186134785413742,-0.07429756224155426,-0.023671548813581467,0.053057603538036346,0.07298694550991058,0.23177608847618103,0.2951855957508087,0.33785077929496765,0.39791879057884216,0.44670581817626953,0.3845565915107727,0.21526311337947845,0.058875180780887604,-0.006767294369637966,-0.03432498127222061,0.004194742534309626,0.2548283636569977,-0.10292838513851166,-0.14584454894065857,-0.046726446598768234,-0.19219833612442017,-0.1758246123790741,-0.2831987738609314,0.09249356389045715,0.15434731543064117,0.056936971843242645,0.022457677870988846,-0.05150508135557175,0.24218642711639404,-0.3297272324562073,-0.4340890049934387,-0.4254242479801178,-0.42867302894592285,-0.3185079097747803,-0.2099238932132721,-0.2569470703601837,-0.1203111782670021,-0.2329908013343811,-0.16178476810455322,-0.14062447845935822,0.3224622905254364,0.14751598238945007,0.2891383469104767,0.21682825684547424,0.12519580125808716,0.03256761655211449,-0.32745561003685,0.1416269987821579,0.21748928725719452,0.14544662833213806,0.08578246831893921,0.08011840283870697,-0.5043969750404358,0.12278307974338531,-0.2575661540031433,-0.1071418970823288,0.012847494333982468,-0.2267972081899643,0.10145361721515656,-0.22173206508159637,-0.24739842116832733,-0.1129046082496643,-0.3125794231891632,-0.11894163489341736,-0.40496402978897095,-0.019334031268954277,-0.07867248356342316,-0.13414649665355682,0.029895931482315063,-0.2659127116203308,0.10773574560880661,-0.020836377516388893,0.05006314441561699,0.05001318082213402,-0.0945480689406395,0.02434968762099743,0.04496600851416588,-0.19701971113681793,-0.18461863696575165,-0.12312436103820801,-0.20316776633262634,-0.18437336385250092,-0.08710840344429016,-0.03151234611868858,0.03731624409556389,-0.2030646800994873,-0.0756598636507988,-0.1216803640127182,0.20733296871185303,0.0353950671851635,0.028594443574547768,0.07764928787946701,0.18640479445457458,-0.13352912664413452,-0.40295153856277466,0.1800413429737091,0.07712827622890472,0.029205121099948883,0.16163131594657898,-0.06584811210632324,-0.1557178646326065,0.08063369244337082,-0.0694011002779007,0.13608162105083466,0.24728286266326904,0.09612759947776794,0.009140546433627605,0.06908532232046127,-0.015979202464222908,0.023920143023133278,-0.1788010448217392,-0.14578819274902344,-0.07548495382070541,0.09780900180339813,0.038345612585544586,0.002449147868901491,0.0401604138314724,-0.07831767946481705,0.09041601419448853,0.10814167559146881,-0.03273690864443779,0.04767239838838577,0.008650382049381733,-0.031527381390333176,-0.24875926971435547,-0.2717474102973938,-0.14284344017505646,-0.12293387204408646,-0.11942414194345474,-0.1642785221338272,-0.2146347314119339,0.198441281914711,-0.004445131868124008,0.14729657769203186,-0.027093831449747086,0.08372730761766434,-0.43172720074653625,-0.024410951882600784,-0.06403142213821411,-0.07990848273038864,-0.17078979313373566,-0.004056726582348347,0.38989320397377014,-0.06369062513113022,-0.032130446285009384,-0.15695582330226898,-0.1578902006149292,-0.031389668583869934,0.5416542887687683,-0.5090857744216919,-0.1775008589029312,-0.14278322458267212,-0.15766318142414093,-0.052518878132104874,-0.2087583988904953,0.03409774973988533,-0.09847553074359894,-0.031762298196554184,-0.14492900669574738,-0.1129322350025177,0.49929550290107727,0.151286780834198,0.1708105057477951,0.2159007340669632,0.09055217355489731,-0.0016235787188634276,-0.23859702050685883,-0.1483212262392044,0.24208135902881622,0.2916904389858246,0.32332414388656616,-0.2109072357416153,0.1666451394557953,0.0750228762626648,0.2479875683784485,0.020622653886675835,0.015645146369934082,0.08389899134635925,0.14124706387519836,0.001437799888662994,-0.07195582240819931,-0.15168631076812744,0.1403924822807312,-0.15281178057193756,-0.0840592235326767,-0.12188797444105148,-0.1840403825044632,0.16028760373592377,-0.0816124975681305,0.30558979511260986,-0.33316752314567566,0.32600831985473633,0.2882404327392578,0.08671297878026962,-0.18901264667510986,-0.33149656653404236,-0.20004159212112427,0.09518253058195114,0.2193320393562317,-0.12603402137756348,-0.38470491766929626,-0.08198687434196472,0.17459732294082642,0.41880229115486145,0.21774785220623016,-0.18366330862045288,0.07991456985473633,0.39137837290763855,-0.11811940371990204,0.054684143513441086,0.10742662847042084,-0.1415000557899475,-0.1931280493736267,0.013596014119684696,0.013335783034563065,0.22941163182258606,0.27296698093414307,0.008186081424355507,0.09029292315244675,-0.17603076994419098,-0.10752931237220764,-0.18464072048664093,0.08883054554462433,0.20083028078079224,-0.05586206167936325,0.11661688983440399,0.32291486859321594,-0.1503133773803711,-0.09713264554738998,-0.37040233612060547,0.1508716344833374,-0.21706582605838776,-0.13506847620010376,0.01069471426308155,-0.26162484288215637,0.5464507937431335,0.16533789038658142,0.06497737765312195,-0.2260778546333313,-0.4515056908130646,-0.14185784757137299,-0.24257948994636536,-0.3257502317428589,0.5182059407234192,0.10273090749979019,0.2894427180290222,-0.2843703031539917,0.006167472805827856,-0.5557909607887268,-0.47039368748664856,-0.009520224295556545,0.36354824900627136,-0.6434993743896484,-0.6700916886329651,0.8059992790222168,0.14009208977222443,0.06252919137477875,0.05429947376251221,0.09026278555393219,0.08552099764347076,0.07699110358953476,0.15257732570171356,0.07996824383735657,0.12611809372901917,0.1235753670334816,0.004486741963773966,-0.2816180884838104,-0.08447610586881638,-0.002642783336341381,0.008455509319901466,0.002948474371805787,-0.060905370861291885,0.19260893762111664,-0.037164218723773956,0.04595055803656578,-0.011476929299533367,0.06703897565603256,0.1590242236852646,0.1078941822052002,-0.018276331946253777,0.052873190492391586,0.015708550810813904,0.03263034671545029,0.04982839897274971,0.00292621785774827,0.05874937027692795,-0.09605753421783447,0.05198105052113533,-0.0429011732339859,0.00645107589662075,-0.004607642535120249,0.02057969942688942,-0.07630735635757446,-0.03974054753780365,0.02655934914946556,-0.13835570216178894,0.18884292244911194,-0.047221872955560684,-0.004552103579044342,-0.016413653269410133,-0.08305463194847107,-0.1008923277258873,0.20102983713150024,0.07483246922492981,0.09791181981563568,0.097102090716362,0.28616154193878174,0.16283993422985077,-0.04438852518796921,-0.3201250731945038,-0.2262987494468689,-0.014990086667239666,0.07438827306032181,0.028180906549096107,-0.06252676248550415,-0.052693672478199005,0.03097025863826275,0.0002903558488469571,-0.01326171588152647,-0.02685118280351162,-0.31165194511413574,0.061760835349559784,0.12262602150440216,0.0677722617983818,0.09279032796621323,0.05061589926481247,0.07949351519346237,0.09143762290477753,0.047591615468263626,0.02556794323027134,-0.015750164166092873,0.038402009755373,0.07840009778738022,-0.15267930924892426,-0.07547187805175781,-0.07258857786655426,-0.19891445338726044,-0.25703170895576477,-0.02203270047903061,0.08332418650388718,-0.15666463971138,-0.18209728598594666,-0.35898804664611816,0.037183359265327454,-0.0013470618287101388,-0.14094536006450653,-0.0012815906666219234,0.11266548931598663,0.24013371765613556,0.1402643620967865,-0.1212799921631813,0.023060200735926628,0.08791513741016388,0.1850835531949997,-0.0022271808702498674,0.07670670747756958,-0.32288676500320435,-0.023999905213713646,0.06767453998327255,0.16185323894023895,0.03150288760662079,0.032944049686193466,-0.2131127268075943,-0.11239521205425262,-0.06319396197795868,0.06258803606033325,-0.2021341472864151,-0.016492417082190514,-0.32125237584114075,-0.2052968144416809,-0.25441667437553406,-0.145526722073555,-0.23275324702262878,-0.1681334525346756,0.11709307134151459,0.05659506842494011,-0.03417394682765007,-0.04929220303893089,-0.2091231793165207,0.045500803738832474,0.38619643449783325,-0.1231643334031105,-0.06610815227031708,-0.1904546618461609,-0.19146943092346191,-0.19035916030406952,-0.5118892192840576,-0.24108827114105225,-0.23544475436210632,-0.30529147386550903,-0.23489724099636078,-0.1426050364971161,0.3311740458011627,0.03899197280406952,0.026657091453671455,-0.008388436399400234,-0.005411341320723295,0.13863477110862732,-0.2554309070110321,-0.019442176446318626,0.03107653185725212,0.0969875380396843,0.0059129237197339535,0.10031774640083313,-0.20299234986305237,-0.22375774383544922,0.053227394819259644,-0.14334028959274292,0.015111629851162434,0.09700900316238403,0.4152607023715973,0.015244489535689354,0.004606297705322504,-0.1732228845357895,0.251542329788208,0.18495365977287292,-0.026884881779551506,0.0888204574584961,0.03421272709965706,0.03894030302762985,-0.16999298334121704,0.06302497535943985,-0.11007923632860184,-0.0544295534491539,-0.10196120291948318,0.008165576495230198,-0.24857287108898163,0.05885061249136925,-0.02985316514968872,-0.0062632933259010315,-0.10992999374866486,-0.03303224965929985,0.11540084332227707,-0.10435118526220322,0.3709275722503662,0.19886097311973572,0.06104039400815964,0.1787797212600708,-0.012831060215830803,0.04812599718570709,0.05445947125554085,-0.10867848992347717,-0.1332564800977707,-0.044386155903339386,-0.004265406634658575,-0.08708136528730392,-0.18942953646183014,-0.06914542615413666,0.029858184978365898,-0.0652245506644249,-0.11303026229143143,-0.10026627779006958,0.20069272816181183,-0.1270328015089035,-0.163152813911438,-0.20743747055530548,-0.288192480802536,-0.398787260055542,0.1853049397468567,-0.029492344707250595,-0.1331414133310318,-0.1722169667482376,-0.02235966920852661,-0.09570283442735672,-0.16739653050899506,-0.17261086404323578,-0.15525399148464203,0.020775608718395233,-0.1344466209411621,-0.07789158076047897,-0.1785709261894226,0.0674651637673378,0.13736307621002197,0.010909144766628742,0.037937089800834656,0.018297087401151657,-0.028345761820673943,-0.10509219020605087,-0.045761629939079285,-0.11323724687099457,-0.19830389320850372,-0.1211915910243988,-0.031953923404216766,-0.015855273231863976,-0.005587703548371792,-0.09253314882516861,-0.03196575865149498,-0.06595515459775925,-0.3000809848308563,-0.10113153606653214,-0.1082640215754509,-0.1748901605606079,-0.1996360570192337,-0.21442151069641113,-0.08343672752380371,0.020427079871296883,-0.06438765674829483,-0.05874373018741608,0.06474822759628296,0.1726384311914444,0.377909779548645,-0.06323264539241791,-0.08043403178453445,0.01904761791229248,0.16747933626174927,0.23986104130744934,0.00019873454584740102,0.03974592313170433,0.039765968918800354,-0.12751178443431854,-0.06741383671760559,-0.0009753236081451178,0.2632772624492645,-0.13033348321914673,-0.004947646055370569,-0.04875341057777405,-0.08037389069795609,-0.12307597696781158,-0.09494282305240631,0.07627261430025101,0.1133294329047203,0.0782831683754921,0.04039755091071129,-0.13428017497062683,0.2578794062137604,-0.004332731012254953,-0.08703958988189697,-0.08832986652851105,-0.008512726984918118,-0.17172624170780182,-0.369707316160202,0.046601857990026474,0.03997863456606865,-0.024693738669157028,-0.11450402438640594,-0.19615013897418976,-0.2709246277809143,-0.07970989495515823,-0.017147883772850037,0.017764389514923096,-0.05080249160528183,-0.21142131090164185,-0.21098850667476654,0.14552976191043854,0.2090623825788498,0.19624383747577667,0.13069303333759308,0.04023091867566109,-0.30787184834480286,0.09638696163892746,0.15819865465164185,0.12531249225139618,0.0982312485575676,-0.15927767753601074,0.00026589250774122775,0.05385763570666313,0.011829816736280918,0.07864196598529816,0.11486125737428665,0.14566132426261902,0.005378341767936945,-0.062008749693632126,-0.11616918444633484,-0.03230598568916321,0.0624203123152256,0.09418278187513351,0.15687152743339539,-0.0022076263558119535,-0.07950939238071442,-0.24267922341823578,-0.17570166289806366,-0.031865254044532776,0.21772080659866333,0.10816846787929535,0.05555059760808945,0.09350351244211197,-0.027735229581594467,0.11461836844682693,0.28583118319511414,0.07540389150381088,-0.039798006415367126,-0.05539741367101669,0.1803010106086731,0.059784896671772,0.23971927165985107,-0.07358593493700027,-0.08618433028459549,-0.12462109327316284,-0.15498583018779755,0.05839821696281433,-0.3196001946926117,-0.06803032755851746,-0.06940128654241562,-0.15684422850608826,-0.14394806325435638,-0.2344445288181305,0.024000735953450203,-0.04010386019945145,-0.2092631608247757,-0.09987553209066391,-0.00886810477823019,0.0639348179101944,0.3083292841911316,-0.05957236513495445,-0.09701676666736603,-0.1049327477812767,-0.09389104694128036,-0.17843100428581238,0.019732702523469925,0.06879737973213196,-0.036127857863903046,-0.009452976286411285,-0.05037209391593933,-0.020192449912428856,-0.21034540235996246,-0.027799520641565323,0.04278421401977539,0.051947977393865585,0.015591731294989586,0.05564899742603302,-0.07733454555273056,-0.07673061639070511,-0.01264264713972807,0.1237976923584938,0.0475875660777092,0.02127130888402462,0.26650843024253845,-0.024572918191552162,-0.11699116975069046,-0.08905785530805588,0.11823593825101852,-0.08896791934967041,-0.3106696903705597,-0.028594166040420532,-0.011047512292861938,0.03838248923420906,-0.024587241932749748,0.15574775636196136,0.24273091554641724,-0.0843924805521965,0.23711146414279938,0.1987641304731369,-0.19821901619434357,0.0675596222281456,0.1193498969078064,-0.22789046168327332,0.05289597809314728,-0.003311367705464363,-0.06358297914266586,0.11888091266155243,0.003421761794015765,-0.05982428416609764,0.05917307361960411,-0.004754883237183094,-0.04566583409905434,-0.30459991097450256,-0.20367759466171265,-0.006825396791100502,0.2356017827987671,0.20862166583538055,-0.3639422655105591,0.1480529010295868,-0.021633751690387726,0.15650178492069244,0.0018780941609293222,-0.12002398818731308,-0.08469848334789276,0.1339796632528305,-0.09675715118646622,0.18882215023040771,-0.2766565978527069,-0.02512313798069954,-0.13542740046977997,0.09630667418241501,0.11984207481145859,0.054804809391498566,-0.21643473207950592,0.030181730166077614,0.04909435659646988,-0.16991981863975525,-0.30138611793518066,0.37497594952583313,0.28013676404953003,-0.004050096962600946,0.18125101923942566,-0.21855799853801727,0.005695325322449207,0.18579304218292236,-0.08794677257537842,0.2706911265850067,-0.0027155005373060703,-0.3465736508369446,0.3385894000530243,-0.2272668331861496,0.18760892748832703,-0.08838417381048203,0.22973750531673431,0.1608017086982727,-0.21600623428821564,-0.0636315792798996,0.02381427399814129,-0.08832008391618729,-0.3074449598789215,-0.20523473620414734,0.0344015397131443,0.11858663707971573,0.16779175400733948,-0.09372758120298386,0.38742682337760925,-0.03328242525458336,0.10885700583457947,-0.4348888397216797,0.09185313433408737,-0.07521624118089676,0.17134597897529602,0.15606234967708588,0.0392124317586422,0.3103712201118469,-0.14163704216480255,-0.017847346141934395,-0.46138691902160645,-0.18410331010818481,0.41943809390068054,-0.16021768748760223,-0.38598209619522095,-0.7647864818572998,0.4983646869659424,0.028152916580438614,-0.1011926606297493,-0.09454405307769775,-0.05977344885468483,-0.03576609119772911,-0.23695804178714752,-0.010263478383421898,-0.03752059116959572,0.07328451424837112,-0.016363907605409622,0.06521780788898468,0.18306413292884827,0.16010214388370514,-0.10801848024129868,-0.005630559753626585,-0.06188061833381653,-0.005521286278963089,0.01090058870613575,-0.1329796463251114,-0.12714439630508423,-0.14248938858509064,-0.04390428215265274,0.09382592141628265,-0.09377722442150116,0.16068893671035767,0.0868414118885994,0.049985677003860474,0.019114961847662926,-0.18102999031543732,-0.11423076689243317,0.005049637518823147,-0.022054342553019524,-0.013221215456724167,0.10700039565563202,0.25214657187461853,0.006738296709954739,-0.05533197149634361,-0.005544695537537336,0.08447492122650146,0.004226436838507652,0.014518986456096172,0.09790264070034027,-0.03064427338540554,0.12363862991333008,-0.03191652521491051,0.10806458443403244,0.10893406718969345,-0.0321778729557991,-0.03988219052553177,-0.09579219669103622,-0.050599951297044754,0.023488489910960197,-0.05979699268937111,-0.0016709179617464542,0.012794560752809048,-0.01447083055973053,0.015486018732190132,0.026504747569561005,0.007337660528719425,-0.0023867597337812185,-0.027958322316408157,-0.014137579128146172,-0.047213707119226456,0.10339076071977615,0.04963025450706482,-0.23534636199474335,-0.0754089206457138,-0.01285372395068407,-0.03905288130044937,-0.17207665741443634,-0.03187385946512222,0.0464874804019928,-0.060905687510967255,-0.016624074429273605,-0.09259340167045593,0.027837660163640976,-0.02297784574329853,-0.1519026905298233,0.08637699484825134,0.07193129509687424,0.08068498969078064,0.11498437076807022,0.19283759593963623,-0.06850782036781311,0.09205147624015808,-0.0538511760532856,-0.052226368337869644,-0.03630489856004715,-0.037624966353178024,0.045158177614212036,-0.03870731592178345,0.11473020166158676,0.018763886764645576,-0.006573615595698357,0.1441962718963623,-0.25455334782600403,0.003255519550293684,-0.0031937132589519024,-0.05506947636604309,-0.060121823102235794,-0.09609584510326385,-0.05156235024333,-0.026187928393483162,-0.06510089337825775,-0.04144574701786041,-0.09641045331954956,-0.13800732791423798,-0.12263383716344833,-0.045568402856588364,-0.017424367368221283,-0.017968008294701576,0.033136092126369476,-0.10967545211315155,-0.030969910323619843,-0.02949824556708336,0.015594099648296833,-0.03992875665426254,-0.007817864418029785,0.01532655581831932,-0.19804629683494568,-0.020070673897862434,-0.03602081537246704,-0.01490002404898405,0.002569479402154684,-0.053270913660526276,-0.14331163465976715,0.006348546128720045,-0.018705248832702637,-0.002814606297761202,0.1926877349615097,0.010421336628496647,-0.10569429397583008,-0.014557262882590294,-0.055329110473394394,0.005490310024470091,-0.08150850236415863,-0.15174558758735657,-0.26737141609191895,-0.015164167620241642,-0.011763213202357292,0.0039467583410441875,0.14061479270458221,0.08683567494153976,-0.07977414131164551,0.016679709777235985,0.02565278857946396,0.02862277254462242,0.032106176018714905,-0.06257371604442596,0.08464302867650986,-0.044071752578020096,0.011217484250664711,-0.06048109009861946,-0.11161065101623535,-0.06098824739456177,0.1548333466053009,0.013632611371576786,0.05034255236387253,-0.030719498172402382,-0.11185230314731598,-0.22833068668842316,-0.11955859512090683,0.03837089613080025,0.0006030075601302087,0.04097011685371399,-0.03219572827219963,0.06355291604995728,-0.08625131845474243,0.042450353503227234,0.08198477327823639,0.04283938184380531,0.016176778823137283,0.08105003088712692,0.13917036354541779,-0.024971285834908485,-0.018984967842698097,-0.04412844404578209,-0.06472501158714294,-0.37784290313720703,-0.07473500818014145,-0.047836784273386,-0.07499807327985764,-0.07685966044664383,-0.08727113157510757,0.03019084967672825,-0.13062992691993713,0.021972937509417534,0.043361447751522064,0.016091300174593925,-0.034073904156684875,-0.16897355020046234,0.5644934773445129,0.015667710453271866,0.10167820751667023,-0.031573839485645294,-0.12256172299385071,-0.10214150696992874,0.4384321868419647,0.02256190963089466,0.19663073122501373,-0.012707812711596489,0.10515601187944412,0.11991306394338608,-0.3517026901245117,0.008438056334853172,0.04562158137559891,-0.024245215579867363,0.0993366464972496,0.13076989352703094,-0.020674752071499825,-0.043683264404535294,-0.1259486824274063,-0.029202286154031754,-0.04028641805052757,0.04534091800451279,0.35629794001579285,-0.048296812921762466,0.0413883812725544,-0.06764692813158035,-0.019894883036613464,-0.055207107216119766,0.08969457447528839,0.06590740382671356,0.05501354858279228,0.060414645820856094,0.06156346946954727,-0.019348621368408203,-0.529593288898468,0.087065689265728,0.1415388435125351,0.030059896409511566,0.04703228175640106,-0.1629893034696579,0.3337160050868988,-0.06784271448850632,-0.08905209600925446,-0.012527817860245705,0.03326427936553955,0.021940158680081367,0.11707032471895218,0.05173762887716293,0.12338551878929138,0.11929724365472794,0.10178626328706741,0.24836918711662292,-0.02415601909160614,0.10115914046764374,0.16222965717315674,0.17850233614444733,0.18051283061504364,0.12036977708339691,0.13764530420303345,0.01778622530400753,0.02016378380358219,-0.007206288632005453,0.03484390303492546,0.1890128254890442,0.10437388718128204,-0.07062891125679016,-0.0826575756072998,0.004923662636429071,-0.018311845138669014,-0.009187216870486736,0.2195151299238205,-0.054776933044195175,-0.04450618103146553,-0.13479875028133392,-0.10993748903274536,0.05128725990653038,0.11595048755407333,0.06778131425380707,0.10284769535064697,0.1021714061498642,0.05945224314928055,0.124199777841568,0.6942399144172668,0.1833798885345459,0.23490010201931,0.21224987506866455,0.1623694747686386,0.10821808129549026,-0.06430115550756454,-0.1293083280324936,-0.14675115048885345,-0.15304924547672272,-0.16451868414878845,-0.12901800870895386,-0.21623729169368744,0.09268354624509811,0.055072493851184845,0.0031041798647493124,0.055804938077926636,0.12846091389656067,-0.2262626737356186,0.12526832520961761,0.14630384743213654,0.10743994265794754,0.13232246041297913,-0.13115407526493073,0.05605649575591087,0.015804165974259377,-0.0010190904140472412,-0.05082428455352783,0.10412980616092682,0.13701458275318146,0.2722485065460205,-0.12999746203422546,-0.06148095428943634,0.0022283021826297045,0.05665786191821098,0.16896125674247742,-0.059476930648088455,0.053927503526210785,-0.04773803427815437,-0.17747826874256134,-0.056395694613456726,-0.17011027038097382,-0.4643859565258026,0.06379597634077072,0.045852236449718475,0.13409464061260223,0.10537678748369217,0.15776142477989197,-0.12282965332269669,0.17461368441581726,0.1508949100971222,0.2572682499885559,0.23754973709583282,0.03593675047159195,0.3047583997249603,-0.057535793632268906,-0.09014064818620682,-0.07317160069942474,-0.07714587450027466,-0.1609814465045929,-0.4055280089378357,-0.03229357302188873,0.06286358833312988,0.03809356316924095,0.01719078980386257,0.12885843217372894,-0.1371820867061615,-0.08998005837202072,0.004020551219582558,-0.10692906379699707,0.029205461964011192,0.21428219974040985,0.07207830995321274,-0.020930148661136627,0.01102225948125124,-0.09788335859775543,0.054131027311086655,0.21355117857456207,-0.14975322782993317,0.12325596809387207,0.05524143949151039,0.14006273448467255,0.023916708305478096,-0.22828295826911926,-0.015531827695667744,-0.06056951731443405,0.010568135417997837,0.046805933117866516,0.13897453248500824,0.04023132845759392,0.10314639657735825,-0.061793964356184006,-0.07341025769710541,-0.2706916928291321,-0.15324382483959198,-0.07192812114953995,-0.004158418625593185,-0.04570048674941063,-0.013575159944593906,-0.06410449743270874,0.05463723465800285,-0.03767570108175278,-0.3448922634124756,-0.021309223026037216,-0.09191177040338516,-0.1075889989733696,-0.00686869490891695,0.18775832653045654,-0.11291687190532684,0.04516885429620743,0.048065971583127975,0.06769752502441406,-0.0017893010517582297,-0.10821717977523804,-0.22331877052783966,-0.06982037425041199,0.2201554775238037,0.0022029767278581858,0.001512152492068708,0.01076113898307085,-0.06646592915058136,-0.0048829056322574615,-0.01805829629302025,0.010784199461340904,0.033306367695331573,0.08891487121582031,-0.020866062492132187,-0.021608028560876846,0.03729167953133583,-0.4633658528327942,0.07309164851903915,-0.22309507429599762,-0.1806250810623169,-0.11960987001657486,-0.08252882212400436,-0.06616441905498505,-0.05998281016945839,0.01327188964933157,-0.10992489755153656,0.36944177746772766,-0.13329802453517914,0.08231647312641144,-0.03473033756017685,-0.2900409996509552,0.02939576655626297,-0.05749855935573578,0.12040185183286667,-0.22950772941112518,-0.06386550515890121,0.2178964763879776,0.02749665081501007,0.1377861499786377,-0.14960622787475586,-0.32416456937789917,-0.34276166558265686,0.24539229273796082,-0.2833757698535919,-0.09964205324649811,0.10402119159698486,0.21645501255989075,-0.17767392098903656,0.1309356987476349,-0.2992076575756073,0.3257109224796295,0.01784559339284897,0.045243214815855026,-0.02386617101728916,-0.04313856363296509,-0.16882678866386414,0.18931855261325836,-0.3194695711135864,0.6061317324638367,0.19109076261520386,-0.12605442106723785,-0.0653495192527771,0.24075888097286224,-0.05496211722493172,-0.0016499715857207775,0.15271702408790588,0.03935789689421654,0.002515011001378298,-0.20150579512119293,-0.019833752885460854,0.08008170872926712,-0.17141447961330414,-0.2748827040195465,0.2602740526199341,0.11604403704404831,-0.10126721113920212,-0.22911770641803741,-0.4100375175476074,-0.02660686895251274,0.33053556084632874,0.02794022299349308,-0.16590677201747894,-0.4939415752887726,0.27331724762916565,-0.00890632625669241,-7.299433491425589e-05,0.061835531145334244,-0.006072273012250662,-0.035526856780052185,-0.0706021636724472,-0.11130675673484802,-0.005558809731155634,-0.04129540175199509,-0.018350370228290558,-0.08301927894353867,-0.2465437650680542,0.01144470740109682,-0.08914762735366821,-0.08411962538957596,-0.08025554567575455,-0.027082102373242378,-0.026764651760458946,0.04459839314222336,0.017627645283937454,-0.040218330919742584,0.03205695375800133,-0.05385695397853851,0.07791928946971893,-0.07506528496742249,-0.08010968565940857,-0.02421417646110058,-0.045360926538705826,0.10007134824991226,0.10439704358577728,0.0605175755918026,0.003127381904050708,0.05005411431193352,0.06041994318366051,0.02977890707552433,0.08894878625869751,-0.01964014396071434,-0.0064072441309690475,0.05652611702680588,0.05908023193478584,-0.1489594429731369,-0.2213004231452942,-0.002699388423934579,-0.029522230848670006,-0.022362120449543,0.06360934674739838,0.21799251437187195,-0.028684677556157112,0.052733492106199265,0.04219159856438637,0.034941717982292175,-0.04720988869667053,-0.05154233053326607,0.2566875219345093,-0.0020153869409114122,-0.06883300840854645,-0.057617828249931335,-0.023757124319672585,-0.08004529774188995,-0.03665350377559662,0.050594478845596313,0.033407412469387054,0.023185988888144493,-0.011725205928087234,-0.014757538214325905,-0.15412753820419312,-0.0020492407493293285,-0.06003931909799576,-0.047238435596227646,0.009920217096805573,0.062669537961483,0.09086672961711884,-0.016677126288414,0.09182137250900269,0.03414101526141167,0.006443962454795837,-0.09804892539978027,-0.008848519064486027,-0.003086415585130453,-0.015593770891427994,0.028631219640374184,-0.0181589275598526,0.000514037674292922,-0.027584830299019814,-0.07219056785106659,-0.1171250194311142,-0.010562073439359665,-0.05160721391439438,-0.03363176807761192,0.098563551902771,-0.07763803750276566,0.015404717065393925,-0.009345264174044132,0.06163636967539787,-0.043804146349430084,0.2125788778066635,0.07802080363035202,0.07275215536355972,0.07708707451820374,0.041945867240428925,0.04663069546222687,-0.3707115054130554,0.09531882405281067,0.08501333743333817,0.09552300721406937,0.03407982736825943,-0.025307094678282738,0.28281518816947937,0.00220283679664135,0.0016056487802416086,0.0033153886906802654,0.02105812542140484,-0.013380450196564198,0.20717667043209076,-0.020366797223687172,-0.020170511677861214,0.005492616910487413,0.03230420500040054,0.0006956605357117951,-0.34657683968544006,0.003231485839933157,-0.02245568484067917,0.010878385975956917,-0.04662387818098068,-0.08433622866868973,-0.07933606207370758,0.006397703196853399,0.021543173119425774,0.01316007412970066,0.04309093579649925,0.00953701138496399,0.15919281542301178,0.08491931110620499,0.11253133416175842,0.10535652935504913,0.08725543320178986,0.05602337047457695,0.20366036891937256,-0.057217005640268326,-0.08211493492126465,-0.043270137161016464,-0.05742006003856659,-0.13776229321956635,-0.24432384967803955,0.03861946612596512,0.031012121587991714,0.06256715208292007,0.08831946551799774,0.007042398676276207,0.31345683336257935,0.017019793391227722,-0.012266052886843681,-0.02430029585957527,0.014957793988287449,-0.021161213517189026,-0.022299103438854218,-0.012462334707379341,-0.03175430744886398,-0.016579419374465942,-0.02406260184943676,0.10137595981359482,-0.26941031217575073,0.023246802389621735,-0.007035089191049337,-0.03525962680578232,-0.06644356995820999,-0.008081858046352863,0.38199153542518616,-0.03659665584564209,-0.008749609813094139,0.007842817343771458,0.0990799143910408,0.0041870675049722195,-0.17829574644565582,0.04798870161175728,-0.004160680808126926,-0.002837990177795291,0.007841979153454304,0.10419274121522903,-0.24260392785072327,0.04017366096377373,-0.0032822932116687298,-0.05336141213774681,-0.08289925009012222,0.0011338540352880955,-0.056374941021203995,0.0015494617400690913,-0.025096086785197258,-0.04635749012231827,0.07133147120475769,0.07043176144361496,0.1204095110297203,-0.015435604378581047,-0.03293783217668533,-0.025084488093852997,-0.050733618438243866,0.05481240153312683,0.33504098653793335,-0.010635904967784882,-0.026837972924113274,-0.02021038345992565,0.029616612941026688,-0.020808806642889977,0.12491827458143234,0.0030452690552920103,-0.004973412957042456,-0.02433040179312229,-0.04082617536187172,-0.021005231887102127,0.1605832576751709,-0.01491211075335741,-0.00840543769299984,0.0011900013778358698,-0.049327194690704346,-0.08270394802093506,-0.41062214970588684,-0.004194687586277723,0.004145881626754999,-0.03197396919131279,0.013101700693368912,0.003359398106113076,0.15079127252101898,-0.02279501035809517,-0.026260212063789368,0.008808066137135029,0.007148775737732649,-0.017421245574951172,-0.02604227513074875,-0.027570849284529686,-0.04547383636236191,0.006638213526457548,0.05445978790521622,-0.018746960908174515,-0.5027505159378052,-0.00845889002084732,0.025188127532601357,0.007620926946401596,0.044682491570711136,-0.08954419940710068,-0.07403569668531418,-0.04942222312092781,-0.018658863380551338,-0.07099740207195282,-0.0052583604119718075,-0.026646075770258904,0.12613241374492645,0.013408858329057693,0.009660866111516953,0.00687237735837698,-0.005465799942612648,-0.07467606663703918,-0.24864909052848816,-0.06162186712026596,0.01609227806329727,0.06644647568464279,0.0167734082788229,0.04199114814400673,-0.06286356598138809,-0.021510371938347816,0.0031560424249619246,0.03593944013118744,0.0005353845772333443,-0.0376109704375267,0.16809260845184326,-0.09656478464603424,-0.052346620708703995,-0.17392560839653015,-0.07307498902082443,0.08165589720010757,-0.2370700091123581,0.06309211254119873,-0.0014332360588014126,0.010238487273454666,-0.033038992434740067,-0.047344692051410675,0.05411066114902496,0.06608942151069641,0.043864622712135315,0.05572289228439331,-0.005760816857218742,-0.03165613114833832,-0.2623709738254547,-0.0285341814160347,-0.053341809660196304,-0.15785962343215942,-0.08744815737009048,0.07339084148406982,-0.17454108595848083,-0.034331221133470535,0.013899784535169601,-0.018804488703608513,0.0030414049979299307,-0.02941812388598919,0.11434734612703323,-0.070759616792202,-0.01605059765279293,-0.04020499438047409,0.006088878959417343,-0.0799572691321373,-0.08748124539852142,0.0065521253272891045,-0.014040403068065643,-0.0006975564756430686,0.013664213009178638,-0.05301908776164055,-0.4580983519554138,0.030875852331519127,0.01688198931515217,0.011896084994077682,-0.0042191799730062485,0.060027722269296646,0.19128566980361938,-0.02450721152126789,-0.00010446052328916267,0.04710135608911514,0.01709222048521042,-0.05661053583025932,-0.0027906387113034725,0.03209252655506134,-0.0014124376466497779,-0.043306466192007065,-0.013193444348871708,-0.09246428310871124,-0.30296191573143005,-0.001284671714529395,-0.011176406405866146,-0.07237488776445389,0.028392687439918518,0.012535701505839825,-0.1203886866569519,0.02603195421397686,-0.005658862646669149,0.034771762788295746,-0.0156851839274168,-0.1178119108080864,-0.4382345974445343,0.13970236480236053,0.11872019618749619,0.13721369206905365,0.15075677633285522,0.17267830669879913,0.3351655900478363,0.12579399347305298,0.10954535752534866,0.0917598083615303,0.138119637966156,0.23839779198169708,-0.14783525466918945,0.050210919231176376,0.03906320035457611,0.019793875515460968,0.06139935553073883,0.0168843325227499,0.2054358422756195,-0.06656129658222198,-0.07303132116794586,-0.07271942496299744,-0.07878459244966507,-0.04974222183227539,-0.19070516526699066,0.0406939759850502,0.02928117848932743,0.009923811070621014,0.008983004838228226,-0.04359322786331177,-0.32486364245414734,0.05473681911826134,0.06584474444389343,0.05584736168384552,0.055284034460783005,0.08897943794727325,-0.3070990741252899,0.16949421167373657,0.15614092350006104,0.127672016620636,0.15733207762241364,0.33753883838653564,0.6837101578712463,-0.10514764487743378,-0.08984703570604324,-0.12610745429992676,-0.15963953733444214,-0.18886254727840424,-0.12722179293632507,0.07415124773979187,-0.034076228737831116,-0.1761132925748825,0.06386255472898483,0.10044164955615997,-0.07703384011983871,0.15096385776996613,-0.3162286877632141,0.044164009392261505,-0.03376570716500282,-0.014895234256982803,-0.01591688022017479,0.0007280849386006594,0.02493962086737156,-0.01366086583584547,0.012490417808294296,0.036847323179244995,-0.037319060415029526,0.3912399113178253,0.10414642095565796,-0.2905433177947998,-0.08713863790035248,0.06057017669081688,-0.13021297752857208,0.1540873497724533,0.11377101391553879,0.036052800714969635,-0.073023721575737,-0.2312261164188385,0.01314791664481163,0.2646740972995758,0.11803518980741501,0.08824491500854492,0.05399166792631149,-0.12309852242469788,-0.06861250102519989,-0.138671875,0.05557359755039215,0.40345096588134766,-0.5176347494125366,0.11825688928365707,-0.054843127727508545,0.45049357414245605,0.07123834639787674,0.1697506159543991,0.010418313555419445,-0.13777464628219604,0.2144627720117569,0.08015120774507523,-0.0705358237028122,0.016006797552108765,0.08033467829227448,0.2703644931316376,0.18694403767585754,-0.2859194576740265,0.4195139408111572,0.12637758255004883,-0.13646680116653442,-0.51125168800354,-0.11721158772706985,-0.05953953415155411,0.06349506974220276,0.12408483028411865,0.08649147301912308,0.135990172624588,0.15591509640216827,0.2785916030406952,0.04527712240815163,0.4707063138484955,0.1995880901813507,-0.01087215542793274,0.1090930923819542,0.18286694586277008,0.06075766682624817,0.0010869897669181228,0.08873394876718521,0.05580015853047371,0.10778290778398514,0.4545871317386627,-0.14320290088653564,-0.17575597763061523,-0.17569789290428162,0.08395470678806305,0.18931397795677185,-0.08734755218029022,0.04619540274143219,-0.2777631878852844,0.44652506709098816,0.020827021449804306,0.045426320284605026,-0.07018208503723145,-0.04216580092906952,-0.01290661096572876,-0.024782953783869743,0.0585382841527462,0.00013415967987384647,-0.008306811563670635,-0.04841863736510277,-0.009370148181915283,0.2999129295349121,-0.06278009712696075,-0.03401006758213043,-0.03543943166732788,0.028182407841086388,0.03643208369612694,0.24839773774147034,-0.007661123294383287,-0.010791071690618992,0.003637816058471799,-0.005684630014002323,-0.01542132068425417,0.0901867151260376,-0.012921398505568504,-0.024389969184994698,-0.03463669866323471,-0.043093156069517136,-0.013255946338176727,0.2092140018939972,0.014042316004633904,0.006274165585637093,-0.010929549112915993,-0.010817197151482105,-0.022071730345487595,-0.3332131803035736,0.027567917481064796,-0.018038710579276085,-0.029360387474298477,-0.02796473726630211,-0.042305201292037964,-0.12966518104076385,0.011447302997112274,-0.058424919843673706,0.013478937558829784,-0.05810374766588211,-0.05234406143426895,0.02524236962199211,0.026043467223644257,0.012786168605089188,0.013452855870127678,0.04074034467339516,-0.0662219375371933,0.25115931034088135,0.032782841473817825,0.03827782720327377,-0.02242732048034668,0.018245207145810127,-0.03647422417998314,-0.09758508950471878,-0.03695724904537201,-0.024063657969236374,-0.021577095612883568,-0.05500630661845207,-0.007577613461762667,-0.21670256555080414,-0.00317453034222126,0.007174212951213121,0.04206164926290512,0.01499441172927618,0.05929573252797127,-0.031115610152482986,0.008353468030691147,-0.006702291313558817,-0.03643778711557388,-0.0061959573067724705,-0.05708850175142288,-0.2650735378265381,0.003309808671474457,0.018123852089047432,0.04109271243214607,0.013256538659334183,-0.022625036537647247,-0.11426111310720444,-0.012834183871746063,0.016147712245583534,0.004691913723945618,0.027414029464125633,-0.016678376123309135,-0.029880277812480927,0.02109496295452118,0.025118034332990646,0.023524055257439613,-0.010104471817612648,0.007295680698007345,-0.05515669658780098,0.025530889630317688,-0.025413870811462402,0.05390913039445877,0.03858279436826706,0.022831855341792107,-0.10040954500436783,-0.07808320969343185,-0.013251262716948986,-0.017430095002055168,-0.024401668459177017,-0.02550094574689865,0.6609911322593689,0.0334211140871048,0.09621838480234146,0.08108805865049362,0.15875793993473053,0.11976057291030884,0.14408476650714874,-0.0199662446975708,-0.03297535330057144,-0.046413078904151917,-0.009851833805441856,-0.05005737021565437,-0.002962101250886917,0.04132700338959694,0.04301485791802406,0.10087622702121735,0.050804734230041504,0.11820279061794281,0.007240721490234137,-0.037990178912878036,-0.04995129629969597,-0.008172537200152874,-0.029290074482560158,-0.0311577245593071,-0.25786399841308594,-0.07345696538686752,-0.05890227481722832,-0.01986355148255825,-0.0997726321220398,-0.09346120804548264,-0.5097830295562744,-0.03398077189922333,-0.014764360152184963,0.0028477224987000227,-0.03780961409211159,0.026559295132756233,-0.05947035551071167,0.022659605368971825,0.04134027287364006,-0.018821220844984055,-0.019269898533821106,-0.007793003227561712,0.1849539428949356,-0.03334459289908409,0.03062726929783821,-0.03304462134838104,-0.029414670541882515,-0.06797248870134354,0.14558252692222595,-0.009947497397661209,0.034600112587213516,0.08340100198984146,0.02467990480363369,-0.04286710172891617,-0.13373178243637085,0.011364694684743881,-0.028192879632115364,0.02097499743103981,0.00048684552893973887,0.0512542724609375,-0.09905911237001419,0.04041514918208122,0.08077642321586609,0.05365293473005295,0.07845316082239151,0.04386667162179947,0.2199086993932724,-0.03115173988044262,-0.01685694418847561,-0.015316099859774113,-0.019468290731310844,-0.0560821071267128,-0.03349769860506058,-0.09417089819908142,-0.03374047949910164,-0.0871509313583374,-0.03575627878308296,-0.13601744174957275,0.04031087085604668,0.02275092341005802,0.03060048818588257,0.07650014013051987,0.08380278944969177,0.07307466864585876,0.06468722969293594,0.03893063962459564,0.011149069294333458,-0.010166123509407043,-0.0033345867414027452,-0.011074022389948368,-0.2753211259841919,0.029222767800092697,0.01632530987262726,0.005943977739661932,0.03596502169966698,0.008719312027096748,-0.21151140332221985,-0.0530225932598114,-0.014348617754876614,-0.025101415812969208,0.011543628759682178,-0.09693390876054764,0.08515146374702454,0.006870062090456486,0.019106274470686913,0.0676901564002037,0.057543475180864334,0.025955576449632645,0.13570821285247803,0.011515187099575996,-0.0034224209375679493,-0.07432810962200165,-0.08856738358736038,-0.013640698976814747,0.15703633427619934,0.03763079643249512,0.052537962794303894,0.062232621014118195,0.03948722407221794,0.016026746481657028,-0.029141848906874657,0.05641825869679451,0.09460489451885223,0.07220788300037384,0.07193655520677567,0.05656232684850693,-0.3644685745239258,0.04096612706780434,0.03307381272315979,0.03466526046395302,-0.01747921295464039,0.07725941389799118,-0.131473109126091,0.113857202231884,0.1131344884634018,0.1054338663816452,0.1258828192949295,0.12026756256818771,0.19052591919898987,0.03282497078180313,0.06859651207923889,0.04826861619949341,0.029476303607225418,0.05622665584087372,-0.33666443824768066,0.03785640001296997,0.10460934787988663,0.0691099613904953,0.07913710176944733,0.12376037240028381,-0.11225181818008423,-0.043980829417705536,-0.05749049037694931,-0.04657474905252457,-0.06469855457544327,-0.08914049714803696,-0.14630913734436035,0.012134495191276073,-0.0030803075060248375,0.025286197662353516,0.029354887083172798,0.03347933664917946,-0.7932462096214294,0.01770523190498352,0.0251728817820549,0.010936847887933254,0.009782316163182259,0.0017376048490405083,-0.03955646976828575,0.028978735208511353,0.0657125785946846,0.02600332349538803,0.0037708531599491835,0.06137213110923767,0.5014141201972961,-0.11254430562257767,-0.14529213309288025,-0.09327758848667145,-0.12212440371513367,-0.15763837099075317,-0.03866298869252205,0.03093494288623333,0.050823792815208435,-0.040801119059324265,-0.014052452519536018,0.01809021271765232,0.08477853983640671,0.011980836279690266,-0.02396630495786667,-0.04884057119488716,-0.028378019109368324,-0.012894709594547749,-0.0686967670917511,-0.003941449802368879,0.02066911943256855,0.012726823799312115,0.024532487615942955,-0.015337570570409298,0.02964414469897747,-0.0036658598110079765,0.006536438595503569,0.03354139253497124,-0.003981332294642925,0.02591378428041935,0.10192267596721649,0.001124082482419908,-0.00603941036388278,-0.04456781595945358,0.0015063651371747255,0.01638716831803322,-0.12051666527986526,-0.03874208405613899,0.05260726064443588,0.028081057593226433,-0.002546027535572648,0.023567454889416695,0.3233613073825836,-0.06813216954469681,0.02056267112493515,-0.03785164654254913,-0.05923616513609886,-0.0338163860142231,0.12328670173883438,-0.041041888296604156,-0.009086154401302338,0.027063723653554916,0.018632451072335243,0.01671879179775715,0.1589861661195755,-0.030670730397105217,0.09366133064031601,0.04046301171183586,0.0008185615297406912,0.03985369950532913,0.3192269504070282,0.1098783016204834,-0.07240106165409088,-0.004991493653506041,-0.0672852098941803,0.0149818304926157,-0.3125591576099396,0.00016321080329362303,0.09369911998510361,0.016147777438163757,0.1543651968240738,0.0014064577408134937,0.1492190659046173,-0.007449247874319553,-0.011982092633843422,0.0408451184630394,0.0798293724656105,-0.10669568181037903,0.2871103286743164,-0.12940523028373718,0.02425280027091503,-0.11167190223932266,-0.05890613794326782,-0.04932885617017746,-0.05242827162146568,0.05003155767917633,0.028347555547952652,0.029566043987870216,0.02648044377565384,-0.01591697707772255,-0.050285421311855316,0.12361777573823929,0.10853219032287598,0.08425763994455338,0.11384709179401398,0.015907006338238716,0.10734161734580994,-0.09097117185592651,-0.1287883073091507,-0.1508903205394745,-0.08062708377838135,-0.15345342457294464,-0.0701507106423378,0.011413253843784332,0.040548309683799744,0.02850799821317196,0.05305620655417442,0.006838739383965731,-0.37631016969680786,-0.07203400135040283,-0.025006357580423355,-0.017387766391038895,0.008799217641353607,0.0027440020348876715,-0.0028349547646939754,-0.008866524323821068,