{"version":"0.7.0","metadata":{"date":{"year":2026,"month":6,"day":15,"hour":7,"minute":4,"second":42},"loudness":-8.679798132141206,"gain":0.6692122946237724,"name":"Logic Pro Amp","modeled_by":"oyama","gear_type":"amp_cab","gear_make":"T3K-Null","gear_model":"T3K-Null","tone_type":"T3K-Null","trainer":"TONE3000"},"architecture":"SlimmableContainer","config":{"submodels":[{"max_value":0.5,"model":{"version":"0.7.0","metadata":{"date":{"year":2026,"month":6,"day":15,"hour":7,"minute":4,"second":40},"loudness":-8.53478050823984,"gain":0.679278726358189},"architecture":"WaveNet","config":{"layers":[{"input_size":1,"condition_size":1,"head":{"out_channels":1,"kernel_size":16,"bias":true},"channels":3,"kernel_sizes":[6,6,6,6,6,6,6,6,6,6,6,6,6,6,15,15,6,6,6,6,6,6,6],"dilations":[1,3,7,17,41,101,239,1,3,7,17,41,101,239,1,13,1,3,7,17,41,101,239],"activation":[{"type":"LeakyReLU","negative_slope":0.01},{"type":"LeakyReLU","negative_slope":0.01},{"type":"LeakyReLU","negative_slope":0.01},{"type":"LeakyReLU","negative_slope":0.01},{"type":"LeakyReLU","negative_slope":0.01},{"type":"LeakyReLU","negative_slope":0.01},{"type":"LeakyReLU","negative_slope":0.01},{"type":"LeakyReLU","negative_slope":0.01},{"type":"LeakyReLU","negative_slope":0.01},{"type":"LeakyReLU","negative_slope":0.01},{"type":"LeakyReLU","negative_slope":0.01},{"type":"LeakyReLU","negative_slope":0.01},{"type":"LeakyReLU","negative_slope":0.01},{"type":"LeakyReLU","negative_slope":0.01},{"type":"LeakyReLU","negative_slope":0.01},{"type":"LeakyReLU","negative_slope":0.01},{"type":"LeakyReLU","negative_slope":0.01},{"type":"LeakyReLU","negative_slope":0.01},{"type":"LeakyReLU","negative_slope":0.01},{"type":"LeakyReLU","negative_slope":0.01},{"type":"LeakyReLU","negative_slope":0.01},{"type":"LeakyReLU","negative_slope":0.01},{"type":"LeakyReLU","negative_slope":0.01}],"bottleneck":3,"head1x1":{"active":false,"out_channels":1,"groups":1},"layer1x1":{"active":true,"groups":1},"groups_input":1,"groups_input_mixin":1,"conv_pre_film":{"active":false,"shift":true,"groups":1},"conv_post_film":{"active":false,"shift":true,"groups":1},"input_mixin_pre_film":{"active":false,"shift":true,"groups":1},"input_mixin_post_film":{"active":false,"shift":true,"groups":1},"activation_pre_film":{"active":false,"shift":true,"groups":1},"activation_post_film":{"active":false,"shift":true,"groups":1},"layer1x1_post_film":{"active":false,"shift":true,"groups":1},"head1x1_post_film":{"active":false,"shift":true,"groups":1},"gating_mode":["none","none","none","none","none","none","none","none","none","none","none","none","none","none","none","none","none","none","none","none","none","none","none"],"secondary_activation":[null,null,null,null,null,null,null,null,null,null,null,null,null,null,null,null,null,null,null,null,null,null,null],"slimmable":null}],"head":null,"head_scale":0.026887708712452076},"weights":[-0.6896387338638306,-0.8775331377983093,-0.4872640073299408,0.14744463562965393,0.09239282459020615,0.06332148611545563,-0.0798044353723526,0.029198434203863144,0.07332398742437363,0.14756327867507935,0.0991557240486145,0.16898228228092194,-0.09006958454847336,-0.046820130199193954,0.1043197512626648,0.12103796750307083,0.15570825338363647,0.10517361760139465,0.05548489838838577,-0.07641001790761948,0.147959366440773,-0.11422612518072128,0.2717617154121399,-0.009929092600941658,-0.2668478190898895,0.32654911279678345,-0.04867670312523842,-0.04663397744297981,0.046115290373563766,0.02528705634176731,-0.22022898495197296,0.08532554656267166,-0.06358630955219269,-0.028397979214787483,0.11575616896152496,0.12158215045928955,-0.030808208510279655,0.2479935884475708,-0.1259767711162567,-0.010204010643064976,-0.21155215799808502,0.10727115720510483,0.41192424297332764,-0.4845047891139984,-0.1039089486002922,-0.0336141474545002,0.03463660553097725,0.022632014006376266,0.35873591899871826,-0.3031294345855713,-0.037802159786224365,-0.04922471567988396,-0.0659412145614624,0.2138652354478836,0.29163989424705505,-0.5146374106407166,-0.15753212571144104,-0.07778780162334442,0.01057516597211361,0.04444144293665886,0.04575660079717636,0.559319794178009,0.3396065831184387,0.05660557374358177,-0.012123323045670986,-0.007808906026184559,0.025520700961351395,0.016296271234750748,-0.10361653566360474,-0.2042209953069687,0.368427038192749,-0.5689091086387634,0.2352689802646637,-0.38152819871902466,-0.10557255893945694,-0.11711614578962326,-0.14302678406238556,0.14635346829891205,0.03338880464434624,0.10621633380651474,0.09150753915309906,0.056156620383262634,-0.04560651257634163,0.13617438077926636,0.0370296984910965,-0.02903004176914692,-0.07770562171936035,0.21687257289886475,0.08602298051118851,0.012653963640332222,-0.020193327218294144,-0.09836892783641815,-0.019971884787082672,-0.10610503703355789,0.14417782425880432,0.07417066395282745,-0.030322210863232613,0.282757967710495,-0.3482664227485657,0.16903217136859894,0.009325113147497177,0.04396665468811989,0.41303709149360657,0.04879056289792061,-0.1804715394973755,0.007371050305664539,0.25588059425354004,0.324062705039978,0.6200180649757385,0.12841933965682983,-0.84051513671875,-0.11527450382709503,0.05402184650301933,-0.12614718079566956,0.06819356977939606,0.3346500098705292,0.1819976568222046,-0.12311654537916183,0.09638495743274689,-0.15166638791561127,0.3444786071777344,0.22391924262046814,-0.21633240580558777,0.19288370013237,0.12824037671089172,0.16482050716876984,-0.15602809190750122,0.5623094439506531,-0.04921656474471092,0.16541197896003723,0.33144885301589966,0.14678539335727692,-0.008403314277529716,0.4723553955554962,0.9227880835533142,-0.2624341547489166,0.27407246828079224,-0.054200462996959686,0.14128869771957397,0.0694580227136612,0.04663305729627609,-0.4584684371948242,-0.6366605162620544,-0.596667468547821,0.4425259530544281,-0.16182410717010498,0.2146180123090744,0.07888094335794449,-0.00412060646340251,0.08160123974084854,0.07723674178123474,-0.4919479787349701,0.02000720053911209,-0.1361902505159378,0.08095099776983261,0.0887046754360199,0.08931094408035278,-0.09867490828037262,-0.052738092839717865,0.022938521578907967,-0.14068642258644104,-0.14633628726005554,-0.02616342529654503,-0.25300949811935425,0.7731384038925171,-0.07304134964942932,0.022800695151090622,0.024796171113848686,-0.15601706504821777,-0.02234591357409954,0.23495811223983765,-0.017521753907203674,0.11964573711156845,-0.04168964922428131,-0.1263439655303955,-0.2626146972179413,-0.14598406851291656,0.003266353392973542,-0.21798951923847198,-0.3219622075557709,-0.28637659549713135,-0.4676172733306885,0.08574201166629791,-0.047951895743608475,0.06870819628238678,-0.012781365774571896,-0.1011979803442955,-0.04992477968335152,-0.06404896825551987,0.02911977283656597,-0.05101442337036133,0.06292156130075455,-0.00794568844139576,0.09777922183275223,0.07152752578258514,0.016979875043034554,0.03289272263646126,0.01690637692809105,0.047636546194553375,0.28337132930755615,-1.0292385816574097,0.057712372392416,-0.1024477630853653,0.09588678181171417,-0.14955994486808777,-0.2691449820995331,-0.3608705997467041,-0.022411756217479706,-0.17921505868434906,-0.13567040860652924,-0.3632684648036957,0.08935930579900742,0.22880470752716064,-0.41732358932495117,0.18258127570152283,0.8929595351219177,0.26173901557922363,-0.11163239181041718,0.4256560504436493,-0.018845031037926674,-0.12807077169418335,-0.14482305943965912,-0.14068953692913055,-0.31590428948402405,-0.26021140813827515,-0.28222787380218506,-0.24745900928974152,0.028561903163790703,-0.20297516882419586,-0.20989449322223663,-0.014038951136171818,0.015545605681836605,0.1342802196741104,0.020253585651516914,0.05054544657468796,-0.02645234577357769,-0.24487876892089844,0.02704361081123352,0.004026888404041529,0.002858575666323304,-0.027882616966962814,-0.02550792694091797,-0.0436108373105526,0.05846768245100975,0.05597890540957451,0.043289151042699814,0.005597156006842852,0.021708574146032333,0.00536093395203352,-0.004160671960562468,0.01299445889890194,0.0036492112558335066,-0.03126818686723709,-0.01702575571835041,-0.011971437372267246,-0.17041784524917603,-0.04511729255318642,-0.24676299095153809,-0.18332017958164215,0.013772492296993732,0.36728736758232117,-0.2403799593448639,-0.46140846610069275,-0.3360591530799866,-0.23263898491859436,-0.3544238805770874,0.08077263832092285,0.08536534756422043,0.09742923080921173,0.20178140699863434,-0.007632247172296047,0.12729546427726746,0.07715236395597458,-0.03310255706310272,-0.03704270347952843,-0.03890812769532204,0.11161471903324127,-0.0022064121440052986,-0.5255782008171082,-0.09042210131883621,0.07195893675088882,-0.5618717074394226,-0.09126479923725128,-0.019085243344306946,-0.5039204955101013,0.10997072607278824,-0.021809222176671028,0.23523002862930298,-0.17356590926647186,-0.3204983174800873,0.46094581484794617,0.0945093110203743,0.033758994191884995,0.05112769454717636,0.09204766899347305,0.08718214929103851,0.03282143175601959,0.27077776193618774,0.2343693971633911,0.1749502271413803,0.18247239291667938,0.19358055293560028,0.05415523052215576,-0.05077487975358963,-0.05071466043591499,-0.04115036129951477,-0.07421090453863144,-0.045908425003290176,-0.058369655162096024,0.47342199087142944,0.5155314207077026,0.3020746409893036,0.2797853648662567,0.2871813476085663,0.28609806299209595,-0.07551570236682892,-0.038883890956640244,0.06922436505556107,-0.01847776770591736,-0.15102094411849976,-0.060840897262096405,0.062080975621938705,0.04835395887494087,0.019824543967843056,0.03985351696610451,0.06556494534015656,0.04593769833445549,-0.20241281390190125,-0.24094714224338531,0.2947681248188019,0.348580539226532,0.738747239112854,-0.3190420866012573,-0.2684542238712311,-0.12212099134922028,-0.04897776246070862,0.06851226091384888,0.17951811850070953,-0.1302335262298584,0.010138426907360554,-0.00304122525267303,0.06599858403205872,0.08513446152210236,0.09057281911373138,-0.09656847268342972,-0.04317160323262215,0.005200838204473257,0.3193965256214142,-0.027987102046608925,0.39092934131622314,0.4574264585971832,0.007097452413290739,-0.2919706106185913,0.5340878367424011,-0.35380128026008606,-0.27709826827049255,0.47291383147239685,-0.40630149841308594,-0.4184720516204834,-0.30420809984207153,-0.26710978150367737,0.037603311240673065,0.25811532139778137,-0.16155944764614105,-0.2173190861940384,-0.3006478548049927,-0.15712106227874756,0.09446153044700623,-0.518434464931488,0.009904670529067516,-0.174331396818161,-0.37007248401641846,-0.12694422900676727,0.13341124355793,-0.07803813368082047,-0.06817550957202911,-0.057742729783058167,-0.04512081667780876,0.023203596472740173,0.06973182410001755,0.2695232033729553,-0.09379661083221436,-0.29387402534484863,0.007818225771188736,0.34341928362846375,0.42327144742012024,0.3341870903968811,-0.22198855876922607,-0.08032890409231186,-0.12995022535324097,0.08814948797225952,0.07398740202188492,0.07996527850627899,-0.012507792562246323,-0.05598295107483864,-0.006190951447933912,0.07235459983348846,0.0674532800912857,-0.765940248966217,-0.12960731983184814,-0.2548864781856537,-0.13449445366859436,0.27683982253074646,0.4523572325706482,0.1866205930709839,-0.15124116837978363,-0.013935134746134281,0.05653408542275429,0.1387806236743927,0.09826820343732834,0.13537071645259857,-0.020776405930519104,-0.03639230877161026,-0.023812463507056236,0.04753457009792328,0.07444459944963455,-0.6713550686836243,0.00225459155626595,0.32412615418434143,0.2493188977241516,0.08005977421998978,1.609777569770813,1.3403764963150024,0.4490801692008972,-0.6463539600372314,0.7521640658378601,0.4179096519947052,-0.39961349964141846,0.5933973789215088,-0.26176437735557556,-0.8408746719360352,1.275110125541687,-0.4165525436401367,0.09100954234600067,-0.4148091673851013,0.22141839563846588,-0.10330043733119965,-0.31925541162490845,0.344319611787796,-0.5276458263397217,0.6409851312637329,-0.02785814367234707,-0.08114428073167801,0.14795301854610443,-0.17761912941932678,-0.02351203002035618,-0.03492797166109085,-0.08773612231016159,0.03450616076588631,0.08384569734334946,-0.13867691159248352,0.25417470932006836,0.5909630060195923,0.1386394202709198,-0.12419077008962631,-0.12777607142925262,0.01024651899933815,-0.24066773056983948,0.03021347150206566,0.01271280087530613,0.0535908117890358,-0.17593255639076233,-0.040964432060718536,0.07632958143949509,0.25469499826431274,-0.031252920627593994,0.017749082297086716,0.108543261885643,-0.034973762929439545,0.08987770974636078,-0.039636772125959396,0.05350129306316376,0.08678251504898071,-0.1322757601737976,-0.027333492413163185,-0.016406748443841934,0.1509186327457428,-0.027937522158026695,0.11804870516061783,-0.2143249660730362,0.03121943771839142,-0.11989547312259674,-0.08508818596601486,0.001879917224869132,-0.08032191544771194,0.13055618107318878,0.01627502031624317,0.028062358498573303,1.0550298690795898,0.08254995197057724,-0.046453654766082764,0.3365715742111206,-0.2996852397918701,-0.6329312920570374,-0.05689006671309471,0.28928112983703613,0.0797802209854126,0.48821303248405457,0.5213180780410767,-0.41656750440597534,0.7634005546569824,-0.20795084536075592,0.33235636353492737,0.5670918822288513,0.2666851580142975,-0.19514961540699005,0.020660778507590294,-0.30717718601226807,-0.12601330876350403,0.01669538952410221,0.13136199116706848,0.19393542408943176,-0.054952073842287064,-0.23750343918800354,-0.12470823526382446,-0.18938910961151123,-0.088616281747818,0.37300851941108704,0.16763514280319214,-0.2153022587299347,-0.32882556319236755,-0.1369476616382599,0.29098808765411377,0.6281300783157349,0.17417722940444946,-0.37813377380371094,-0.02561079151928425,-0.07244542986154556,0.10216506570577621,0.186677947640419,-0.05079686641693115,-0.17410635948181152,-0.18363003432750702,-0.05617794767022133,0.16533581912517548,0.24451029300689697,-0.1748948097229004,-0.2527804672718048,-0.3298615515232086,-0.10063069313764572,0.5161734223365784,0.550769567489624,0.11394792795181274,0.033499643206596375,0.09845668822526932,0.2974713444709778,0.3193334937095642,0.04756007343530655,0.3353082239627838,-0.2406209111213684,0.04778558388352394,-0.058391060680150986,-0.13571563363075256,-0.11378540843725204,-0.18802373111248016,0.12910550832748413,-0.13697242736816406,0.10573507100343704,0.24332767724990845,-0.1946173459291458,0.21676066517829895,0.18216846883296967,-0.18285465240478516,-0.021592406556010246,-0.08419981598854065,-0.48083794116973877,-1.0184197425842285,-0.10033827275037766,0.19433054327964783,-0.30133333802223206,1.3271294832229614,-0.8120291829109192,-0.22501718997955322,0.6456759572029114,-0.33646756410598755,-0.5275538563728333,-0.14513777196407318,-0.19231873750686646,0.1446738988161087,-0.10704763233661652,-0.2604692280292511,-0.0833943784236908,-0.061848234385252,0.09701757878065109,0.49697181582450867,0.28373101353645325,0.06775667518377304,0.016172869130969048,-0.023922020569443703,0.021983357146382332,0.4147927761077881,0.02959553524851799,0.010928917676210403,0.050592366605997086,0.0609014555811882,-0.02453548088669777,0.40402042865753174,0.3328174650669098,0.17691417038440704,0.29983505606651306,0.14166872203350067,-0.08746238797903061,0.21773724257946014,0.10356903821229935,0.14366231858730316,-0.14900799095630646,-0.08209022134542465,-0.07626482099294662,-0.3204139471054077,-0.2688314616680145,-0.014092277735471725,0.29882481694221497,0.4079081118106842,-0.257528692483902,0.0770396962761879,-0.2011364847421646,0.03553234040737152,-0.13081510365009308,-0.23862682282924652,-0.06146611273288727,0.21271145343780518,-0.23678040504455566,-0.035402800887823105,0.13817517459392548,0.04481323063373566,0.01422879844903946,0.4731372892856598,0.08472872525453568,0.005797550547868013,-0.16224776208400726,0.05475743114948273,-0.10427369177341461,0.6665862202644348,0.3336811065673828,0.08270292729139328,0.0067502958700060844,0.11408660560846329,0.06416328251361847,-0.38162609934806824,-0.184807687997818,-0.013241690583527088,0.15827618539333344,-0.23826424777507782,-0.6331207752227783,-0.2527272403240204,-0.5968850255012512,-0.490235298871994,-0.7754883170127869,0.033720120787620544,0.31141752004623413,0.0716661661863327,0.030736226588487625,0.09426552802324295,0.2599160373210907,-0.2503742277622223,-0.11847150325775146,-0.6442061066627502,0.008496331982314587,-0.013325776904821396,-0.04498125985264778,0.29056674242019653,0.18045544624328613,-0.09202072769403458,-0.017239119857549667,0.018377114087343216,0.10138484090566635,-0.3110118508338928,-0.2050093412399292,-0.47827503085136414,0.07594625651836395,0.09215009957551956,-0.04872972518205643,0.1543736755847931,0.10241162776947021,-0.15995250642299652,-0.028445923700928688,-0.010530225932598114,0.05068880692124367,0.34939706325531006,-0.34550741314888,0.18489177525043488,-0.05715332552790642,-0.07610807567834854,0.02029404044151306,0.046817414462566376,0.06347966939210892,0.12277725338935852,-0.21791750192642212,-0.36748915910720825,-0.23353815078735352,0.560773491859436,-0.21964587271213531,0.2755106985569,0.06571613252162933,0.04481517896056175,0.02427300065755844,0.1564617156982422,-0.08211400359869003,0.48028630018234253,-0.07427425682544708,-0.05611877888441086,-0.11496596783399582,-0.4020196199417114,-0.1884089857339859,-0.13984236121177673,-0.1141161248087883,-0.22498752176761627,0.25738418102264404,0.5599033832550049,-0.11324271559715271,0.511006236076355,-0.028710132464766502,0.12661859393119812,-0.3611643314361572,0.29379570484161377,0.41326704621315,-0.5315093994140625,0.9084540605545044,0.35213080048561096,0.31014683842658997,0.01839122362434864,0.15014095604419708,0.47491389513015747,0.1688036322593689,-0.297224223613739,-0.1613852083683014,0.13035084307193756,-0.1625554859638214,0.2364698350429535,-0.17808541655540466,-0.20156645774841309,0.040559522807598114,-0.15798529982566833,-0.03564916178584099,-0.1155196875333786,-0.07941876351833344,-0.2587958872318268,-0.05928269028663635,-0.019149115309119225,0.027981191873550415,0.12408213317394257,0.047237686812877655,-0.027799272909760475,-0.0027478360570967197,-0.10340675711631775,0.3391572833061218,0.3918112814426422,-0.037720970809459686,-0.037529416382312775,-0.027274183928966522,0.14723144471645355,0.261324018239975,-0.17435292899608612,0.01782207563519478,0.051103465259075165,0.08426591008901596,0.05991640314459801,-0.12342119961977005,-0.23056556284427643,-0.17793262004852295,0.19298239052295685,0.011967298574745655,0.17900581657886505,-0.12044385075569153,-0.5974742770195007,0.017204253003001213,0.03110557422041893,-0.2562722861766815,-0.1288444697856903,-0.18392440676689148,-0.15143835544586182,-0.035081468522548676,0.1692051887512207,-0.27045202255249023,-0.15170426666736603,-0.1332114189863205,0.9467957615852356,0.10991616547107697,-0.053222160786390305,0.08470409363508224,-0.22628362476825714,0.2041866034269333,-0.4445009231567383,-0.742391049861908,0.03053668886423111,0.5863937139511108,0.2482035756111145,0.3592855930328369,0.4563916027545929,-0.10537487268447876,0.45222142338752747,-0.6764836311340332,0.15533597767353058,0.5166833400726318,-0.6139776110649109,-0.15980303287506104,-0.34933483600616455,-0.04409102723002434,-0.44760820269584656,-0.12593768537044525,0.09063492715358734,-0.009833279065787792,-0.0001294396206503734,0.011910101398825645,-0.13992010056972504,-0.030051566660404205,0.0009660095674917102,-0.18337437510490417,-0.06954734772443771,-0.1402844786643982,0.16984312236309052,0.08119736611843109,-0.47167450189590454,0.0250388290733099,0.1113569512963295,0.10554098337888718,0.1463889181613922,0.09687810391187668,-0.050864700227975845,-0.021295353770256042,-0.03837917372584343,-0.04971437528729439,-0.0877518355846405,-0.07388933002948761,-0.7284471392631531,0.07398097962141037,0.1507991999387741,0.18709200620651245,0.18937905132770538,0.13182835280895233,-0.3623886704444885,0.07010402530431747,-0.22003528475761414,-0.12822158634662628,-0.21248269081115723,-0.16206085681915283,-0.09597674012184143,-0.0017072815680876374,0.02096334472298622,0.0481807142496109,0.14171311259269714,0.20962341129779816,-0.15881897509098053,-0.06649487465620041,-0.2514200210571289,-0.2515833377838135,-0.16906000673770905,-0.14963236451148987,-0.07631811499595642,0.1813611388206482,0.3139904737472534,0.14709901809692383,0.05915766954421997,-0.17967690527439117,-0.43539857864379883,-0.5939759612083435,0.1300613135099411,0.04197759926319122,-0.2364015430212021,0.40825125575065613,0.31926771998405457,0.6182035207748413,0.5427061915397644,0.4726286232471466,-0.46080341935157776,0.457541823387146,-0.42984095215797424,-0.037366025149822235,-0.09855177253484726,-0.28551557660102844,0.22789180278778076,0.10435869544744492,0.24771440029144287,0.13305999338626862,0.3215638995170593,0.08929885923862457,0.13087686896324158,-0.26362067461013794,0.3030587136745453,0.04045062139630318,0.03828927502036095,0.36816608905792236,0.12027597427368164,-0.6600748896598816,0.39309054613113403,-0.09196879714727402,0.024808166548609734,-0.1094384714961052,-0.07899285852909088,0.07628945261240005,-0.006271554157137871,0.017215879634022713,0.04249835014343262,0.062104567885398865,-0.0010026401141658425,0.05887651443481445,-0.379398375749588,0.02604602463543415,-0.005290969740599394,0.04353000596165657,0.1394333392381668,-0.010665836744010448,-0.38187187910079956,0.028316376730799675,0.07364533841609955,0.02996666729450226,-0.02407524362206459,-0.029125019907951355,0.03977511450648308,-0.024440692737698555,-0.016325531527400017,-0.01866685412824154,0.006231235805898905,0.004676145501434803,0.39413225650787354,0.06282215565443039,0.06595997512340546,0.04724694788455963,-0.0006593550788238645,-0.09502194076776505,0.20500919222831726,0.21021045744419098,0.3175909221172333,-0.25916948914527893,0.17636442184448242,-0.11451230198144913,0.3071848452091217,-0.30218279361724854,-0.1421726644039154,-0.03930674493312836,0.20291492342948914,-0.5504005551338196,-0.695010781288147,-0.6080925464630127,-0.06179730221629143,-0.37822425365448,-0.21584685146808624,-0.4366726875305176,0.18242311477661133,0.009223099797964096,-0.06489642709493637,0.07665155082941055,0.06411860883235931,-0.10536035150289536,0.3253237307071686,0.014771129935979843,-0.001208833302371204,-0.031901031732559204,-0.02444004826247692,0.023746885359287262,-0.5386006236076355,-0.008938111364841461,0.031181100755929947,-0.031145913526415825,-0.17071981728076935,0.011416924186050892,0.12660910189151764,0.00022702189744450152,0.007317990995943546,0.006121573969721794,0.07334189116954803,-0.05123314633965492,-0.05430152639746666,0.012281850911676884,-0.0064894529059529305,-0.010667992755770683,-0.012491514906287193,0.02455972321331501,-0.7118934392929077,0.00660287169739604,-0.026157720014452934,-0.06664030998945236,-0.08014406263828278,0.001953850733116269,-0.2561461925506592,0.010457372292876244,-0.030314212664961815,-0.19747929275035858,-0.15415062010288239,-0.10502036660909653,-0.07714222371578217,0.020505299791693687,-0.0010361949680373073,-0.104484423995018,-0.057982008904218674,-0.11461008340120316,-0.14720302820205688,0.11269239336252213,-0.13418203592300415,-0.08746767789125443,-0.038411885499954224,-0.38440296053886414,-0.19275540113449097,0.1738767921924591,0.35446271300315857,-0.09718615561723709,-0.20331814885139465,-0.4050537645816803,-0.5078242421150208,0.018447481095790863,-0.3088930547237396,0.09074492752552032,0.42823168635368347,-0.6671271920204163,0.11333940178155899,-0.21811601519584656,-0.08433432132005692,0.25813028216362,-0.2003970444202423,0.03588428348302841,-0.5005121827125549,-0.10339521616697311,-0.06286254525184631,-0.08576402068138123,-0.006035258062183857,-0.1650318056344986,-0.1648290753364563,-0.0282592810690403,-0.1690274178981781,0.07139560580253601,0.042527858167886734,0.05935433879494667,0.05717262625694275,-0.04940636456012726,0.035102348774671555,0.17818383872509003,0.3156944513320923,0.1745605170726776,0.1750992387533188,-0.17853938043117523,-0.12640820443630219,-0.18633541464805603,-0.3426141142845154,-0.09009715169668198,0.077164426445961,-0.05684792995452881,0.2505844533443451,0.21455298364162445,0.05363796278834343,0.13365282118320465,0.06256518512964249,-0.2557201683521271,-0.21108795702457428,-0.22049617767333984,-0.2314949333667755,-0.11968658864498138,-0.15225434303283691,-0.29306671023368835,-0.289574533700943,-0.18713167309761047,-0.2469373196363449,-0.21257196366786957,-0.0913308709859848,-0.11733688414096832,0.04013270139694214,0.15391190350055695,-0.2641260325908661,-0.17364555597305298,-0.06526125222444534,-0.09050191938877106,-0.06325297802686691,-0.10048532485961914,-0.05563945695757866,0.13617946207523346,-0.03939797729253769,-0.03904043883085251,0.12428930401802063,0.012528265826404095,0.0320679135620594,-0.10340701043605804,-0.08932864665985107,0.10057108104228973,0.0977863222360611,0.1293303370475769,-0.02887415699660778,-0.09095780551433563,-0.12319642305374146,-0.10435336828231812,0.11116303503513336,0.2384192794561386,0.3472987711429596,0.28800076246261597,0.19867302477359772,0.3742865025997162,0.350930392742157,0.21175263822078705,-0.014394594356417656,0.0603104829788208,-0.13687613606452942,-0.0706079825758934,0.015278901904821396,-0.04431748762726784,-0.010130210779607296,0.18287844955921173,0.14567163586616516,0.108323834836483,-0.0014950251206755638,0.0995694026350975,-0.07701952755451202,-0.08994212001562119,0.23258382081985474,0.05185238644480705,0.07442159950733185,0.04727495089173317,0.05888873711228371,0.054821714758872986,-0.12462124973535538,0.10284941643476486,-0.08730942755937576,-0.017263079062104225,-0.005985621828585863,-0.13062022626399994,-0.2647404074668884,-0.05574127659201622,-0.17869655787944794,-0.37285116314888,0.011760354973375797,-0.12190375477075577,-0.17788764834403992,-0.03118094988167286,-0.10096282511949539,-0.15454737842082977,0.03825949504971504,0.3876866102218628,0.31499525904655457,0.07521432638168335,0.03468247875571251,-0.3899814486503601,-0.5635533332824707,-0.37338197231292725,-0.2235558182001114,-0.11928791552782059,-0.12254870682954788,-0.3353642523288727,-0.17695342004299164,-0.0751505047082901,-0.25967609882354736,-0.15092431008815765,0.012270699255168438,-0.06942624598741531,-0.04189682751893997,-0.11075244843959808,-0.014656369574368,-0.12141786515712738,-0.33047011494636536,-0.642105758190155,-0.046361662447452545,0.27481910586357117,0.12597942352294922,-0.18500135838985443,0.2583177387714386,-0.357542484998703,-0.6217702031135559,0.18607273697853088,-0.2841019928455353,0.34548428654670715,-0.17053601145744324,-0.4644010066986084,0.02358168177306652,-0.850695788860321,0.5317765474319458,-0.06260742992162704,0.12443742156028748,-0.030362488701939583,-0.20687180757522583,0.026709726080298424,-0.16542577743530273,0.05310266837477684,0.014021332375705242,0.05660196766257286,0.04879992455244064,-0.15018248558044434,0.09967978298664093,0.03909950330853462,0.016795923933386803,0.0931304395198822,0.15621627867221832,0.02780519612133503,-0.12781262397766113,0.027448950335383415,-0.06476647406816483,-0.19667638838291168,0.18097048997879028,0.28868409991264343,0.024795614182949066,-0.11299987882375717,-0.1997506469488144,-0.08117800205945969,0.28129860758781433,-0.03994879499077797,-0.11087514460086823,-0.036229994148015976,0.17215903103351593,-0.5697795152664185,0.12271234393119812,-0.0575212799012661,-0.12232386320829391,0.08171023428440094,0.13840997219085693,-0.0590328723192215,-0.07503730058670044,-0.3115043640136719,-0.11376746743917465,0.053872250020504,-0.06221149489283562,0.03892803192138672,-0.04017072916030884,0.05744149535894394,-0.19448232650756836,-0.06252303719520569,-0.14783884584903717,-0.2511492669582367,-0.173895463347435,-0.27754873037338257,-0.33414986729621887,-0.20793193578720093,0.17465098202228546,0.02519524097442627,0.05496088042855263,-0.09309182316064835,0.3585565984249115,0.006755164358764887,0.06072108820080757,0.010212665423750877,-0.06344252824783325,0.004538011271506548,0.01756671443581581,0.1814887374639511,0.0986592024564743,0.14998643100261688,0.07529286295175552,-0.2495727390050888,-0.03284664824604988,0.6654976606369019,0.2595369517803192,0.29218772053718567,-0.22376041114330292,0.16884049773216248,-0.11732649058103561,-0.0915980413556099,-0.013125426135957241,-0.11887847632169724,-0.008996858261525631,0.09806609898805618,0.11548124253749847,0.004433358088135719,-0.20392678678035736,-0.12122059613466263,0.013847732916474342,0.32645896077156067,0.21983341872692108,-0.15271492302417755,0.329929381608963,0.21675415337085724,-0.3814757168292999,-0.23081617057323456,-0.14848466217517853,-0.15292426943778992,-0.1901833564043045,-0.05858202278614044,-0.08220192044973373,0.12591874599456787,0.14595822989940643,0.06365405768156052,0.058965910226106644,0.07096226513385773,0.07256479561328888,0.10731352120637894,-0.050925787538290024,0.09437403827905655,-0.015144608914852142,-0.09859061241149902,0.12809164822101593,-0.11055875569581985,0.026009900495409966,0.08535626530647278,0.07732795923948288,0.17244121432304382,0.05118098855018616,0.09161105006933212,-0.09081130474805832,-0.024964947253465652,-0.015177147462964058,-0.621143639087677,0.17058447003364563,-0.10281860083341599,-0.1887432485818863,-0.06685388088226318,-0.0821649432182312,0.096651092171669,0.014735229313373566,-0.3180791735649109,-0.017999889329075813,-0.09948650002479553,0.03426346555352211,-0.14404331147670746,-0.10675175487995148,-0.11078456044197083,-0.18431220948696136,0.18287160992622375,-0.06935049593448639,0.11042071878910065,-0.20576104521751404,-0.40782278776168823,0.33335593342781067,-0.3796693980693817,0.1310451775789261,0.12433832138776779,0.11671005934476852,-0.28163328766822815,0.4400714635848999,0.4041765332221985,0.07762587070465088,0.5872558951377869,-0.2112419158220291,0.08417586982250214,0.051530417054891586,-0.11824523657560349,-0.0864049568772316,-0.042314570397138596,-0.005232945550233126,-0.04576969891786575,-0.023111803457140923,-0.19706672430038452,-0.2167939990758896,0.10019697993993759,-0.05835287272930145,0.19568400084972382,0.0315728597342968,0.07931126654148102,0.11129310727119446,-0.29509416222572327,-0.047463178634643555,-0.04929732903838158,-0.011807556264102459,0.1798555850982666,-0.20206408202648163,0.1955282986164093,-0.12683546543121338,-0.06159600242972374,0.008753166534006596,0.01064305193722248,-0.022007111459970474,0.14682236313819885,-0.09181831777095795,-0.14524058997631073,-0.10990320146083832,-0.03129204362630844,-0.049313951283693314,-0.06630676239728928,0.14395424723625183,0.06775206327438354,0.07972788065671921,-0.005439356435090303,0.054750122129917145,-0.04370811581611633,0.06223471835255623,-0.025472505018115044,0.08355221897363663,-0.01765885204076767,-0.03472881019115448,-0.012258466333150864,0.0024634026922285557,0.01799367181956768,-0.044934891164302826,-0.0003830463392660022,0.04279450327157974,-0.042415421456098557,-0.04854258522391319,-0.0251325611025095,0.0036081806756556034,0.155604749917984,0.1559550017118454,0.0009197003091685474,0.31211578845977783,-0.5241988897323608,-0.0010598560329526663,-0.058077916502952576,0.1295810490846634,0.03252219408750534,0.3765391707420349,-0.5965667366981506,-0.013136022724211216,-0.48779261112213135,0.34004998207092285,0.08984948694705963,0.1381576806306839,0.48549750447273254,0.44159558415412903,-0.08359535783529282,-0.18270109593868256,-0.10800322145223618,-0.11254113912582397,-0.05806761234998703,0.2191266119480133,-0.17743735015392303,-0.19906865060329437,0.007209747098386288,-0.16068889200687408,0.0047470638528466225,0.15197113156318665,-0.13611340522766113,-0.14380097389221191,0.04878393933176994,0.06382109224796295,-0.15231521427631378,0.01598861813545227,0.21229921281337738,0.0769406110048294,0.44496649503707886,0.26731106638908386,0.3397101163864136,0.08805784583091736,0.030010133981704712,0.08010632544755936,-0.031194113194942474,-0.3167565166950226,-0.0003765005385503173,0.212459996342659,0.09985041618347168,-0.048847049474716187,0.16614492237567902,0.3364822566509247,0.2050764560699463,0.3686523139476776,-0.24271418154239655,-0.1508573293685913,0.04918604716658592,-0.2776290476322174,-0.046116653829813004,-0.10230355709791183,0.07299647480249405,-0.0917336568236351,-0.01959044300019741,-0.21525727212429047,-0.06840263307094574,-0.09839335083961487,-0.25885337591171265,0.010448875837028027,0.08525576442480087,0.023002397269010544,-0.21807698905467987,0.0987720862030983,0.2674976587295532,-0.3830903470516205,-0.17690610885620117,-0.09380187839269638,-0.0025753392837941647,-0.03130018338561058,-0.1731446385383606,0.04609528183937073,0.08338318020105362,-0.13967104256153107,-0.05942489579319954,0.005432646255940199,-0.016122866421937943,-0.01837720349431038,-0.3706910312175751,0.025329964235424995,0.1496337503194809,-0.05743551626801491,0.01891074702143669,-0.29153406620025635,-0.2590318024158478,-0.04620229825377464,-0.28368446230888367,-0.03282113000750542,-0.24882686138153076,-0.20171141624450684,-0.12586860358715057,-0.1168256402015686,-0.10711831599473953,0.6809716820716858,-0.003227667883038521,-0.26503950357437134,-0.13911448419094086,-0.09629353880882263,0.08702486008405685,-0.2446160763502121,-0.23705466091632843,0.0014143213629722595,0.1714312881231308,0.019754942506551743,0.03144063428044319,-0.061165276914834976,0.22512607276439667,0.2643251121044159,0.08206993341445923,0.2302556037902832,0.1081995740532875,-0.05185496807098389,0.021928563714027405,0.003916699904948473,-0.06968480348587036,-0.02438780851662159,0.1358606070280075,0.02111992798745632,0.02024710178375244,-0.22453652322292328,0.04997886344790459,-0.014822171069681644,0.16719163954257965,-0.004133618902415037,-0.6410799622535706,-0.42367124557495117,-0.1467646360397339,-0.5084357857704163,-0.469467431306839,0.7713897824287415,-0.17952974140644073,-0.3773994445800781,-0.2390592098236084,-0.307420015335083,-0.14706389605998993,-1.161056637763977,0.2691813111305237,-0.09683075547218323,-0.3387458920478821,-0.1456695795059204,-0.43237775564193726,0.10761461406946182,-0.07595357298851013,0.02134915255010128,-0.011836218647658825,0.23691973090171814,0.6494242548942566,-0.055388666689395905,-0.6876630783081055,0.4222349226474762,0.07184212654829025,0.17054802179336548,0.5441878437995911,0.05396676063537598,0.05180760473012924,-0.21505498886108398,-0.2671888470649719,0.16592787206172943,-0.195175901055336,-0.44455695152282715,-0.14546115696430206,0.016164295375347137,0.053018003702163696,-0.1611166000366211,0.016834747046232224,0.4582395851612091,-0.10237415134906769,-0.019050877541303635,0.10006332397460938,0.05615145340561867,-0.20120884478092194,-0.6340519189834595,-0.2287144660949707,-0.07006502151489258,-0.13087894022464752,0.03741065040230751,0.1492653340101242,0.049269337207078934,0.17426921427249908,0.08450326323509216,0.20981360971927643,0.03624356910586357,-0.2145172655582428,-0.000008339883606822696,0.08533366769552231,0.09799525141716003,0.08467251807451248,-0.06895823031663895,0.14197157323360443,-0.11576154083013535,-0.10705423355102539,-0.2504236400127411,-0.1768481284379959,-0.32582154870033264,-0.047213759273290634,-0.1661621779203415,0.40410950779914856,0.005823336075991392,0.14962883293628693,0.45912715792655945,0.14096121490001678,0.04604930430650711,0.21964287757873535,-0.07567420601844788,0.0616254098713398,0.04757390916347504,0.31068044900894165,0.16859902441501617,0.0944528728723526,-0.05161405727267265,0.23404152691364288,0.1542559117078781,-0.26094120740890503,-0.39771753549575806,0.42778125405311584,-0.04615357890725136,-0.5805472135543823,-0.20596358180046082,0.10271817445755005,-0.03690380975604057,-0.5300484299659729,0.16474014520645142,0.3412555754184723,-0.6629063487052917,-0.2605593204498291,-0.5117293000221252,-0.10009755939245224,-0.260755330324173,-0.13342632353305817,-0.20552802085876465,-0.23744072020053864,0.10809621214866638,0.28230684995651245,0.029433181509375572,0.18105052411556244,-0.20741894841194153,0.11119857430458069,0.3365512490272522,0.028066301718354225,-0.04050719365477562,-0.017723863944411278,-0.07206593453884125,-0.1485937535762787,-0.9352700710296631,-0.11018803715705872,-0.13152636587619781,0.09305883198976517,-0.26926741003990173,-0.03724430501461029,0.18246440589427948,0.41665348410606384,-0.007768559735268354,-0.054212357848882675,-0.3719015121459961,-0.0413576178252697,0.13132508099079132,0.01916375569999218,-0.025441210716962814,0.1144307553768158,-0.17333954572677612,0.06263132393360138,-0.16600066423416138,0.04250225052237511,0.07798448204994202,0.06930182129144669,0.13981874287128448,0.1486728936433792,-0.2520916759967804,0.005365678109228611,0.03696391358971596,-0.05699748918414116,-0.08428481221199036,-0.02835647016763687,0.49597373604774475,0.005822926759719849,0.046854473650455475,0.0055770426988601685,0.023639589548110962,0.10737773776054382,-0.03659464418888092,-0.027117669582366943,-0.1536765694618225,0.03732512518763542,0.24095934629440308,-0.34115520119667053,0.083464615046978,-0.10065042227506638,0.36869892477989197,0.23903319239616394,0.47828832268714905,0.0879887118935585,-0.09758701920509338,-0.1961776465177536,-0.12611056864261627,-0.13053680956363678,-0.5109582543373108,-0.2868335545063019,-0.261383593082428,0.1658087968826294,0.11040148138999939,0.11694744974374771,0.099416084587574,0.034451551735401154,0.11869125813245773,-0.09997078776359558,-0.05408277362585068,-0.02954600192606449,-0.01890444941818714,-0.08160120993852615,-0.010587984696030617,0.007908985018730164,-0.11576124280691147,0.11574221402406693,0.15384089946746826,-0.10959845781326294,0.03841371461749077,0.15328294038772583,0.14811362326145172,0.1988341510295868,0.22726495563983917,0.08248456567525864,0.22808973491191864,-0.08137036114931107,-0.03634485974907875,-0.04296543076634407,0.025161677971482277,-0.1269979625940323,0.3724096119403839,0.0008045210270211101,0.023782141506671906,0.029466597363352776,0.08838333934545517,-0.07927117496728897,-0.7500103116035461,0.054525259882211685,0.08890015631914139,0.02700146846473217,0.14165762066841125,0.04419287294149399,0.2542126774787903,0.03853635489940643,-0.005779586266726255,0.08256018161773682,0.04161699488759041,-0.004583560395985842,0.11948354542255402,0.037414997816085815,0.02215185947716236,0.05903148278594017,0.08024004846811295,0.012239895761013031,-0.5741233229637146,-0.004701812285929918,-0.2910554111003876,-0.43403393030166626,0.0009330922039225698,-0.04271550104022026,0.27069562673568726,-0.06297056376934052,-0.27606913447380066,-0.13143743574619293,-0.02215959131717682,-0.5999321341514587,-0.32064273953437805,0.015445041470229626,1.0943124294281006,0.8983957767486572,-0.07500497251749039,0.4074452519416809,0.10421889275312424,-0.04558215290307999,-0.044049691408872604,-0.15164971351623535,-0.10410700738430023,-0.21422579884529114,0.2837789058685303,0.0000024837183900672244,0.01594853587448597,0.025466017425060272,-0.007690474856644869,0.2286296933889389,0.2976853549480438,-0.008953073993325233,-0.003390457248315215,-0.03169670328497887,-0.022157177329063416,0.07685030996799469,-0.8443776369094849,-0.014948838390409946,0.0162030179053545,-0.06666941195726395,0.02583840675652027,-0.2625964283943176,-0.014115085825324059,-0.010799330659210682,-0.018704328685998917,-0.0012374428333714604,-0.06506391614675522,0.19586500525474548,-0.11966792494058609,-0.0064241522923111916,0.0014019344234839082,0.017579978331923485,-0.011077195405960083,0.06077882647514343,-0.4093693196773529,0.07758414000272751,0.06805010885000229,0.1141897439956665,0.02607026882469654,-0.03233227878808975,0.058675091713666916,-0.030044013634324074,0.061521660536527634,-0.012065495364367962,0.0320705771446228,0.02445315197110176,-0.16856452822685242,-0.0718555599451065,0.010049436241388321,-0.0038062927778810263,0.08244645595550537,-0.11349053680896759,-0.030685516074299812,0.26058441400527954,0.18809020519256592,0.010298114269971848,0.00012415040691848844,-0.1979617476463318,-0.0007338887662626803,0.4162098467350006,-0.00858832336962223,0.5327888131141663,0.11612158268690109,0.18631941080093384,-0.07476914674043655,-0.32249006628990173,-0.3899204134941101,-0.36959829926490784,-0.3457287847995758,0.4948616325855255,-0.35605674982070923,0.004001974128186703,0.007387534249573946,0.004779009614139795,0.00034061609767377377,-0.011175423860549927,-0.04237866774201393,-0.09863030165433884,-0.1746644377708435,-0.24430212378501892,-0.23794901371002197,-0.12571296095848083,-0.01799660548567772,0.012511265464127064,0.008690244518220425,0.005294178146868944,0.0024814363569021225,-0.017000533640384674,-0.04151752591133118,-0.07783496379852295,-0.10196585953235626,-0.09779826551675797,-0.07254438102245331,-0.05809640884399414,-0.007021951489150524,0.021917790174484253,-0.004870344884693623,0.015802359208464622,-0.016095295548439026,-0.06863825768232346,-0.07543304562568665,-0.05843280628323555,-0.020623642951250076,0.0075883627869188786,0.023454664275050163,0.03422243148088455,0.049268681555986404,0.07440879940986633,0.10927985608577728,0.14119678735733032,0.20614933967590332,0.23534834384918213,0.19603434205055237,0.17308449745178223,0.11616053432226181,0.05440956726670265,0.03260567784309387,0.01804899238049984,0.007927564904093742,0.008672491647303104,0.02688770811146495],"sample_rate":48000}},{"max_value":1,"model":{"version":"0.7.0","metadata":{"date":{"year":2026,"month":6,"day":15,"hour":7,"minute":4,"second":41},"loudness":-8.679798132141206,"gain":0.6692122946237724},"architecture":"WaveNet","config":{"layers":[{"input_size":1,"condition_size":1,"head":{"out_channels":1,"kernel_size":16,"bias":true},"channels":8,"kernel_sizes":[6,6,6,6,6,6,6,6,6,6,6,6,6,6,15,15,6,6,6,6,6,6,6],"dilations":[1,3,7,17,41,101,239,1,3,7,17,41,101,239,1,13,1,3,7,17,41,101,239],"activation":[{"type":"LeakyReLU","negative_slope":0.01},{"type":"LeakyReLU","negative_slope":0.01},{"type":"LeakyReLU","negative_slope":0.01},{"type":"LeakyReLU","negative_slope":0.01},{"type":"LeakyReLU","negative_slope":0.01},{"type":"LeakyReLU","negative_slope":0.01},{"type":"LeakyReLU","negative_slope":0.01},{"type":"LeakyReLU","negative_slope":0.01},{"type":"LeakyReLU","negative_slope":0.01},{"type":"LeakyReLU","negative_slope":0.01},{"type":"LeakyReLU","negative_slope":0.01},{"type":"LeakyReLU","negative_slope":0.01},{"type":"LeakyReLU","negative_slope":0.01},{"type":"LeakyReLU","negative_slope":0.01},{"type":"LeakyReLU","negative_slope":0.01},{"type":"LeakyReLU","negative_slope":0.01},{"type":"LeakyReLU","negative_slope":0.01},{"type":"LeakyReLU","negative_slope":0.01},{"type":"LeakyReLU","negative_slope":0.01},{"type":"LeakyReLU","negative_slope":0.01},{"type":"LeakyReLU","negative_slope":0.01},{"type":"LeakyReLU","negative_slope":0.01},{"type":"LeakyReLU","negative_slope":0.01}],"bottleneck":8,"head1x1":{"active":false,"out_channels":1,"groups":1},"layer1x1":{"active":true,"groups":1},"groups_input":1,"groups_input_mixin":1,"conv_pre_film":{"active":false,"shift":true,"groups":1},"conv_post_film":{"active":false,"shift":true,"groups":1},"input_mixin_pre_film":{"active":false,"shift":true,"groups":1},"input_mixin_post_film":{"active":false,"shift":true,"groups":1},"activation_pre_film":{"active":false,"shift":true,"groups":1},"activation_post_film":{"active":false,"shift":true,"groups":1},"layer1x1_post_film":{"active":false,"shift":true,"groups":1},"head1x1_post_film":{"active":false,"shift":true,"groups":1},"gating_mode":["none","none","none","none","none","none","none","none","none","none","none","none","none","none","none","none","none","none","none","none","none","none","none"],"secondary_activation":[null,null,null,null,null,null,null,null,null,null,null,null,null,null,null,null,null,null,null,null,null,null,null],"slimmable":null}],"head":null,"head_scale":0.026887708712452076},"weights":[-0.11942291259765625,-0.0748029500246048,0.17510586977005005,0.607408344745636,-0.5771999955177307,-0.5106217265129089,0.39503300189971924,0.8470960855484009,0.00892265047878027,0.0023585394956171513,0.005102300085127354,0.0020262831822037697,0.026813508942723274,0.015567164868116379,0.008714641444385052,0.006325002294033766,0.006574827712029219,0.004105784464627504,0.01860746741294861,0.013066434301435947,-0.008864577859640121,0.0022654628846794367,-0.0024285956751555204,0.0006051499512977898,-0.034384891390800476,-0.018300363793969154,-0.023475438356399536,0.04097870737314224,0.028894176706671715,0.01129632443189621,-0.10547273606061935,-0.06153102591633797,0.004505095537751913,-0.01959373988211155,-0.02190084382891655,-0.010289776138961315,0.09840462356805801,0.055410757660865784,0.014690945856273174,-0.016930777579545975,-0.017316972836852074,-0.011736931279301643,0.08273984491825104,0.05611907318234444,-0.0118534741923213,0.015685202553868294,0.013875373639166355,0.006313052028417587,-0.0656503215432167,-0.039521027356386185,0.015391417779028416,0.015449144877493382,0.054606348276138306,0.050746988505125046,-0.12082818150520325,-0.08940187841653824,0.005109066143631935,0.021318741142749786,0.028818972408771515,-0.05763165280222893,-0.020366724580526352,0.019943350926041603,-0.004068315494805574,0.015118210576474667,0.02312212623655796,-0.017514774575829506,-0.009047090075910091,0.018321596086025238,0.011271612718701363,-0.028417853638529778,-0.056353919208049774,0.06322173774242401,0.0066873785108327866,-0.04522806033492088,-0.06605225801467896,-0.03404057025909424,-0.021025782451033592,0.2080272138118744,0.06470798701047897,-0.08072389662265778,0.02125292457640171,0.1522679179906845,0.02638794109225273,-0.10182801634073257,-0.008578652516007423,0.07345172762870789,-0.012845244258642197,0.11086593568325043,0.008906610310077667,-0.15921594202518463,-0.00947654154151678,0.0417252779006958,0.031224600970745087,-0.03152307868003845,-0.015274749137461185,0.16687878966331482,0.05799415707588196,-0.02982448972761631,-0.08662475645542145,-0.14079156517982483,-0.07514592260122299,0.14351752400398254,0.06795015931129456,0.0006877665291540325,-0.02921598218381405,-0.005966177210211754,0.01344012189656496,-0.042212873697280884,0.03428314998745918,0.02794453874230385,-0.016329951584339142,-0.0047624241560697556,0.003734030295163393,-0.023164376616477966,0.012707628309726715,0.011281139217317104,0.04455723986029625,-0.0030787824653089046,-0.005397477652877569,0.04874961078166962,-0.05111316218972206,-0.044522225856781006,0.1503387987613678,-0.02551165036857128,-0.04053743928670883,0.1889687329530716,-0.11912906169891357,-0.09896133840084076,-0.05611991509795189,-0.07237241417169571,0.029248544946312904,-0.18793921172618866,0.16438329219818115,0.08809348195791245,-0.10140868276357651,-0.018526921048760414,-0.023522643372416496,-0.14188434183597565,0.10406890511512756,0.07482581585645676,0.09052588045597076,0.014517874456942081,-0.011633624322712421,0.11156515032052994,-0.13424375653266907,-0.10704943537712097,0.1455024629831314,0.06506520509719849,0.02415136992931366,0.1294255405664444,-0.17167261242866516,-0.15155871212482452,-0.00040997634641826153,0.00017377464973833412,0.0005238556186668575,0.0003131782286800444,0.00016313890228047967,-0.00017986298189498484,-0.0003032238455489278,-0.00011586657637963071,-0.000010728112101787701,-0.000070684400270693,-0.00009535823483020067,-0.0001795068965293467,0.0006708297878503799,-0.00038155869697220623,-0.0010512248845770955,-0.000672163674607873,-0.0003859489515889436,0.00025379759608767927,0.00233711046166718,-0.0007862307829782367,-0.002921279286965728,-0.0017170935170724988,-0.0008023058180697262,0.0011906962608918548,-0.0021550313103944063,0.0008777871262282133,0.002883840585127473,0.0015949695371091366,0.0005729678086936474,-0.0014351862482726574,-0.001915692468173802,0.000853793288115412,0.0026522313710302114,0.0014169852947816253,0.0004851600679103285,-0.0013427943922579288,0.0015139277093112469,-0.0008600938017480075,-0.002406212268397212,-0.0014045033603906631,-0.0006579598411917686,0.0008374980534426868,0.002849993295967579,-0.0006844136514700949,-0.0030488583724945784,-0.0015173995634540915,-0.0003557107411324978,0.002067222725600004,-0.00001874501322163269,-0.00004540443842415698,-0.000028837117497459985,-0.00001665714444243349,-0.000015670226275688037,-0.000028820988518418744,-0.000023736165530863218,-0.00003752141856239177,-0.000026877039999817498,-0.000016676669474691153,-0.00001768619767972268,-0.000024468072297167964,0.00003231949813198298,0.0000706090941093862,0.00004697060285252519,0.00002863073314074427,0.000027878955734195188,0.00004614630961441435,0.00005342577787814662,0.00019511381105985492,0.00010046082752523944,0.000042122828745050356,0.000021992422261973843,0.00009804144792724401,-0.000049770849727792665,-0.00018406083108857274,-0.00009399191185366362,-0.00003889422077918425,-0.000018548724256106652,-0.0000907175344764255,-0.00006459604628616944,-0.00017978249525185674,-0.00010588979785097763,-0.00005530480484594591,-0.0000475967644888442,-0.00010709570051403716,0.00006724859122186899,0.00015505451301578432,0.00010028101678472012,0.0000587844624533318,0.000055291351600317284,0.0000976699375314638,0.0000504037961945869,0.0002536502724979073,0.00011304910003673285,0.000035844263038598,-0.000008218556104111485,0.00010632769408402964,0.15345241129398346,0.11960093677043915,0.20258155465126038,0.17843808233737946,-0.24386689066886902,-0.12683595716953278,-0.024734213948249817,0.0008303874055854976,0.026275083422660828,0.12057869881391525,-0.04986410215497017,-0.05658433586359024,-0.05017121508717537,-0.027004875242710114,-0.12677820026874542,-0.2329501211643219,0.25328415632247925,0.15437199175357819,-0.02528798207640648,-0.24509410560131073,-0.3380618095397949,-0.35407695174217224,0.38723519444465637,0.2821628153324127,0.17627885937690735,0.05336602404713631,0.2622731328010559,0.30032601952552795,-0.24908392131328583,-0.19047342240810394,0.17097365856170654,0.1184009313583374,0.21338245272636414,0.24998688697814941,-0.3267676830291748,-0.20007920265197754,-0.16113199293613434,-0.06879229843616486,-0.2503807842731476,-0.3330477178096771,0.2498367428779602,0.1425759345293045,-0.14157280325889587,-0.15163582563400269,-0.2510894536972046,-0.3582814931869507,0.40691694617271423,0.37127116322517395,-0.0020551462657749653,-0.004890538286417723,-0.009100711904466152,-0.009104493074119091,-0.012728100642561913,-0.004907606635242701,-0.0019726494792848825,-0.0037782685831189156,-0.005829747766256332,-0.005423017777502537,-0.007475886959582567,-0.002956835553050041,0.003339157672598958,0.007099404465407133,0.013378680683672428,0.014117810875177383,0.019809192046523094,0.008300140500068665,0.008838004432618618,0.02078401669859886,0.027981434017419815,0.04619966074824333,0.061840590089559555,0.03873063251376152,-0.011562423780560493,-0.029344195500016212,-0.05135764926671982,-0.03815281391143799,-0.06518281996250153,-0.03243524208664894,-0.015017889440059662,-0.020120706409215927,-0.036831703037023544,-0.04077088087797165,-0.05356454849243164,-0.046617452055215836,0.007320951670408249,0.0141470767557621,0.026209073141217232,0.03013075515627861,0.049115825444459915,0.02218407765030861,0.03537778556346893,0.004727469757199287,0.06712830811738968,0.036927927285432816,0.10623767226934433,0.042215462774038315,-0.036743614822626114,-0.00752529501914978,0.024791918694972992,-0.0913025438785553,0.07137704640626907,0.01304374448955059,-0.0006396039389073849,-0.005676193628460169,0.003021824173629284,-0.02479376643896103,0.038009196519851685,-0.005324368830770254,0.029714025557041168,-0.018798742443323135,0.007577679120004177,0.08351217210292816,-0.11779724806547165,-0.005931742489337921,-0.017369037494063377,0.08237893879413605,-0.047170959413051605,0.12754970788955688,-0.20796562731266022,0.03518398106098175,0.007185379043221474,-0.011056671850383282,-0.035449426621198654,-0.2256985753774643,0.16158178448677063,-0.062301475554704666,0.05923309922218323,-0.08485376834869385,-0.0637206956744194,-0.2386414110660553,0.15661107003688812,0.023690929636359215,0.08249154686927795,-0.04308559000492096,0.013635368086397648,0.1983904093503952,-0.11848113685846329,0.087089404463768,0.005910031497478485,-0.06437414139509201,0.082260362803936,0.16883592307567596,-0.14769324660301208,0.00900462456047535,0.02835860848426819,0.13530521094799042,0.03741668537259102,-0.07540546357631683,-0.05398683622479439,0.10017749667167664,-0.15893436968326569,0.026958471164107323,-0.14918480813503265,0.01108180359005928,-0.21799904108047485,0.002453781198710203,0.00011184639879502356,0.7041071653366089,0.21706680953502655,-0.39616110920906067,-0.02474151737987995,0.09118229895830154,0.10842802375555038,-0.022808292880654335,-0.00021660432685166597,-0.16233430802822113,-0.09325630217790604,-0.008900894783437252,0.11866607517004013,-0.1641635298728943,0.18113964796066284,0.012936131097376347,0.0004144239646848291,-0.3347874879837036,0.05591562017798424,0.21545718610286713,-0.07847558706998825,0.3815334737300873,0.22804619371891022,0.03529470041394234,0.0012617787579074502,-0.45966339111328125,-0.026629343628883362,0.1350770741701126,0.11099008470773697,0.02111818827688694,0.07245044410228729,-0.0023889949079602957,-0.00430531008169055,0.26043957471847534,-0.057501789182424545,0.15973946452140808,0.15023721754550934,-0.1655808687210083,0.19682012498378754,-0.0023836989421397448,0.00003906860001734458,-0.2483699768781662,0.1943015456199646,0.2519821524620056,-0.02495928667485714,0.11350224167108536,0.17526334524154663,-0.015402166172862053,-0.007489824667572975,0.30304256081581116,-0.08356048166751862,-0.23841772973537445,-0.06869346648454666,-0.01867309771478176,-0.23455899953842163,0.009274733252823353,0.0008048609597608447,0.5790392160415649,0.14112986624240875,-0.1594652533531189,-0.008776579983532429,-0.0012451971415430307,0.24329933524131775,0.01223628781735897,-0.004584793001413345,-0.25371456146240234,0.028462104499340057,-0.1749098300933838,-0.049715377390384674,0.14666393399238586,-0.07522892951965332,-0.012645317241549492,-0.07436899095773697,-0.10396946966648102,-0.029989439994096756,0.07936859875917435,0.002962738275527954,0.014054141007363796,0.01766754686832428,-0.018022529780864716,-0.020349502563476562,-0.008299402892589569,-0.019619952887296677,-0.026196284219622612,-0.015095185488462448,-0.09744872152805328,-0.06042417511343956,-0.028999218717217445,-0.015013303607702255,-0.024876639246940613,-0.0147483479231596,-0.05089150369167328,-0.017455080524086952,0.03665408119559288,-0.014801425859332085,-0.01610196940600872,-0.041330598294734955,0.04477527737617493,0.08170536160469055,0.056086424738168716,0.030175475403666496,0.06153109297156334,0.057167693972587585,-0.05402037128806114,-0.045690376311540604,-0.027412060648202896,0.01672465354204178,0.07818015664815903,0.050689082592725754,0.051704760640859604,-0.014238748699426651,-0.061275046318769455,0.0009835916571319103,-0.00042450937326066196,-0.009286980144679546,0.12030302733182907,0.10177534818649292,0.05693170800805092,-0.02523144893348217,-0.08330492675304413,-0.06336284428834915,-0.02953719161450863,0.0545690655708313,0.0874103307723999,-0.06914341449737549,-0.050834786146879196,-0.011898287571966648,-0.07012920826673508,-0.01083243079483509,-0.08704172074794769,0.08626788854598999,0.05183067545294762,0.14210616052150726,0.07338282465934753,0.17694024741649628,-0.11105511337518692,-0.09007743000984192,-0.11586187779903412,-0.21937130391597748,-0.10803934931755066,-0.030375780537724495,-0.15130287408828735,-0.014412320218980312,-0.10290363430976868,-0.0275039654225111,-0.07150178402662277,-0.002066860906779766,0.28891825675964355,-0.0450483039021492,0.097559355199337,0.13855744898319244,-0.05727565288543701,0.02187320776283741,-0.351136714220047,0.03151371330022812,-0.021257227286696434,-0.023421119898557663,0.10930690914392471,0.06717102229595184,-0.16844119131565094,-0.13513945043087006,-0.03023536130785942,-0.10430239886045456,0.07722076028585434,-0.04549020901322365,0.1879863440990448,-0.13377676904201508,-0.15314017236232758,-0.1846211850643158,-0.28117242455482483,-0.05380014702677727,0.2766152322292328,0.04815772548317909,0.12141130864620209,0.0056874435395002365,-0.0284645464271307,0.031087396666407585,-0.01730344630777836,-0.03100668638944626,0.07118778675794601,-0.002413672162219882,0.07111822813749313,0.0055105374194681644,-0.09043990820646286,0.07072251290082932,0.03808097913861275,0.03633071109652519,0.07183538377285004,0.08340150117874146,-0.017709167674183846,-0.03170835226774216,-0.03541240468621254,0.05225571244955063,0.028070500120520592,0.04953102767467499,0.11478174477815628,0.05894412845373154,0.013211412355303764,0.11837435513734818,-0.040745511651039124,-0.04588736221194267,-0.11097384989261627,0.06023966893553734,0.012159024365246296,0.10154897719621658,0.000989530119113624,-0.053308743983507156,-0.05492537096142769,0.047469355165958405,-0.035857733339071274,-0.03982851281762123,0.03211178630590439,0.0326247476041317,0.04765576869249344,-0.08284372091293335,-0.017412450164556503,0.019140874966979027,-0.036877281963825226,-0.09649662673473358,0.04273544251918793,0.0003402212751097977,0.00014663675392512232,0.0003410724748391658,0.0007796381833031774,0.000928518595173955,0.0011212064418941736,-0.009948876686394215,-0.011078404262661934,-0.01060268934816122,-0.009117103181779385,-0.00870454777032137,-0.008742786012589931,0.0013155541382730007,0.0013134777545928955,0.001988438656553626,0.0028078164905309677,0.00266113574616611,0.0025906397495418787,0.002223420888185501,0.0032301503233611584,0.003154406324028969,0.0021962670143693686,0.0016865128418430686,0.0006239121430553496,0.0015010901261121035,0.000018748642105492763,0.00017945823492482305,0.0017992977518588305,0.0027735501062124968,0.00402277335524559,0.0012833765940740705,0.0009725780691951513,0.0003776877711061388,0.00009662894444772974,0.0006767203449271619,0.00150770740583539,0.0032977922819554806,0.004250866360962391,0.0035220617428421974,0.0016283995937556028,0.0010238391114398837,0.00018521661695558578,0.000390301865991205,0.0012914607068523765,0.0020603465382009745,0.0020938648376613855,0.0012988965027034283,-0.00014028020086698234,-0.009043955244123936,0.00848905835300684,0.037136275321245193,-0.01864868775010109,0.04501313716173172,-0.11566279083490372,0.04633791744709015,0.0006323527777567506,-0.03205351531505585,0.04851453751325607,0.1282583475112915,-0.28343677520751953,-0.06533157080411911,0.017570512369275093,0.14877624809741974,-0.13837718963623047,-0.02559766359627247,-0.18972186744213104,0.06147601082921028,0.04809906333684921,0.005665107164531946,0.08364644646644592,-0.01790444180369377,0.3033596873283386,-0.013879524543881416,-0.020499693229794502,-0.0037646046839654446,0.10062331706285477,0.29815003275871277,-0.2479880154132843,-0.016934074461460114,0.055144716054201126,0.1006120890378952,0.14317922294139862,0.16573941707611084,0.19120106101036072,-0.03788510337471962,0.01978708989918232,0.0006239713402464986,0.023715807124972343,-0.1784287691116333,0.44388124346733093,0.11732219159603119,-0.008196579292416573,-0.037043116986751556,-0.057500310242176056,-0.1644260585308075,-0.04705888777971268,-0.04657255485653877,-0.016134152188897133,0.00031649682205170393,0.011686800047755241,-0.009992818348109722,-0.08752445876598358,0.034814294427633286,0.0001130243981606327,0.05874137580394745,0.017463725060224533,0.006114841438829899,-0.04729257524013519,0.05254065990447998,0.062131304293870926,-0.1056240051984787,-0.00985032320022583,0.16914372146129608,-0.07878623902797699,-0.011302676983177662,0.06285970658063889,-0.0454317145049572,-0.058910563588142395,-0.15732915699481964,0.16347019374370575,-0.03803861886262894,-0.032270222902297974,0.18104925751686096,0.17795276641845703,0.050203971564769745,-0.10681312531232834,-0.09455408900976181,-0.0378955602645874,0.07304085791110992,0.04953433573246002,-0.05024191737174988,-0.03696002438664436,0.10027051717042923,-0.040460750460624695,-0.10229863971471786,-0.11122970283031464,-0.15421496331691742,0.2002159059047699,-0.0790136456489563,-0.08486096560955048,-0.0182409156113863,-0.2480754405260086,-0.015611213631927967,-0.006593585945665836,-0.010726649314165115,-0.002371778478845954,0.013955063186585903,0.02755625918507576,-0.01159614883363247,-0.02252994291484356,-0.04554419592022896,-0.02299324981868267,0.012212696485221386,0.046689990907907486,-0.03139456361532211,-0.07542525976896286,0.00128498999401927,0.030155302956700325,0.05984169989824295,0.01987018622457981,-0.053191009908914566,-0.07874815911054611,0.055432114750146866,0.030548645183444023,-0.011905957944691181,-0.044864434748888016,-0.005752104334533215,-0.0045381709933280945,-0.04936053976416588,-0.0480739064514637,0.010764789767563343,0.1202988401055336,0.01320250891149044,-0.02694164216518402,0.00037996438913978636,-0.04686978459358215,-0.045019492506980896,0.046674277633428574,0.04266568273305893,0.05069516599178314,0.06735984981060028,0.027531275525689125,-0.03599497303366661,-0.08840827643871307,0.031321000307798386,0.08209270983934402,0.03527601435780525,0.08258350938558578,0.05566438287496567,-0.04538220167160034,-0.03810519725084305,-0.06846167147159576,-0.13609668612480164,0.02829090692102909,0.01066385954618454,-0.038934797048568726,-0.12188727408647537,0.05046195536851883,-0.038408391177654266,0.028096431866288185,-0.11355054378509521,0.10427366197109222,0.0777416005730629,0.08496206253767014,-0.12834274768829346,0.00368337519466877,0.06131628900766373,0.20292897522449493,-0.09264790266752243,0.028597364202141762,-0.01311585959047079,-0.06299354881048203,0.1428852081298828,0.059639960527420044,0.0022013091947883368,-0.024364035576581955,0.0030503785237669945,-0.1034097820520401,-0.2673904597759247,-0.18642736971378326,-0.0885024219751358,0.1295754462480545,0.0437263622879982,-0.04288552328944206,-0.07513290643692017,-0.13780145347118378,-0.08460690081119537,0.004088988061994314,-0.02399078570306301,-0.0485234409570694,0.0988648384809494,-0.1662316471338272,0.010508387349545956,-0.09610821306705475,0.2336852103471756,0.16027939319610596,0.10603822767734528,0.20070263743400574,0.1260642260313034,-0.017946213483810425,-0.16951067745685577,0.009824528358876705,0.08443286269903183,-0.06717842072248459,-0.038555946201086044,0.06205768510699272,-0.09057965874671936,-0.04711046814918518,0.11025668680667877,0.4779905080795288,0.45133036375045776,0.0036068460904061794,0.19370558857917786,0.44616812467575073,-0.025169823318719864,-0.557529628276825,-0.08280060440301895,-0.266482412815094,-0.02956267073750496,0.00004914901001029648,0.11813049763441086,-0.210023894906044,0.1497747302055359,0.3576350510120392,0.03897983580827713,-0.2341635376214981,-0.07477787137031555,0.0023720283061265945,0.2704983353614807,-0.023062683641910553,0.11411033570766449,0.125711590051651,0.10330343246459961,-0.04092929884791374,-0.3180732727050781,0.0018951346864923835,0.3109600245952606,-0.04028601571917534,-0.07777431607246399,0.016232570633292198,0.007850195281207561,0.13323631882667542,0.1613795906305313,0.0063951280899345875,-0.12267979979515076,0.04919048026204109,-0.07739512622356415,-0.18275997042655945,-0.2092088758945465,-0.14320418238639832,0.14671741425991058,-0.011574666947126389,0.25430062413215637,-0.10805204510688782,-0.051729269325733185,0.0968339815735817,-0.02957693673670292,0.20696620643138885,0.19003160297870636,-0.04033521190285683,-0.27649638056755066,0.13510733842849731,-0.09845991432666779,-0.15898732841014862,-0.09553103893995285,0.1948450207710266,-0.09507386386394501,0.00042109089554287493,-0.5501919388771057,0.03256356343626976,-0.07069847732782364,0.08514038473367691,-0.13997586071491241,-0.1487901210784912,0.03968542069196701,0.018161771818995476,0.1093149334192276,0.03838421031832695,0.09372813999652863,0.15489044785499573,-0.029246389865875244,-0.03581397980451584,0.11283746361732483,-0.0957123339176178,0.13498474657535553,-0.16880953311920166,-0.05928322672843933,-0.1862611323595047,0.06511237472295761,0.013038713485002518,-0.019649170339107513,-0.03183169290423393,-0.1121533140540123,0.10599488019943237,0.02690431848168373,-0.007479658350348473,0.009679080918431282,-0.022806856781244278,-0.11240976303815842,0.014040718786418438,0.001901497133076191,0.014341742731630802,0.021443402394652367,0.001611183863133192,0.04593922570347786,-0.05690235272049904,-0.0017554257065057755,-0.010383316315710545,-0.035915400832891464,-0.048697832971811295,0.1628706008195877,-0.11727248877286911,-0.03377721831202507,-0.05541994422674179,0.009235473349690437,-0.013013537041842937,-0.15023306012153625,0.0652134120464325,-0.03655984625220299,-0.017249878495931625,0.012758253142237663,0.0171437319368124,0.024641189724206924,0.003622672753408551,0.04059026762843132,-0.019964169710874557,-0.052611708641052246,-0.050350647419691086,0.08865620195865631,0.004154173191636801,0.1097155436873436,0.01302223652601242,-0.012029376812279224,-0.08962219953536987,0.13413189351558685,-0.03439248353242874,0.05341717600822449,-0.03238946199417114,-0.0516277477145195,-0.03573782369494438,-0.030949991196393967,0.14117495715618134,0.06003860384225845,0.0158688947558403,0.02843356877565384,-0.01859053038060665,-0.008012941107153893,0.09432275593280792,-0.0017864620313048363,-0.016668427735567093,0.051986176520586014,0.009235717356204987,0.033795952796936035,-0.0258463304489851,0.036942582577466965,0.057102952152490616,0.08806745707988739,0.06824000179767609,0.12809748947620392,-0.1412215381860733,0.10391182452440262,0.052275728434324265,0.05159175395965576,-0.02166547067463398,-0.02260615862905979,0.22769567370414734,0.01411775778979063,0.027260148897767067,-0.0020200477447360754,0.003070033388212323,0.00009142121416516602,0.03823002800345421,0.05263550207018852,0.029118139296770096,-0.009183656424283981,0.057748157531023026,0.04191775992512703,-0.08269179612398148,0.054120324552059174,0.04375390708446503,0.09054920822381973,0.050457295030355453,0.11193475127220154,-0.11270514130592346,-0.036401111632585526,0.062164440751075745,0.0067869387567043304,0.04385389760136604,0.0890895277261734,-0.014539122581481934,-0.05008985847234726,0.013775310479104519,0.015443865209817886,0.003766083624213934,0.06086916849017143,0.0362766869366169,0.04029001668095589,-0.02086401730775833,0.015073759481310844,0.045660972595214844,-0.0322645865380764,-0.026401175186038017,-0.035065535455942154,-0.05263017863035202,-0.022766228765249252,0.025874856859445572,-0.025138823315501213,0.11225897818803787,-0.04372589290142059,0.011835969053208828,0.013094138354063034,-0.03952785208821297,0.040615055710077286,-0.029375286772847176,0.12914609909057617,0.047437138855457306,0.10957609117031097,0.06158158928155899,-0.06138799712061882,-0.024860521778464317,-0.022328155115246773,-0.00700036995112896,-0.09747644513845444,-0.02144980989396572,-0.058687642216682434,0.09651952981948853,-0.11784675717353821,-0.10976319015026093,-0.055000223219394684,0.03424886614084244,0.015615453943610191,0.21268588304519653,-0.05745914205908775,-0.07633655518293381,-0.10822093486785889,-0.1348716765642166,-0.15484002232551575,-0.1552097052335739,0.07572668045759201,-0.03411286696791649,-0.06570931524038315,-0.14714281260967255,-0.030695755034685135,-0.1333392709493637,-0.04285365343093872,-0.0005033944617025554,-0.07274915277957916,0.027608849108219147,-0.03443605452775955,-0.0897677093744278,0.03226814419031143,0.19045835733413696,0.027219729498028755,0.06822267919778824,-0.00992591306567192,-0.06109528988599777,-0.03381749242544174,0.055605314671993256,-0.06788753718137741,-0.05642180144786835,0.08801642805337906,0.13921664655208588,-0.13898047804832458,-0.08976944535970688,-0.1807812750339508,-0.1399441808462143,-0.04476456344127655,0.09864194691181183,0.030221208930015564,0.06584062427282333,0.0361265130341053,0.13614004850387573,0.018694326281547546,-0.06325004249811172,0.04659848287701607,0.11332795023918152,0.0759718269109726,0.009222088381648064,-0.024144235998392105,-0.2161078304052353,-0.015962425619363785,0.030705178156495094,0.033270616084337234,0.09706590324640274,-0.008743374608457088,-0.15123943984508514,-0.008392754942178726,-0.005126230418682098,0.007223653141409159,0.023164700716733932,0.06736066192388535,-0.13970696926116943,-0.015503181144595146,-0.07376659661531448,0.04435345157980919,-0.047576066106557846,0.03010494075715542,-0.12499399483203888,0.04871699959039688,-0.003573164576664567,0.006665430497378111,-0.10010870546102524,-0.11300629377365112,0.17008177936077118,0.03798642382025719,0.017506858333945274,-0.014020604081451893,0.04453665763139725,0.11436721682548523,-0.13290879130363464,-0.012309285812079906,0.023702003061771393,0.037826795130968094,0.04314649850130081,0.07340577244758606,0.13512378931045532,0.023986848071217537,0.05871734768152237,0.0075973086059093475,0.018513843417167664,-0.14712639153003693,0.13822264969348907,0.02889193594455719,0.04616165906190872,0.047955628484487534,-0.032291803508996964,-0.16106060147285461,0.04497673362493515,-0.030814649537205696,-0.023773863911628723,0.05125764012336731,-0.13547362387180328,-0.13799048960208893,0.047384608536958694,-0.0012158980825915933,-0.04237224906682968,0.011272015981376171,-0.04400050640106201,-0.11517275124788284,0.18582989275455475,-0.03476504981517792,-0.05265853554010391,-0.07487939298152924,0.030896060168743134,-0.24988606572151184,0.08246684819459915,0.04931313171982765,-0.027468156069517136,0.12084562331438065,-0.01486936490982771,0.10709872841835022,-0.14778432250022888,-0.012772738002240658,0.02566753886640072,0.006923225242644548,-0.13944578170776367,-0.16154515743255615,0.20644505321979523,-0.04085563123226166,-0.05721530690789223,0.020332228392362595,0.07265493273735046,-0.13768181204795837,-0.1495107114315033,-0.06289374828338623,0.0829516351222992,0.016788767650723457,-0.028128966689109802,0.20098960399627686,-0.2847573757171631,0.006159671116620302,0.04129035025835037,0.05910686030983925,0.10426010191440582,0.15866434574127197,-0.053207047283649445,-0.0571213960647583,0.12122024595737457,0.06303134560585022,-0.08496712148189545,0.08355104923248291,0.12076806277036667,-0.04470806196331978,-0.03896060585975647,-0.04082365334033966,0.09877170622348785,0.10693905502557755,0.1734117567539215,-0.13953614234924316,-0.011700904928147793,-0.028475603088736534,-0.04507199302315712,0.06817369908094406,0.03160496801137924,-0.0669042319059372,-0.08294805884361267,-0.15719060599803925,-0.09892395883798599,0.11318161338567734,0.013966914266347885,0.14226630330085754,0.05960533767938614,0.14169374108314514,-0.0005838438519276679,0.09075891226530075,0.1283666491508484,-0.04124930500984192,0.08939708024263382,-0.04237101599574089,0.026970140635967255,-0.12077349424362183,-0.18403707444667816,0.0119997663423419,-0.05635277181863785,-0.001633124309591949,-0.07698022574186325,0.0005201057647354901,0.10185708105564117,-0.11839774250984192,-0.0827259048819542,-0.19407926499843597,-0.13752754032611847,-0.0252867229282856,0.24992258846759796,-0.02734978124499321,-0.010782279074192047,0.08083074539899826,0.006624934263527393,0.034154895693063736,-0.10439703613519669,0.006290539633482695,-0.0033611829858273268,0.06977032124996185,0.11624336987733841,0.0015187566168606281,-0.15976658463478088,0.07925445586442947,0.04477051645517349,0.0073751425370574,0.06931862980127335,-0.053981490433216095,-0.13045337796211243,0.050198961049318314,0.007955551147460938,-0.04441225528717041,0.0465114526450634,-0.008637892082333565,0.1593644917011261,0.04717949405312538,0.03506913036108017,0.06317871063947678,0.0398811399936676,-0.021967574954032898,-0.1523103415966034,0.031122146174311638,0.008513041771948338,0.031004415825009346,-0.06233886256814003,0.01788778230547905,0.16032257676124573,-0.0504351444542408,-0.019543876871466637,-0.048331890255212784,-0.0632949098944664,0.03013034537434578,0.24455766379833221,-0.03477907180786133,-0.051493801176548004,-0.039035726338624954,0.05385821312665939,-0.038970403373241425,-0.010419651865959167,-0.038932330906391144,-0.06276236474514008,-0.0002299051993759349,-0.03241831436753273,-0.09481500089168549,0.004102442413568497,0.11320123076438904,-0.03990592807531357,-0.08309245854616165,-0.10239914804697037,0.3288917541503906,-0.28837722539901733,0.08684908598661423,-0.5144620537757874,0.10059422254562378,0.026512958109378815,-0.1289684921503067,-0.11436966806650162,0.12164109945297241,0.014776569791138172,0.2354218065738678,0.17581750452518463,-0.1795099824666977,-0.02367415279150009,-0.10968786478042603,0.04117239639163017,-0.028718069195747375,0.19446273148059845,0.06743035465478897,-0.005453367717564106,-0.3433268070220947,0.16723228991031647,-0.007912863045930862,-0.06144910678267479,0.010757818818092346,0.20848026871681213,0.07610588520765305,0.17511585354804993,0.06135929375886917,0.0611443929374218,0.08221571147441864,0.06280315667390823,-0.03545987606048584,0.230852872133255,-0.1662040501832962,-0.1561858206987381,-0.16023263335227966,-0.08429468423128128,-0.18443678319454193,-0.1772628128528595,0.22205504775047302,0.046471379697322845,0.24281468987464905,0.07971744984388351,-0.23210756480693817,0.1554894596338272,0.01914198510348797,-0.1380508840084076,0.034331776201725006,-0.08212283998727798,-0.12765641510486603,-0.11323471367359161,0.2350585162639618,-0.10333482921123505,-0.039388787001371384,-0.027386264875531197,0.1446148306131363,-0.05378089100122452,-0.029002560302615166,-0.04759049043059349,-0.12405655533075333,-0.16376124322414398,0.11652231216430664,0.13134132325649261,-0.15198087692260742,0.09377501904964447,-0.08943108469247818,0.13217832148075104,0.040936533361673355,-0.14332064986228943,0.12961916625499725,0.05859607085585594,-0.12397466599941254,0.08067553490400314,0.18845629692077637,0.007856201380491257,0.07032014429569244,0.024278145283460617,-0.0001407672098139301,0.0003769413160625845,-0.00015035303658805788,0.0006593738798983395,0.0005801329389214516,0.00023669254733249545,-0.00024798832600936294,-0.00017478797235526145,-0.0003704706614371389,0.00023813209554646164,0.0005321663920767605,0.00011735058069461957,0.00010192018089583144,0.0005145907052792609,0.0001981777313631028,0.0007998468354344368,0.00018449609342496842,0.00044946902198717,0.0005970461061224341,0.000007347709470195696,0.0002821511006914079,-0.00009880024299491197,-0.0005769609706476331,-0.0008867759606800973,-0.003154096659272909,-0.0037090834230184555,-0.003920629154890776,-0.00249581434763968,-0.0018138792365789413,-0.0026227019261568785,0.003109800396487117,0.002866421127691865,0.0023505163844674826,0.0016089340206235647,0.003372754203155637,0.003439835272729397,0.0009970186511054635,0.00034168027923442423,0.000747096783015877,0.00034713148488663137,-0.00006618458428420126,-0.00029645158792845905,0.0007684355950914323,0.001230638357810676,0.0013010188704356551,0.0018561834003776312,-0.0005965242744423449,-0.0003405436291359365,0.00010036054300144315,-0.0004296549304854125,0.0001287987979594618,-0.0007071300060488284,0.0003563593199942261,0.0005358851049095392,-0.000019454182620393112,-0.0003768593887798488,0.000042933712393278256,-0.0006330506294034421,0.00011904963321285322,0.00031415579724125564,0.00001928641358972527,-0.0002749435661826283,0.00011452671606093645,-0.0006363764987327158,0.0002421160024823621,0.000517055974341929,-0.000176260742591694,0.0002824835537467152,-0.0002293891302542761,0.0005023485282436013,-0.00022644332784693688,-0.00022005490609444678,-0.00040326875750906765,-0.0008959871483966708,-0.0004981380770914257,-0.0012503225589171052,-0.0006713237962685525,-0.0005852398462593555,0.0008834628388285637,0.0010509942658245564,0.0007547561544924974,0.001080299261957407,0.0002825107076205313,0.00010126751294592395,-0.00023078797676134855,0.00014180030848365277,-0.00036600648309104145,0.00048628277727402747,-0.00027065418544225395,-0.0004067436093464494,-0.00019234776846133173,-0.00017462058167438954,-0.00011686031211866066,-0.00017284297791775316,0.000562413944862783,0.0006871102377772331,-0.019243724644184113,-0.09071067720651627,-0.06226373463869095,-0.043680883944034576,-0.025348946452140808,0.031214386224746704,-0.10610385239124298,0.0735696330666542,-0.009783057495951653,-0.09291675686836243,-0.012578113935887814,-0.08564411848783493,0.05455348640680313,0.05735233426094055,-0.08499553054571152,0.023788752034306526,-0.06467247009277344,0.01671595126390457,-0.003977315500378609,-0.022617150098085403,-0.07482222467660904,-0.008275654166936874,0.0023281110916286707,-0.003906596451997757,-0.01154616940766573,-0.02686822973191738,-0.011972405016422272,-0.02159065380692482,0.009806874208152294,-0.06844960153102875,0.08037783205509186,-0.03229551389813423,-0.07016489654779434,0.06112804636359215,0.040450628846883774,-0.012317296117544174,-0.11138851195573807,-0.026421085000038147,-0.04555762559175491,-0.13105157017707825,-0.14828555285930634,0.03637465462088585,-0.015053316950798035,-0.0761285349726677,-0.05425991117954254,-0.09238911420106888,-0.13677732646465302,0.09530040621757507,0.026047026738524437,-0.045403752475976944,-0.035572826862335205,0.012554893270134926,-0.0842549279332161,0.0028726656455546618,0.10420190542936325,-0.04755294322967529,-0.037801939994096756,-0.07997413724660873,-0.0011526556918397546,0.0065953671000897884,0.028508435934782028,-0.004381932783871889,-0.12459316104650497,-0.10477939993143082,-0.10268064588308334,0.015302256681025028,0.12215365469455719,0.009435119107365608,-0.07067938148975372,-0.022192129865288734,-0.024311456829309464,-0.08137855678796768,-0.02221054956316948,-0.006024193484336138,-0.08240322768688202,-0.0351923331618309,0.06114378198981285,-0.10528773069381714,0.024190692231059074,0.02965025044977665,-0.0383027046918869,-0.010813024826347828,0.004977529402822256,-0.0638861209154129,-0.006136348471045494,-0.0022072645369917154,0.0345749706029892,-0.04263683408498764,-0.07720865309238434,0.003986045252531767,0.07787103950977325,0.0802454799413681,0.06338703632354736,0.0520581379532814,0.028176942840218544,0.0712297260761261,-0.10722130537033081,-0.043447889387607574,-0.12646210193634033,-0.021174779161810875,-0.04418289288878441,0.10147466510534286,0.010112043470144272,-0.026560109108686447,0.006218580063432455,0.08568455278873444,0.11985311657190323,0.22315613925457,-0.09521742165088654,-0.03639187291264534,0.025449229404330254,0.02122192643582821,-0.1096218079328537,-0.012354770675301552,-0.012415741570293903,-0.03132206201553345,0.010538126341998577,-0.0006794361397624016,-0.03783684968948364,-0.00620096642524004,0.0707126185297966,0.1033107191324234,0.12871330976486206,0.09199613332748413,0.0025302667636424303,0.21690422296524048,0.06931261718273163,-0.03073856234550476,-0.03234752640128136,0.0627126470208168,-0.03753472864627838,-0.21272283792495728,-0.11488378793001175,-0.038942087441682816,-0.04967299848794937,-0.01885301060974598,-0.10448610037565231,-0.07125233113765717,-0.15297956764698029,-0.20523302257061005,-0.2449665665626526,-0.10606029629707336,-0.2133910059928894,-0.06627053022384644,-0.02172001637518406,0.007303178776055574,-0.10240709036588669,0.08516334742307663,-0.11273711174726486,0.07463245838880539,0.08358784019947052,0.0009188154363073409,0.10326167941093445,0.1943303495645523,0.03157603368163109,0.1731402724981308,-0.08546910434961319,0.04069681838154793,-0.013342419639229774,-0.04447445273399353,-0.03181907907128334,0.06728339195251465,0.031097304075956345,0.0429115928709507,-0.10810691863298416,-0.02352229505777359,-0.006311515811830759,0.25833824276924133,-0.027749231085181236,0.13504697382450104,0.052459411323070526,0.017943447455763817,0.08907824009656906,0.1470233052968979,0.035968780517578125,0.14451874792575836,0.023142913356423378,-0.07807790488004684,0.1810581088066101,-0.15374737977981567,-0.05068201571702957,-0.029302608221769333,-0.028917942196130753,-0.019631322473287582,-0.12240597605705261,0.0645558163523674,-0.016516447067260742,-0.04263640567660332,-0.21621544659137726,-0.049710746854543686,-0.14496742188930511,0.2866617739200592,0.08729978650808334,0.05929818004369736,0.06680160760879517,-0.02178645320236683,-0.039933737367391586,0.10343364626169205,0.08005306869745255,0.11418946832418442,0.13057400286197662,0.06251534819602966,0.134102925658226,0.11121393740177155,-0.026972346007823944,-0.05364459007978439,-0.041605234146118164,0.019648995250463486,-0.07720892131328583,0.07121171057224274,0.1411977857351303,0.013056855648756027,0.05831683799624443,0.02785736322402954,0.0826156735420227,-0.08661864697933197,0.08581013232469559,0.0019258968532085419,0.01917167566716671,0.0971645787358284,-0.08048117905855179,0.09978976845741272,-0.06943020969629288,-0.09578800201416016,-0.02583286538720131,0.019170986488461494,-0.02888079546391964,-0.011635588482022285,0.13105256855487823,0.0947863906621933,0.11171162128448486,0.11212340742349625,-0.05956791713833809,-0.029741967096924782,0.07334860414266586,0.09556688368320465,0.05188797414302826,0.03129217401146889,0.10326080769300461,0.042370136827230453,-0.04545148089528084,-0.010083694010972977,0.008735927753150463,0.002552343299612403,-0.023634444922208786,-0.10403410345315933,-0.12634237110614777,-0.01129063405096531,0.015108318068087101,0.014613183215260506,-0.01088168565183878,-0.09520541876554489,0.019066447392106056,0.01658674329519272,0.010030601173639297,0.04628770798444748,0.011479740031063557,-0.03265300765633583,-0.11867780238389969,-0.00015157103189267218,-0.010546175763010979,-0.00036760070361196995,-0.035076867789030075,0.1288730800151825,-0.012688600458204746,0.026937175542116165,0.027514785528182983,-0.032511092722415924,0.006891499739140272,-0.07923035323619843,0.07635065913200378,-0.0131869250908494,0.01702140085399151,-0.02418757602572441,0.0375543087720871,-0.029775721952319145,-0.09345157444477081,-0.011774076148867607,0.011550482362508774,-0.012262123636901379,-0.06141370162367821,0.0765375941991806,-0.03417520597577095,-0.004917270969599485,-0.040425293147563934,0.015531584620475769,-0.11358039826154709,0.0972057357430458,-0.015369823202490807,-0.007961118593811989,0.10492226481437683,0.0839562863111496,0.12471061944961548,0.10501255840063095,0.1541675478219986,-0.04798214137554169,-0.0012932693352922797,0.00013113781460560858,0.6377724409103394,0.03582531958818436,0.6205368041992188,-0.012364937923848629,-0.5092157125473022,0.2642076909542084,0.0003098422603216022,-0.000046930905227782205,-0.2112339437007904,-0.3140518367290497,0.16932372748851776,-0.0489363931119442,-0.035162054002285004,0.22548717260360718,-0.004779033362865448,-0.00008960509148892015,0.04788784682750702,0.131869837641716,-0.0763687714934349,-0.27976611256599426,-0.1729232370853424,0.04671495035290718,0.0007239384576678276,0.00037420832086354494,-0.0053114816546440125,-0.1609809398651123,0.1029355376958847,-0.14292959868907928,-0.0960693508386612,-0.06282036751508713,-0.0005896444199606776,0.00027555914130061865,0.16204309463500977,0.1725255846977234,-0.19697293639183044,-0.24968574941158295,-0.05353064462542534,-0.12254881113767624,-0.003509833477437496,-0.000442113057943061,-0.026674240827560425,0.27450892329216003,0.06770066916942596,-0.0471014529466629,0.12158474326133728,0.009199892170727253,0.006905448157340288,-0.0003157356404699385,0.04928964748978615,0.16131456196308136,0.3922870457172394,0.04976737126708031,-0.2888032793998718,0.027946116402745247,0.0041446504183113575,-0.0004944096435792744,0.1357647329568863,0.07536254823207855,0.1595918834209442,0.3466530442237854,-0.09715574234724045,-0.030491536483168602,-0.0009351782500743866,0.00032106172875501215,-0.2814810872077942,-0.25383928418159485,0.0882098451256752,-0.21547925472259521,0.06437334418296814,-0.16549848020076752,-0.028212323784828186,-0.03486103191971779,0.07753457874059677,0.16664911806583405,-0.1856512874364853,-0.11262046545743942,-0.1834518015384674,0.18489696085453033,-0.17225578427314758,0.016937468200922012,0.09500753879547119,-0.045818280428647995,-0.08734884113073349,-0.13107413053512573,-0.07921689748764038,-0.057390183210372925,-0.11224602907896042,-0.029245512560009956,-0.11947568506002426,0.26504820585250854,-0.09426244348287582,-0.031566083431243896,-0.059651173651218414,-0.08659987896680832,-0.05892462655901909,-0.19497478008270264,0.16105765104293823,0.09551476687192917,0.0628887265920639,-0.1134679988026619,-0.0757090225815773,0.30247122049331665,0.05017775669693947,0.0682792142033577,0.01639324240386486,-0.02028989978134632,0.0937599316239357,0.0772734209895134,-0.31101083755493164,-0.12735627591609955,-0.02293483167886734,0.027272645384073257,0.021899806335568428,-0.14739157259464264,-0.04216332733631134,-0.011411898769438267,-0.088105708360672,-0.04008562117815018,-0.04229363054037094,-0.047197125852108,0.20226633548736572,0.028579173609614372,-0.05872747302055359,0.0637369155883789,-0.004846430383622646,0.2221473753452301,-0.02608889900147915,0.06908996403217316,-0.023170026019215584,-0.008137136697769165,0.03868233412504196,-0.08050262928009033,-0.06896860897541046,-0.07162773609161377,-0.0726078450679779,-0.09607303887605667,-0.0652860477566719,-0.18674644827842712,-0.029940558597445488,-0.019367527216672897,0.023397421464323997,0.03219697251915932,0.03787819296121597,-0.08978842943906784,-0.04198329523205757,-0.07917650789022446,-0.08938611298799515,-0.10021374374628067,-0.10623099654912949,0.09039643406867981,-0.008046743459999561,-0.019485395401716232,0.039124634116888046,0.0799046978354454,0.04608466476202011,-0.09172945469617844,-0.004093559924513102,0.05429116636514664,0.12156007438898087,0.1307377964258194,0.10979395359754562,0.03971991688013077,-0.004023280926048756,0.011843882501125336,-0.02504119463264942,-0.007118143606930971,0.06830713152885437,0.17304611206054688,0.028872137889266014,-0.0470234677195549,-0.03106776252388954,-0.10431595146656036,-0.12956945598125458,0.032858263701200485,0.02660232037305832,0.04399500787258148,-0.026933228597044945,0.004936719313263893,0.013762947171926498,-0.041973717510700226,0.0604122020304203,0.07713504880666733,0.08616207540035248,-0.004246483091264963,0.08528353273868561,-0.0028587360866367817,-0.059849001467227936,-0.02811412140727043,-0.00905204564332962,-0.05794886499643326,-0.0940886065363884,0.0391138531267643,0.03670801222324371,0.0961911529302597,0.11783081293106079,-0.038765210658311844,0.05134769156575203,0.16355955600738525,0.07858719676733017,0.1090138778090477,0.10439537465572357,0.07169630378484726,0.07414623349905014,-0.021778572350740433,-0.07166893780231476,0.01865801215171814,-0.09201566129922867,0.06238843500614166,-0.053281497210264206,0.023113688454031944,0.06502004712820053,0.04986080899834633,0.00352099840529263,0.03510873764753342,-0.030665742233395576,0.06045105680823326,0.07886359840631485,0.12196659296751022,0.03172725811600685,0.08964873850345612,0.06276194006204605,0.16318584978580475,-0.02127723954617977,-0.09357856214046478,0.008431311696767807,-0.04223425313830376,-0.07645930349826813,0.03211574628949165,-0.004729458596557379,0.019192922860383987,0.03817835822701454,0.024305537343025208,0.07604245096445084,0.08503018319606781,-0.141221284866333,-0.002994091250002384,-0.04177078977227211,-0.07698138803243637,-0.0616881288588047,0.015378194861114025,-0.01888871006667614,0.04571027308702469,0.04869795963168144,0.04730075225234032,0.03232194483280182,0.09672936797142029,-0.02871038019657135,0.05523643270134926,0.024321969598531723,0.06774427741765976,-0.009805377572774887,0.11082950979471207,-0.10084427893161774,0.0014708198141306639,0.02575882151722908,0.0024361617397516966,0.1704227775335312,-0.007568106986582279,-0.012101385742425919,-0.027472030371427536,0.06911136955022812,-0.014889712445437908,0.04643634334206581,0.07435029745101929,-0.01750328205525875,0.06566262990236282,0.02471986599266529,-0.0591837614774704,0.09973931312561035,0.01884622685611248,-0.12319263815879822,-0.007059675175696611,0.03843943029642105,-0.015887726098299026,0.05696609243750572,-0.08429903537034988,0.0781874805688858,0.18618100881576538,0.04127694293856621,0.018752580508589745,0.11585279554128647,0.15876972675323486,-0.09609802812337875,-0.03313992917537689,-0.1485316902399063,-0.07382553070783615,-0.009430240839719772,0.029719896614551544,0.0752667784690857,0.1002342477440834,0.11536654084920883,0.02171938866376877,0.11975554376840591,-0.039976079016923904,0.05133215710520744,0.05819888785481453,-0.026308394968509674,0.0811191201210022,0.11254709959030151,-0.06247509643435478,-0.1902863085269928,-0.010047944262623787,-0.047570835798978806,-0.05147593840956688,-0.0434410460293293,-0.07810015976428986,-0.07029362767934799,0.0658126100897789,-0.07229746133089066,0.03955943137407303,0.03651899844408035,-0.18374599516391754,0.12423895299434662,0.1534341424703598,0.13724285364151,0.16968533396720886,0.057586245238780975,0.008991999551653862,-0.09007313847541809,-0.006639854982495308,-0.09770884364843369,-0.019551869481801987,0.020400436595082283,-0.10272835195064545,-0.04978729784488678,-0.18030662834644318,-0.16973166167736053,-0.03957797959446907,-0.09452733397483826,-0.11769139021635056,-0.006627961527556181,0.012455555610358715,0.011155334301292896,0.05291043221950531,0.0040478212758898735,-0.05912582576274872,-0.026398608461022377,-0.052466027438640594,-0.13262295722961426,-0.07711904495954514,-0.15355271100997925,0.02682555839419365,-0.009738942608237267,0.018989382311701775,0.006516411434859037,0.03636021912097931,-0.004195453133434057,0.13136784732341766,-0.0811208188533783,-0.014218912459909916,0.10463107377290726,0.10917523503303528,0.010832485742866993,-0.13621364533901215,-0.08706211298704147,-0.06888454407453537,-0.13598310947418213,-0.055499907582998276,-0.08233794569969177,0.0700128972530365,0.047229163348674774,-0.03181232139468193,-0.028336482122540474,-0.08323168754577637,-0.13516725599765778,0.043263837695121765,0.05406391620635986,-0.07894255965948105,-0.07224910706281662,0.04585614427924156,-0.07090133428573608,-0.04625897854566574,-0.03844686597585678,-0.06033764034509659,-0.3384736180305481,-0.10693700611591339,-0.12386403977870941,0.044834066182374954,-0.009210874326527119,-0.12049748003482819,-0.10949397087097168,0.010715779848396778,-0.08136589080095291,-0.022143376991152763,0.020238356664776802,-0.0404861681163311,-0.2354516088962555,-0.05413001775741577,-0.018088655546307564,0.10136941820383072,0.00839940831065178,0.11047183722257614,0.09990586340427399,0.06251467019319534,0.07444923371076584,-0.09715693444013596,-0.0419452041387558,-0.02696681022644043,0.0974460244178772,-0.032504305243492126,0.06245696172118187,-0.19551464915275574,-0.023564087226986885,-0.09216754138469696,-0.0030854027718305588,0.06758636236190796,-0.05040480196475983,-0.1120075061917305,-0.0364590659737587,-0.0820382833480835,-0.12027569115161896,-0.13570977747440338,-0.0754200667142868,0.1303734928369522,-0.022997552528977394,-0.029401365667581558,-0.09134867042303085,-0.020981084555387497,-0.10786904394626617,0.10282671451568604,-0.07103372365236282,-0.008413037285208702,0.057576052844524384,0.013044181279838085,-0.013505881652235985,0.1518058180809021,0.001651242608204484,-0.056519124656915665,-0.10196396708488464,-0.003900452982634306,-0.07144557684659958,0.046339597553014755,-0.03454206883907318,0.11838914453983307,0.0022281210403889418,0.14223457872867584,0.10067428648471832,-0.18770383298397064,-0.004814587067812681,0.1055312529206276,0.18304963409900665,0.0041776685975492,0.13627836108207703,0.2694576382637024,-0.030011938884854317,-0.10093230754137039,-0.029367856681346893,-0.18032054603099823,-0.18968693912029266,0.03929374739527702,0.034225963056087494,0.00016683059220667928,0.13509100675582886,0.00016217143274843693,0.1821233034133911,-0.22491909563541412,-0.0071006095968186855,0.09858360886573792,0.1812404990196228,0.045492712408304214,0.21856799721717834,-0.039679139852523804,0.06958208978176117,-0.07478364557027817,0.06658930331468582,0.06169329211115837,0.09165719896554947,0.15605352818965912,0.23517009615898132,0.010287613607943058,-0.09480562806129456,0.2906463146209717,0.2214145064353943,0.10445127636194229,-0.472247838973999,0.36150047183036804,-0.24480101466178894,-0.3637237846851349,0.05045484006404877,0.06455136090517044,-0.14986269176006317,-0.11329159140586853,-0.020614733919501305,0.29941266775131226,-0.0022591305896639824,0.06516122817993164,-0.2843008041381836,0.19633127748966217,0.09594584256410599,0.023357555270195007,-0.09574753046035767,-0.09040593355894089,0.295312762260437,-0.03334257751703262,0.19136273860931396,-0.038344912230968475,0.013936227187514305,0.1817508041858673,0.13018250465393066,0.013563874177634716,0.09398350119590759,0.2484208196401596,-0.14123883843421936,-0.09030322730541229,-0.3172062039375305,-0.04164935275912285,-0.17967236042022705,-0.012264948338270187,-0.10248405486345291,-0.009398757480084896,-0.2138732224702835,0.1712890863418579,-0.12288358062505722,-0.22919395565986633,0.08649739623069763,-0.15892593562602997,0.10895250737667084,0.11709581315517426,0.14369550347328186,0.1973380297422409,-0.03199156001210213,0.029154682531952858,-0.05884600803256035,0.14355844259262085,0.37234020233154297,-0.24693909287452698,0.05098593235015869,0.0913880318403244,0.14927475154399872,-0.10665164142847061,-0.14985248446464539,0.1805834323167801,0.16899491846561432,-0.17761291563510895,-0.2969197928905487,0.10888311266899109,-0.170943945646286,-0.006013127975165844,-0.22294513881206512,0.2104702591896057,0.13691601157188416,0.06527658551931381,-0.18977759778499603,0.11121894419193268,-0.19359223544597626,-0.0931488424539566,-0.04661136493086815,0.15678775310516357,-0.010680979117751122,0.04192529618740082,0.018624408170580864,-0.00032463212846778333,0.07513998448848724,0.042215291410684586,0.006251203361898661,0.03692859783768654,0.08884548395872116,0.08270511031150818,-0.11838287860155106,0.03460404649376869,-0.012479273602366447,0.09855515509843826,-0.061582259833812714,0.007545208092778921,-0.08581265062093735,-0.080546535551548,0.04554072022438049,0.09078794717788696,0.05155298858880997,0.06133338436484337,0.023347655311226845,0.01657898537814617,0.032343462109565735,-0.09349766373634338,0.10932108014822006,-0.04652019962668419,0.057415008544921875,0.03792688623070717,0.04870051518082619,-0.008760801516473293,0.1638907939195633,-0.0878731906414032,-0.03579718619585037,0.23604804277420044,0.17583608627319336,-0.05174916982650757,-0.030844490975141525,-0.006702815648168325,0.0028004255145788193,-0.052352175116539,0.027930159121751785,-0.04908083751797676,0.06628705561161041,-0.009794270619750023,-0.018246784806251526,-0.07130134850740433,0.01218986976891756,-0.0024907789193093777,-0.06871761381626129,0.05294254049658775,-0.11823432147502899,-0.002059874590486288,0.019942941144108772,-0.09028128534555435,0.15028560161590576,0.04373222962021828,0.018606550991535187,-0.13418877124786377,-0.19537630677223206,-0.08377417922019958,0.02211872488260269,-0.11240071058273315,-0.04720673710107803,-0.04158667102456093,0.08805783092975616,0.02543494664132595,-0.03140166029334068,0.038269247859716415,-0.010798939503729343,-0.04722544178366661,-0.13945651054382324,-0.047231633216142654,0.11107449978590012,0.059874020516872406,-0.16447967290878296,0.01652936264872551,-0.055286139249801636,-0.20491550862789154,0.11038373410701752,-0.05341782420873642,-0.2144225835800171,-0.07698893547058105,0.19355811178684235,-0.1698993444442749,0.0836939737200737,0.028669754043221474,-0.09592316299676895,-0.062099602073431015,-0.03574271500110626,0.04402996599674225,0.06451677531003952,0.11577694118022919,0.03114011138677597,-0.001823374885134399,-0.14748206734657288,0.22477906942367554,-0.004172806162387133,0.029993651434779167,-0.017524244263768196,0.0016633940394967794,0.07993859052658081,0.0317658893764019,0.015597247518599033,0.020785566419363022,-0.03814559057354927,-0.09620187431573868,-0.038485750555992126,0.09404019266366959,-0.05068344250321388,-0.009330103173851967,-0.0032364146318286657,-0.02717548795044422,-0.019909018650650978,-0.007782808504998684,0.12388113141059875,0.08661005645990372,0.1623660773038864,-0.07785158604383469,-0.10393140465021133,0.04983385279774666,0.05287345498800278,-0.0004735309921670705,0.043254073709249496,-0.004440822172909975,0.10080767422914505,-0.005117100663483143,-0.024303514510393143,-0.050204988569021225,-0.14653339982032776,0.03698419779539108,0.3011365830898285,-0.015113730914890766,-0.04964052885770798,0.013480308465659618,-0.0812564343214035,0.008875353261828423,0.02611725404858589,0.009245362132787704,-0.0011174584506079555,-0.004446629900485277,-0.041114646941423416,-0.12112882733345032,-0.102390356361866,0.13317574560642242,-0.2131941020488739,-0.18726016581058502,-0.1051725447177887,-0.08967935293912888,-0.08694525808095932,-0.016002988442778587,0.14573934674263,0.11123332381248474,-0.11379505693912506,-0.0862329751253128,0.07573216408491135,-0.036207444965839386,-0.15373243391513824,0.000007643222488695756,-0.032141368836164474,0.08215326815843582,0.00040293167694471776,-0.04284190386533737,0.024206984788179398,-0.08629819005727768,-0.08814538270235062,-0.13418638706207275,-0.16959525644779205,-0.1877276450395584,0.2388022392988205,-0.067336805164814,-0.08135437965393066,-0.06273400038480759,-0.015564761124551296,-0.07912373542785645,-0.015440428629517555,-0.24262332916259766,-0.07131540775299072,0.06951766461133957,0.07881297171115875,0.034029461443424225,0.04743503779172897,0.06137445941567421,-0.05179635062813759,-0.024982739239931107,0.056363172829151154,-0.13765636086463928,0.24304668605327606,-0.033079687505960464,-0.037583380937576294,0.009714129380881786,-0.052445195615291595,-0.07692493498325348,0.12597613036632538,0.018056977540254593,-0.020377345383167267,-0.048094671219587326,-0.03801850602030754,0.11602690815925598,-0.05359145626425743,0.07778950780630112,0.06836984306573868,-0.023579521104693413,0.045058730989694595,-0.0016939016059041023,0.14329634606838226,-0.013099949806928635,0.04183710739016533,0.01744907721877098,-0.044923290610313416,0.11875464767217636,-0.06687786430120468,-0.049042217433452606,-0.052632808685302734,0.032550521194934845,0.1484086960554123,-0.058519139885902405,-0.051729533821344376,0.0434848852455616,-0.010733727365732193,-0.05193131044507027,-0.1362350732088089,0.26067185401916504,0.14901357889175415,0.2626638412475586,0.053690556436777115,-0.18544845283031464,-0.21333011984825134,-0.1460246443748474,0.024554602801799774,-0.018883224576711655,0.021237041801214218,-0.015762517228722572,-0.1377386748790741,-0.35529229044914246,-0.12896250188350677,-0.0011869589798152447,0.018460018560290337,0.0535859689116478,0.045725345611572266,-0.11416739970445633,-0.06058912351727486,0.08413483202457428,0.04233181104063988,0.05325216427445412,0.019097639247775078,0.02798050083220005,0.026245679706335068,-0.0013635935029014945,-0.04875721409916878,0.011345802806317806,-0.013622167520225048,-0.04503805190324783,-0.049853961914777756,-0.03771321475505829,0.026515495032072067,0.04601558670401573,0.10188043862581253,0.07320776581764221,0.05791446939110756,-0.014074300415813923,-0.01985674351453781,-0.09735332429409027,-0.08959925174713135,-0.0897936299443245,-0.0069414833560585976,-0.13159982860088348,-0.09218990802764893,0.10428836196660995,0.00992029532790184,-0.1418083906173706,-0.13530434668064117,-0.10682457685470581,-0.03748549520969391,0.2175949066877365,0.25863340497016907,0.20570780336856842,-0.015509413555264473,-0.02837374620139599,-0.02061447873711586,0.06232349947094917,-0.03385823965072632,0.17086967825889587,0.0648270845413208,-0.013903339393436909,-0.08588942140340805,-0.08542416989803314,-0.034788016229867935,-0.08554178476333618,-0.16123737394809723,-0.04885389283299446,-0.1073073297739029,-0.004933317191898823,0.13033251464366913,-0.08739747107028961,0.17878760397434235,0.04875779151916504,-0.09088838845491409,-0.06712628155946732,-0.1548536866903305,-0.04044026881456375,-0.1649097055196762,-0.03143500164151192,-0.042310938239097595,0.06766388565301895,0.07325764000415802,0.000587661808822304,-0.008846577256917953,0.049304764717817307,0.006441009696573019,-0.06393520534038544,-0.04705291986465454,0.08003631979227066,0.16455796360969543,-0.049250099807977676,-0.02852114848792553,-0.0501256100833416,0.042394332587718964,-0.4534706175327301,-0.0628499910235405,-0.21498848497867584,-0.27808091044425964,0.12829256057739258,0.33587563037872314,0.29628604650497437,0.07083993405103683,